digraph Tree {
node [shape=box] ;
0 [label="count_miss <= 0.5\ngini = 0.295\nsamples = 3659\nvalue = [3002, 657]"] ;
1 [label="payor_type_0.0 <= 0.5\ngini = 0.262\nsamples = 2929\nvalue = [2474, 455]"] ;
0 -> 1 [labeldistance=2.5, labelangle=45, headlabel="True"] ;
2 [label="Made_Lead_Days_Calendar <= 182.5\ngini = 0.251\nsamples = 2869\nvalue = [2446, 423]"] ;
1 -> 2 ;
3 [label="payor_type_3.0 <= 0.5\ngini = 0.233\nsamples = 2694\nvalue = [2331, 363]"] ;
2 -> 3 ;
4 [label="gini = 0.136\nsamples = 859\nvalue = [796, 63]"] ;
3 -> 4 ;
5 [label="gini = 0.274\nsamples = 1835\nvalue = [1535, 300]"] ;
3 -> 5 ;
6 [label="distance_bird <= 11.083\ngini = 0.451\nsamples = 175\nvalue = [115, 60]"] ;
2 -> 6 ;
7 [label="gini = 0.467\nsamples = 35\nvalue = [13, 22]"] ;
6 -> 7 ;
8 [label="gini = 0.396\nsamples = 140\nvalue = [102, 38]"] ;
6 -> 8 ;
9 [label="distance_bird <= 77.825\ngini = 0.498\nsamples = 60\nvalue = [28, 32]"] ;
1 -> 9 ;
10 [label="Made_Lead_Days_Calendar <= 3.5\ngini = 0.454\nsamples = 46\nvalue = [16, 30]"] ;
9 -> 10 ;
11 [label="gini = 0.42\nsamples = 10\nvalue = [7, 3]"] ;
10 -> 11 ;
12 [label="gini = 0.375\nsamples = 36\nvalue = [9, 27]"] ;
10 -> 12 ;
13 [label="gini = 0.245\nsamples = 14\nvalue = [12, 2]"] ;
9 -> 13 ;
14 [label="Made_Lead_Days_Calendar <= 18.5\ngini = 0.4\nsamples = 730\nvalue = [528, 202]"] ;
0 -> 14 [labeldistance=2.5, labelangle=-45, headlabel="False"] ;
15 [label="payor_type_3.0 <= 0.5\ngini = 0.327\nsamples = 471\nvalue = [374, 97]"] ;
14 -> 15 ;
16 [label="distance_bird <= 12.231\ngini = 0.115\nsamples = 82\nvalue = [77, 5]"] ;
15 -> 16 ;
17 [label="gini = 0.337\nsamples = 14\nvalue = [11, 3]"] ;
16 -> 17 ;
18 [label="gini = 0.057\nsamples = 68\nvalue = [66, 2]"] ;
16 -> 18 ;
19 [label="count_app <= 3.5\ngini = 0.361\nsamples = 389\nvalue = [297, 92]"] ;
15 -> 19 ;
20 [label="gini = 0.429\nsamples = 199\nvalue = [137, 62]"] ;
19 -> 20 ;
21 [label="gini = 0.266\nsamples = 190\nvalue = [160, 30]"] ;
19 -> 21 ;
22 [label="count_miss <= 1.5\ngini = 0.482\nsamples = 259\nvalue = [154, 105]"] ;
14 -> 22 ;
23 [label="Appt_Year <= 2016.5\ngini = 0.449\nsamples = 182\nvalue = [120, 62]"] ;
22 -> 23 ;
24 [label="gini = 0.499\nsamples = 71\nvalue = [37, 34]"] ;
23 -> 24 ;
25 [label="gini = 0.377\nsamples = 111\nvalue = [83, 28]"] ;
23 -> 25 ;
26 [label="duration_google <= 2477.5\ngini = 0.493\nsamples = 77\nvalue = [34, 43]"] ;
22 -> 26 ;
27 [label="gini = 0.494\nsamples = 47\nvalue = [26, 21]"] ;
26 -> 27 ;
28 [label="gini = 0.391\nsamples = 30\nvalue = [8, 22]"] ;
26 -> 28 ;
}