digraph Tree {
node [shape=box] ;
0 [label="Payor_Type_ID <= 0.5\ngini = 0.259\nsamples = 5703\nvalue = [4832, 871]"] ;
1 [label="Visit_Type_ID <= 15.5\ngini = 0.499\nsamples = 172\nvalue = [83, 89]"] ;
0 -> 1 [labeldistance=2.5, labelangle=45, headlabel="True"] ;
2 [label="Patient_Age_Bucket_ID <= 1.5\ngini = 0.426\nsamples = 91\nvalue = [63, 28]"] ;
1 -> 2 ;
3 [label="Made_Lead_Days_Calendar <= 26.0\ngini = 0.08\nsamples = 24\nvalue = [23, 1]"] ;
2 -> 3 ;
4 [label="gini = 0.0\nsamples = 23\nvalue = [23, 0]"] ;
3 -> 4 ;
5 [label="gini = 0.0\nsamples = 1\nvalue = [0, 1]"] ;
3 -> 5 ;
6 [label="Appt_Made_Min <= 49.5\ngini = 0.481\nsamples = 67\nvalue = [40, 27]"] ;
2 -> 6 ;
7 [label="Appt_Made_Month <= 8.5\ngini = 0.448\nsamples = 56\nvalue = [37, 19]"] ;
6 -> 7 ;
8 [label="Appt_Made_Hour <= 9.5\ngini = 0.381\nsamples = 43\nvalue = [32, 11]"] ;
7 -> 8 ;
9 [label="Appt_Day <= 21.0\ngini = 0.494\nsamples = 9\nvalue = [4, 5]"] ;
8 -> 9 ;
10 [label="Appt_Year <= 2016.5\ngini = 0.32\nsamples = 5\nvalue = [4, 1]"] ;
9 -> 10 ;
11 [label="gini = 0.0\nsamples = 4\nvalue = [4, 0]"] ;
10 -> 11 ;
12 [label="gini = 0.0\nsamples = 1\nvalue = [0, 1]"] ;
10 -> 12 ;
13 [label="gini = 0.0\nsamples = 4\nvalue = [0, 4]"] ;
9 -> 13 ;
14 [label="Provider_ID <= 7.5\ngini = 0.291\nsamples = 34\nvalue = [28, 6]"] ;
8 -> 14 ;
15 [label="Appt_Made_Hour <= 15.0\ngini = 0.444\nsamples = 3\nvalue = [1, 2]"] ;
14 -> 15 ;
16 [label="gini = 0.0\nsamples = 2\nvalue = [0, 2]"] ;
15 -> 16 ;
17 [label="gini = 0.0\nsamples = 1\nvalue = [1, 0]"] ;
15 -> 17 ;
18 [label="Appt_Time_Min <= 5.0\ngini = 0.225\nsamples = 31\nvalue = [27, 4]"] ;
14 -> 18 ;
19 [label="Appt_Day <= 16.0\ngini = 0.5\nsamples = 6\nvalue = [3, 3]"] ;
18 -> 19 ;
20 [label="gini = 0.0\nsamples = 2\nvalue = [0, 2]"] ;
19 -> 20 ;
21 [label="Appt_Logistics_Type_ID <= 3.0\ngini = 0.375\nsamples = 4\nvalue = [3, 1]"] ;
19 -> 21 ;
22 [label="gini = 0.0\nsamples = 3\nvalue = [3, 0]"] ;
21 -> 22 ;
23 [label="gini = 0.0\nsamples = 1\nvalue = [0, 1]"] ;
21 -> 23 ;
24 [label="Distance <= 0.001\ngini = 0.077\nsamples = 25\nvalue = [24, 1]"] ;
18 -> 24 ;
25 [label="gini = 0.0\nsamples = 1\nvalue = [0, 1]"] ;
24 -> 25 ;
26 [label="gini = 0.0\nsamples = 24\nvalue = [24, 0]"] ;
24 -> 26 ;
27 [label="Appt_Made_Month <= 9.5\ngini = 0.473\nsamples = 13\nvalue = [5, 8]"] ;
7 -> 27 ;
28 [label="gini = 0.0\nsamples = 5\nvalue = [0, 5]"] ;
27 -> 28 ;
29 [label="Appt_Time_Hour <= 13.5\ngini = 0.469\nsamples = 8\nvalue = [5, 3]"] ;
27 -> 29 ;
30 [label="Appt_Made_Day <= 6.5\ngini = 0.278\nsamples = 6\nvalue = [5, 1]"] ;
29 -> 30 ;
31 [label="gini = 0.0\nsamples = 1\nvalue = [0, 1]"] ;
30 -> 31 ;
32 [label="gini = 0.0\nsamples = 5\nvalue = [5, 0]"] ;
30 -> 32 ;
33 [label="gini = 0.0\nsamples = 2\nvalue = [0, 2]"] ;
29 -> 33 ;
34 [label="Appt_Logistics_Type_ID <= 3.0\ngini = 0.397\nsamples = 11\nvalue = [3, 8]"] ;
6 -> 34 ;
35 [label="gini = 0.0\nsamples = 8\nvalue = [0, 8]"] ;
34 -> 35 ;
36 [label="gini = 0.0\nsamples = 3\nvalue = [3, 0]"] ;
34 -> 36 ;
37 [label="distance <= 27.978\ngini = 0.372\nsamples = 81\nvalue = [20, 61]"] ;
1 -> 37 ;
38 [label="count_miss <= 0.5\ngini = 0.317\nsamples = 71\nvalue = [14, 57]"] ;
37 -> 38 ;
39 [label="Appt_Made_Min <= 52.5\ngini = 0.26\nsamples = 65\nvalue = [10, 55]"] ;
38 -> 39 ;
40 [label="Made_Lead_Days_Work <= 0.5\ngini = 0.206\nsamples = 60\nvalue = [7, 53]"] ;
39 -> 40 ;
41 [label="Appt_Made_Day <= 11.0\ngini = 0.444\nsamples = 3\nvalue = [2, 1]"] ;
40 -> 41 ;
42 [label="gini = 0.0\nsamples = 2\nvalue = [2, 0]"] ;
41 -> 42 ;
43 [label="gini = 0.0\nsamples = 1\nvalue = [0, 1]"] ;
41 -> 43 ;
44 [label="Appt_Made_Min <= 0.5\ngini = 0.16\nsamples = 57\nvalue = [5, 52]"] ;
40 -> 44 ;
45 [label="gini = 0.0\nsamples = 1\nvalue = [1, 0]"] ;
44 -> 45 ;
46 [label="Visit_Type_ID <= 32.5\ngini = 0.133\nsamples = 56\nvalue = [4, 52]"] ;
44 -> 46 ;
47 [label="Appt_Time_Hour <= 12.0\ngini = 0.103\nsamples = 55\nvalue = [3, 52]"] ;
46 -> 47 ;
48 [label="gini = 0.0\nsamples = 38\nvalue = [0, 38]"] ;
47 -> 48 ;
49 [label="Appt_Made_Day <= 21.5\ngini = 0.291\nsamples = 17\nvalue = [3, 14]"] ;
47 -> 49 ;
50 [label="Patient_Age_Bucket_ID <= 3.5\ngini = 0.133\nsamples = 14\nvalue = [1, 13]"] ;
49 -> 50 ;
51 [label="gini = 0.0\nsamples = 11\nvalue = [0, 11]"] ;
50 -> 51 ;
52 [label="Appt_Day <= 26.0\ngini = 0.444\nsamples = 3\nvalue = [1, 2]"] ;
50 -> 52 ;
53 [label="gini = 0.0\nsamples = 2\nvalue = [0, 2]"] ;
52 -> 53 ;
54 [label="gini = 0.0\nsamples = 1\nvalue = [1, 0]"] ;
52 -> 54 ;
55 [label="Appt_Made_Min <= 21.0\ngini = 0.444\nsamples = 3\nvalue = [2, 1]"] ;
49 -> 55 ;
56 [label="gini = 0.0\nsamples = 1\nvalue = [0, 1]"] ;
55 -> 56 ;
57 [label="gini = 0.0\nsamples = 2\nvalue = [2, 0]"] ;
55 -> 57 ;
58 [label="gini = 0.0\nsamples = 1\nvalue = [1, 0]"] ;
46 -> 58 ;
59 [label="Patient_Age_Bucket_ID <= 3.5\ngini = 0.48\nsamples = 5\nvalue = [3, 2]"] ;
39 -> 59 ;
60 [label="gini = 0.0\nsamples = 3\nvalue = [3, 0]"] ;
59 -> 60 ;
61 [label="gini = 0.0\nsamples = 2\nvalue = [0, 2]"] ;
59 -> 61 ;
62 [label="Appt_Month <= 9.5\ngini = 0.444\nsamples = 6\nvalue = [4, 2]"] ;
38 -> 62 ;
63 [label="gini = 0.0\nsamples = 4\nvalue = [4, 0]"] ;
62 -> 63 ;
64 [label="gini = 0.0\nsamples = 2\nvalue = [0, 2]"] ;
62 -> 64 ;
65 [label="Appt_Made_Month <= 5.5\ngini = 0.48\nsamples = 10\nvalue = [6, 4]"] ;
37 -> 65 ;
66 [label="gini = 0.0\nsamples = 2\nvalue = [0, 2]"] ;
65 -> 66 ;
67 [label="Appt_Made_Min <= 21.5\ngini = 0.375\nsamples = 8\nvalue = [6, 2]"] ;
65 -> 67 ;
68 [label="Duration <= 0.017\ngini = 0.444\nsamples = 3\nvalue = [1, 2]"] ;
67 -> 68 ;
69 [label="gini = 0.0\nsamples = 2\nvalue = [0, 2]"] ;
68 -> 69 ;
70 [label="gini = 0.0\nsamples = 1\nvalue = [1, 0]"] ;
68 -> 70 ;
71 [label="gini = 0.0\nsamples = 5\nvalue = [5, 0]"] ;
67 -> 71 ;
72 [label="count_miss <= 0.5\ngini = 0.243\nsamples = 5531\nvalue = [4749, 782]"] ;
0 -> 72 [labeldistance=2.5, labelangle=-45, headlabel="False"] ;
73 [label="Visit_Type_ID <= 15.5\ngini = 0.205\nsamples = 4511\nvalue = [3988, 523]"] ;
72 -> 73 ;
74 [label="Payor_Type_ID <= 3.5\ngini = 0.157\nsamples = 3318\nvalue = [3033, 285]"] ;
73 -> 74 ;
75 [label="Payor_Type_ID <= 2.5\ngini = 0.189\nsamples = 2511\nvalue = [2246, 265]"] ;
74 -> 75 ;
76 [label="Appt_Made_Day <= 30.5\ngini = 0.07\nsamples = 606\nvalue = [584, 22]"] ;
75 -> 76 ;
77 [label="count_cancel <= 0.5\ngini = 0.065\nsamples = 597\nvalue = [577, 20]"] ;
76 -> 77 ;
78 [label="Appt_Made_Day <= 5.5\ngini = 0.046\nsamples = 506\nvalue = [494, 12]"] ;
77 -> 78 ;
79 [label="Appt_Day <= 29.5\ngini = 0.129\nsamples = 72\nvalue = [67, 5]"] ;
78 -> 79 ;
80 [label="Appt_Logistics_Type_ID <= 1.5\ngini = 0.083\nsamples = 69\nvalue = [66, 3]"] ;
79 -> 80 ;
81 [label="gini = 0.0\nsamples = 50\nvalue = [50, 0]"] ;
80 -> 81 ;
82 [label="Appt_Time_Min <= 35.0\ngini = 0.266\nsamples = 19\nvalue = [16, 3]"] ;
80 -> 82 ;
83 [label="Appt_Made_Min <= 47.5\ngini = 0.111\nsamples = 17\nvalue = [16, 1]"] ;
82 -> 83 ;
84 [label="gini = 0.0\nsamples = 16\nvalue = [16, 0]"] ;
83 -> 84 ;
85 [label="gini = 0.0\nsamples = 1\nvalue = [0, 1]"] ;
83 -> 85 ;
86 [label="gini = 0.0\nsamples = 2\nvalue = [0, 2]"] ;
82 -> 86 ;
87 [label="Appt_Time_Hour <= 12.0\ngini = 0.444\nsamples = 3\nvalue = [1, 2]"] ;
79 -> 87 ;
88 [label="gini = 0.0\nsamples = 1\nvalue = [1, 0]"] ;
87 -> 88 ;
89 [label="gini = 0.0\nsamples = 2\nvalue = [0, 2]"] ;
87 -> 89 ;
90 [label="Distance <= 0.084\ngini = 0.032\nsamples = 434\nvalue = [427, 7]"] ;
78 -> 90 ;
91 [label="Made_Lead_Days_Calendar <= 11.5\ngini = 0.028\nsamples = 427\nvalue = [421, 6]"] ;
90 -> 91 ;
92 [label="Duration <= 0.012\ngini = 0.067\nsamples = 144\nvalue = [139, 5]"] ;
91 -> 92 ;
93 [label="Appt_Time_Hour <= 13.5\ngini = 0.032\nsamples = 122\nvalue = [120, 2]"] ;
92 -> 93 ;
94 [label="Payor_Type_ID <= 1.5\ngini = 0.018\nsamples = 112\nvalue = [111, 1]"] ;
93 -> 94 ;
95 [label="gini = 0.0\nsamples = 101\nvalue = [101, 0]"] ;
94 -> 95 ;
96 [label="Appt_Month <= 9.0\ngini = 0.165\nsamples = 11\nvalue = [10, 1]"] ;
94 -> 96 ;
97 [label="gini = 0.0\nsamples = 10\nvalue = [10, 0]"] ;
96 -> 97 ;
98 [label="gini = 0.0\nsamples = 1\nvalue = [0, 1]"] ;
96 -> 98 ;
99 [label="Visit_Type_ID <= 11.5\ngini = 0.18\nsamples = 10\nvalue = [9, 1]"] ;
93 -> 99 ;
100 [label="Appt_Logistics_Type_ID <= 0.5\ngini = 0.5\nsamples = 2\nvalue = [1, 1]"] ;
99 -> 100 ;
101 [label="gini = 0.0\nsamples = 1\nvalue = [0, 1]"] ;
100 -> 101 ;
102 [label="gini = 0.0\nsamples = 1\nvalue = [1, 0]"] ;
100 -> 102 ;
103 [label="gini = 0.0\nsamples = 8\nvalue = [8, 0]"] ;
99 -> 103 ;
104 [label="Appt_Day <= 21.5\ngini = 0.236\nsamples = 22\nvalue = [19, 3]"] ;
92 -> 104 ;
105 [label="gini = 0.0\nsamples = 15\nvalue = [15, 0]"] ;
104 -> 105 ;
106 [label="Patient_Age_Bucket_ID <= 3.5\ngini = 0.49\nsamples = 7\nvalue = [4, 3]"] ;
104 -> 106 ;
107 [label="gini = 0.0\nsamples = 3\nvalue = [0, 3]"] ;
106 -> 107 ;
108 [label="gini = 0.0\nsamples = 4\nvalue = [4, 0]"] ;
106 -> 108 ;
109 [label="Appt_Made_Hour <= 15.5\ngini = 0.007\nsamples = 283\nvalue = [282, 1]"] ;
91 -> 109 ;
110 [label="gini = 0.0\nsamples = 241\nvalue = [241, 0]"] ;
109 -> 110 ;
111 [label="Appt_Made_Day <= 24.5\ngini = 0.046\nsamples = 42\nvalue = [41, 1]"] ;
109 -> 111 ;
112 [label="gini = 0.0\nsamples = 31\nvalue = [31, 0]"] ;
111 -> 112 ;
113 [label="Appt_Made_Day <= 25.5\ngini = 0.165\nsamples = 11\nvalue = [10, 1]"] ;
111 -> 113 ;
114 [label="Appt_Made_Min <= 17.5\ngini = 0.444\nsamples = 3\nvalue = [2, 1]"] ;
113 -> 114 ;
115 [label="gini = 0.0\nsamples = 2\nvalue = [2, 0]"] ;
114 -> 115 ;
116 [label="gini = 0.0\nsamples = 1\nvalue = [0, 1]"] ;
114 -> 116 ;
117 [label="gini = 0.0\nsamples = 8\nvalue = [8, 0]"] ;
113 -> 117 ;
118 [label="Appt_Made_Min <= 56.0\ngini = 0.245\nsamples = 7\nvalue = [6, 1]"] ;
90 -> 118 ;
119 [label="gini = 0.0\nsamples = 6\nvalue = [6, 0]"] ;
118 -> 119 ;
120 [label="gini = 0.0\nsamples = 1\nvalue = [0, 1]"] ;
118 -> 120 ;
121 [label="Made_Lead_Days_Calendar <= 21.5\ngini = 0.16\nsamples = 91\nvalue = [83, 8]"] ;
77 -> 121 ;
122 [label="Appt_Logistics_Type_ID <= 0.5\ngini = 0.036\nsamples = 54\nvalue = [53, 1]"] ;
121 -> 122 ;
123 [label="Appt_Day <= 21.5\ngini = 0.245\nsamples = 7\nvalue = [6, 1]"] ;
122 -> 123 ;
124 [label="gini = 0.0\nsamples = 6\nvalue = [6, 0]"] ;
123 -> 124 ;
125 [label="gini = 0.0\nsamples = 1\nvalue = [0, 1]"] ;
123 -> 125 ;
126 [label="gini = 0.0\nsamples = 47\nvalue = [47, 0]"] ;
122 -> 126 ;
127 [label="Appt_Made_Day <= 27.5\ngini = 0.307\nsamples = 37\nvalue = [30, 7]"] ;
121 -> 127 ;
128 [label="Made_Lead_Days_Work <= 15.5\ngini = 0.245\nsamples = 35\nvalue = [30, 5]"] ;
127 -> 128 ;
129 [label="gini = 0.0\nsamples = 2\nvalue = [0, 2]"] ;
128 -> 129 ;
130 [label="Appt_Made_Month <= 5.5\ngini = 0.165\nsamples = 33\nvalue = [30, 3]"] ;
128 -> 130 ;
131 [label="gini = 0.0\nsamples = 20\nvalue = [20, 0]"] ;
130 -> 131 ;
132 [label="Appt_Made_Min <= 34.0\ngini = 0.355\nsamples = 13\nvalue = [10, 3]"] ;
130 -> 132 ;
133 [label="gini = 0.0\nsamples = 7\nvalue = [7, 0]"] ;
132 -> 133 ;
134 [label="Distance <= 0.002\ngini = 0.5\nsamples = 6\nvalue = [3, 3]"] ;
132 -> 134 ;
135 [label="gini = 0.0\nsamples = 3\nvalue = [3, 0]"] ;
134 -> 135 ;
136 [label="gini = 0.0\nsamples = 3\nvalue = [0, 3]"] ;
134 -> 136 ;
137 [label="gini = 0.0\nsamples = 2\nvalue = [0, 2]"] ;
127 -> 137 ;
138 [label="Appt_Made_Hour <= 13.5\ngini = 0.346\nsamples = 9\nvalue = [7, 2]"] ;
76 -> 138 ;
139 [label="gini = 0.0\nsamples = 6\nvalue = [6, 0]"] ;
138 -> 139 ;
140 [label="Made_Lead_Days_Work <= 6.5\ngini = 0.444\nsamples = 3\nvalue = [1, 2]"] ;
138 -> 140 ;
141 [label="gini = 0.0\nsamples = 2\nvalue = [0, 2]"] ;
140 -> 141 ;
142 [label="gini = 0.0\nsamples = 1\nvalue = [1, 0]"] ;
140 -> 142 ;
143 [label="Distance <= 0.007\ngini = 0.223\nsamples = 1905\nvalue = [1662, 243]"] ;
75 -> 143 ;
144 [label="Made_Lead_Days_Calendar <= 69.5\ngini = 0.263\nsamples = 1066\nvalue = [900, 166]"] ;
143 -> 144 ;
145 [label="Duration <= 0.007\ngini = 0.247\nsamples = 949\nvalue = [812, 137]"] ;
144 -> 145 ;
146 [label="Distance <= 0.002\ngini = 0.133\nsamples = 168\nvalue = [156, 12]"] ;
145 -> 146 ;
147 [label="Distance <= 0.002\ngini = 0.233\nsamples = 89\nvalue = [77, 12]"] ;
146 -> 147 ;
148 [label="count_app <= 4.5\ngini = 0.124\nsamples = 60\nvalue = [56, 4]"] ;
147 -> 148 ;
149 [label="count_app <= 0.5\ngini = 0.098\nsamples = 58\nvalue = [55, 3]"] ;
148 -> 149 ;
150 [label="Appt_Made_Month <= 5.0\ngini = 0.346\nsamples = 9\nvalue = [7, 2]"] ;
149 -> 150 ;
151 [label="gini = 0.0\nsamples = 2\nvalue = [0, 2]"] ;
150 -> 151 ;
152 [label="gini = 0.0\nsamples = 7\nvalue = [7, 0]"] ;
150 -> 152 ;
153 [label="Appt_Made_Day <= 24.5\ngini = 0.04\nsamples = 49\nvalue = [48, 1]"] ;
149 -> 153 ;
154 [label="gini = 0.0\nsamples = 43\nvalue = [43, 0]"] ;
153 -> 154 ;
155 [label="Patient_Age_Bucket_ID <= 1.5\ngini = 0.278\nsamples = 6\nvalue = [5, 1]"] ;
153 -> 155 ;
156 [label="gini = 0.0\nsamples = 1\nvalue = [0, 1]"] ;
155 -> 156 ;
157 [label="gini = 0.0\nsamples = 5\nvalue = [5, 0]"] ;
155 -> 157 ;
158 [label="Made_Lead_Days_Calendar <= 22.5\ngini = 0.5\nsamples = 2\nvalue = [1, 1]"] ;
148 -> 158 ;
159 [label="gini = 0.0\nsamples = 1\nvalue = [1, 0]"] ;
158 -> 159 ;
160 [label="gini = 0.0\nsamples = 1\nvalue = [0, 1]"] ;
158 -> 160 ;
161 [label="Appt_Month <= 9.5\ngini = 0.4\nsamples = 29\nvalue = [21, 8]"] ;
147 -> 161 ;
162 [label="count_cancel <= 0.5\ngini = 0.33\nsamples = 24\nvalue = [19, 5]"] ;
161 -> 162 ;
163 [label="Appt_Made_Month <= 3.5\ngini = 0.188\nsamples = 19\nvalue = [17, 2]"] ;
162 -> 163 ;
164 [label="Distance <= 0.002\ngini = 0.375\nsamples = 8\nvalue = [6, 2]"] ;
163 -> 164 ;
165 [label="Made_Lead_Days_Work <= 32.5\ngini = 0.444\nsamples = 3\nvalue = [1, 2]"] ;
164 -> 165 ;
166 [label="gini = 0.0\nsamples = 2\nvalue = [0, 2]"] ;
165 -> 166 ;
167 [label="gini = 0.0\nsamples = 1\nvalue = [1, 0]"] ;
165 -> 167 ;
168 [label="gini = 0.0\nsamples = 5\nvalue = [5, 0]"] ;
164 -> 168 ;
169 [label="gini = 0.0\nsamples = 11\nvalue = [11, 0]"] ;
163 -> 169 ;
170 [label="Appt_Time_Min <= 20.0\ngini = 0.48\nsamples = 5\nvalue = [2, 3]"] ;
162 -> 170 ;
171 [label="gini = 0.0\nsamples = 3\nvalue = [0, 3]"] ;
170 -> 171 ;
172 [label="gini = 0.0\nsamples = 2\nvalue = [2, 0]"] ;
170 -> 172 ;
173 [label="Appt_Day <= 10.0\ngini = 0.48\nsamples = 5\nvalue = [2, 3]"] ;
161 -> 173 ;
174 [label="Appt_Made_Day <= 8.5\ngini = 0.444\nsamples = 3\nvalue = [2, 1]"] ;
173 -> 174 ;
175 [label="gini = 0.0\nsamples = 1\nvalue = [0, 1]"] ;
174 -> 175 ;
176 [label="gini = 0.0\nsamples = 2\nvalue = [2, 0]"] ;
174 -> 176 ;
177 [label="gini = 0.0\nsamples = 2\nvalue = [0, 2]"] ;
173 -> 177 ;
178 [label="gini = 0.0\nsamples = 79\nvalue = [79, 0]"] ;
146 -> 178 ;
179 [label="Duration <= 0.007\ngini = 0.269\nsamples = 781\nvalue = [656, 125]"] ;
145 -> 179 ;
180 [label="Appt_Made_Year <= 2015.5\ngini = 0.375\nsamples = 4\nvalue = [1, 3]"] ;
179 -> 180 ;
181 [label="gini = 0.0\nsamples = 1\nvalue = [1, 0]"] ;
180 -> 181 ;
182 [label="gini = 0.0\nsamples = 3\nvalue = [0, 3]"] ;
180 -> 182 ;
183 [label="Appt_Time_Hour <= 14.5\ngini = 0.265\nsamples = 777\nvalue = [655, 122]"] ;
179 -> 183 ;
184 [label="count_app <= 27.5\ngini = 0.253\nsamples = 739\nvalue = [629, 110]"] ;
183 -> 184 ;
185 [label="Duration <= 0.013\ngini = 0.252\nsamples = 738\nvalue = [629, 109]"] ;
184 -> 185 ;
186 [label="diff_pay_count <= 0.5\ngini = 0.242\nsamples = 703\nvalue = [604, 99]"] ;
185 -> 186 ;
187 [label="count_cancel <= 0.5\ngini = 0.25\nsamples = 676\nvalue = [577, 99]"] ;
186 -> 187 ;
188 [label="count_app <= 2.5\ngini = 0.224\nsamples = 507\nvalue = [442, 65]"] ;
187 -> 188 ;
189 [label="Distance <= 0.003\ngini = 0.256\nsamples = 405\nvalue = [344, 61]"] ;
188 -> 189 ;
190 [label="Appt_Day <= 21.0\ngini = 0.35\nsamples = 93\nvalue = [72, 21]"] ;
189 -> 190 ;
191 [label="Appt_Made_Min <= 53.5\ngini = 0.257\nsamples = 66\nvalue = [56, 10]"] ;
190 -> 191 ;
192 [label="distance <= 11.115\ngini = 0.203\nsamples = 61\nvalue = [54, 7]"] ;
191 -> 192 ;
193 [label="Appt_Logistics_Type_ID <= 3.0\ngini = 0.18\nsamples = 60\nvalue = [54, 6]"] ;
192 -> 193 ;
194 [label="Appt_Made_Month <= 8.5\ngini = 0.155\nsamples = 59\nvalue = [54, 5]"] ;
193 -> 194 ;
195 [label="Appt_Made_Hour <= 9.5\ngini = 0.049\nsamples = 40\nvalue = [39, 1]"] ;
194 -> 195 ;
196 [label="Made_Lead_Days_Calendar <= 19.5\ngini = 0.375\nsamples = 4\nvalue = [3, 1]"] ;
195 -> 196 ;
197 [label="gini = 0.0\nsamples = 3\nvalue = [3, 0]"] ;
196 -> 197 ;
198 [label="gini = 0.0\nsamples = 1\nvalue = [0, 1]"] ;
196 -> 198 ;
199 [label="gini = 0.0\nsamples = 36\nvalue = [36, 0]"] ;
195 -> 199 ;
200 [label="Appt_Made_Month <= 9.5\ngini = 0.332\nsamples = 19\nvalue = [15, 4]"] ;
194 -> 200 ;
201 [label="gini = 0.0\nsamples = 2\nvalue = [0, 2]"] ;
200 -> 201 ;
202 [label="distance <= 9.584\ngini = 0.208\nsamples = 17\nvalue = [15, 2]"] ;
200 -> 202 ;
203 [label="gini = 0.0\nsamples = 13\nvalue = [13, 0]"] ;
202 -> 203 ;
204 [label="Made_Lead_Days_Calendar <= 25.5\ngini = 0.5\nsamples = 4\nvalue = [2, 2]"] ;
202 -> 204 ;
205 [label="gini = 0.0\nsamples = 2\nvalue = [2, 0]"] ;
204 -> 205 ;
206 [label="gini = 0.0\nsamples = 2\nvalue = [0, 2]"] ;
204 -> 206 ;
207 [label="gini = 0.0\nsamples = 1\nvalue = [0, 1]"] ;
193 -> 207 ;
208 [label="gini = 0.0\nsamples = 1\nvalue = [0, 1]"] ;
192 -> 208 ;
209 [label="Patient_Age_Bucket_ID <= 2.0\ngini = 0.48\nsamples = 5\nvalue = [2, 3]"] ;
191 -> 209 ;
210 [label="gini = 0.0\nsamples = 2\nvalue = [2, 0]"] ;
209 -> 210 ;
211 [label="gini = 0.0\nsamples = 3\nvalue = [0, 3]"] ;
209 -> 211 ;
212 [label="Duration <= 0.008\ngini = 0.483\nsamples = 27\nvalue = [16, 11]"] ;
190 -> 212 ;
213 [label="Patient_Age_Bucket_ID <= 3.5\ngini = 0.278\nsamples = 12\nvalue = [10, 2]"] ;
212 -> 213 ;
214 [label="gini = 0.0\nsamples = 8\nvalue = [8, 0]"] ;
213 -> 214 ;
215 [label="Appt_Month <= 7.5\ngini = 0.5\nsamples = 4\nvalue = [2, 2]"] ;
213 -> 215 ;
216 [label="gini = 0.0\nsamples = 2\nvalue = [2, 0]"] ;
215 -> 216 ;
217 [label="gini = 0.0\nsamples = 2\nvalue = [0, 2]"] ;
215 -> 217 ;
218 [label="Made_Lead_Days_Work <= 7.5\ngini = 0.48\nsamples = 15\nvalue = [6, 9]"] ;
212 -> 218 ;
219 [label="Appt_Day <= 22.5\ngini = 0.408\nsamples = 7\nvalue = [5, 2]"] ;
218 -> 219 ;
220 [label="gini = 0.0\nsamples = 1\nvalue = [0, 1]"] ;
219 -> 220 ;
221 [label="Appt_Made_Day <= 20.5\ngini = 0.278\nsamples = 6\nvalue = [5, 1]"] ;
219 -> 221 ;
222 [label="gini = 0.0\nsamples = 4\nvalue = [4, 0]"] ;
221 -> 222 ;
223 [label="Appt_Time_Min <= 45.0\ngini = 0.5\nsamples = 2\nvalue = [1, 1]"] ;
221 -> 223 ;
224 [label="gini = 0.0\nsamples = 1\nvalue = [0, 1]"] ;
223 -> 224 ;
225 [label="gini = 0.0\nsamples = 1\nvalue = [1, 0]"] ;
223 -> 225 ;
226 [label="Appt_Day <= 22.5\ngini = 0.219\nsamples = 8\nvalue = [1, 7]"] ;
218 -> 226 ;
227 [label="Distance <= 0.003\ngini = 0.5\nsamples = 2\nvalue = [1, 1]"] ;
226 -> 227 ;
228 [label="gini = 0.0\nsamples = 1\nvalue = [0, 1]"] ;
227 -> 228 ;
229 [label="gini = 0.0\nsamples = 1\nvalue = [1, 0]"] ;
227 -> 229 ;
230 [label="gini = 0.0\nsamples = 6\nvalue = [0, 6]"] ;
226 -> 230 ;
231 [label="Appt_Made_Hour <= 8.5\ngini = 0.224\nsamples = 312\nvalue = [272, 40]"] ;
189 -> 231 ;
232 [label="Appt_Made_Month <= 8.0\ngini = 0.432\nsamples = 19\nvalue = [13, 6]"] ;
231 -> 232 ;
233 [label="Appt_Day <= 21.5\ngini = 0.26\nsamples = 13\nvalue = [11, 2]"] ;
232 -> 233 ;
234 [label="gini = 0.0\nsamples = 9\nvalue = [9, 0]"] ;
233 -> 234 ;
235 [label="Appt_Made_Day <= 22.5\ngini = 0.5\nsamples = 4\nvalue = [2, 2]"] ;
233 -> 235 ;
236 [label="gini = 0.0\nsamples = 2\nvalue = [0, 2]"] ;
235 -> 236 ;
237 [label="gini = 0.0\nsamples = 2\nvalue = [2, 0]"] ;
235 -> 237 ;
238 [label="Appt_Made_Year <= 2015.5\ngini = 0.444\nsamples = 6\nvalue = [2, 4]"] ;
232 -> 238 ;
239 [label="gini = 0.0\nsamples = 3\nvalue = [0, 3]"] ;
238 -> 239 ;
240 [label="Provider_ID <= 38.0\ngini = 0.444\nsamples = 3\nvalue = [2, 1]"] ;
238 -> 240 ;
241 [label="gini = 0.0\nsamples = 1\nvalue = [0, 1]"] ;
240 -> 241 ;
242 [label="gini = 0.0\nsamples = 2\nvalue = [2, 0]"] ;
240 -> 242 ;
243 [label="Made_Lead_Days_Work <= 43.5\ngini = 0.205\nsamples = 293\nvalue = [259, 34]"] ;
231 -> 243 ;
244 [label="Appt_Made_Day <= 11.5\ngini = 0.198\nsamples = 288\nvalue = [256, 32]"] ;
243 -> 244 ;
245 [label="Distance <= 0.005\ngini = 0.273\nsamples = 98\nvalue = [82, 16]"] ;
244 -> 245 ;
246 [label="Made_Lead_Days_Work <= 26.0\ngini = 0.335\nsamples = 61\nvalue = [48, 13]"] ;
245 -> 246 ;
247 [label="Appt_Time_Min <= 45.0\ngini = 0.307\nsamples = 58\nvalue = [47, 11]"] ;
246 -> 247 ;
248 [label="distance <= 9.32\ngini = 0.227\nsamples = 46\nvalue = [40, 6]"] ;
247 -> 248 ;
249 [label="gini = 0.0\nsamples = 1\nvalue = [0, 1]"] ;
248 -> 249 ;
250 [label="Appt_Day <= 15.5\ngini = 0.198\nsamples = 45\nvalue = [40, 5]"] ;
248 -> 250 ;
251 [label="gini = 0.0\nsamples = 21\nvalue = [21, 0]"] ;
250 -> 251 ;
252 [label="Duration <= 0.01\ngini = 0.33\nsamples = 24\nvalue = [19, 5]"] ;
250 -> 252 ;
253 [label="gini = 0.0\nsamples = 10\nvalue = [10, 0]"] ;
252 -> 253 ;
254 [label="Appt_Time_Hour <= 12.0\ngini = 0.459\nsamples = 14\nvalue = [9, 5]"] ;
252 -> 254 ;
255 [label="Appt_Made_Day <= 3.5\ngini = 0.32\nsamples = 5\nvalue = [1, 4]"] ;
254 -> 255 ;
256 [label="gini = 0.0\nsamples = 1\nvalue = [1, 0]"] ;
255 -> 256 ;
257 [label="gini = 0.0\nsamples = 4\nvalue = [0, 4]"] ;
255 -> 257 ;
258 [label="Appt_Made_Day <= 4.5\ngini = 0.198\nsamples = 9\nvalue = [8, 1]"] ;
254 -> 258 ;
259 [label="gini = 0.0\nsamples = 1\nvalue = [0, 1]"] ;
258 -> 259 ;
260 [label="gini = 0.0\nsamples = 8\nvalue = [8, 0]"] ;
258 -> 260 ;
261 [label="Appt_Made_Hour <= 10.5\ngini = 0.486\nsamples = 12\nvalue = [7, 5]"] ;
247 -> 261 ;
262 [label="gini = 0.0\nsamples = 4\nvalue = [0, 4]"] ;
261 -> 262 ;
263 [label="Made_Lead_Days_Work <= 18.5\ngini = 0.219\nsamples = 8\nvalue = [7, 1]"] ;
261 -> 263 ;
264 [label="gini = 0.0\nsamples = 7\nvalue = [7, 0]"] ;
263 -> 264 ;
265 [label="gini = 0.0\nsamples = 1\nvalue = [0, 1]"] ;
263 -> 265 ;
266 [label="Appt_Day <= 21.0\ngini = 0.444\nsamples = 3\nvalue = [1, 2]"] ;
246 -> 266 ;
267 [label="gini = 0.0\nsamples = 2\nvalue = [0, 2]"] ;
266 -> 267 ;
268 [label="gini = 0.0\nsamples = 1\nvalue = [1, 0]"] ;
266 -> 268 ;
269 [label="Appt_Month <= 11.0\ngini = 0.149\nsamples = 37\nvalue = [34, 3]"] ;
245 -> 269 ;
270 [label="Distance <= 0.007\ngini = 0.059\nsamples = 33\nvalue = [32, 1]"] ;
269 -> 270 ;
271 [label="gini = 0.0\nsamples = 30\nvalue = [30, 0]"] ;
270 -> 271 ;
272 [label="Distance <= 0.007\ngini = 0.444\nsamples = 3\nvalue = [2, 1]"] ;
270 -> 272 ;
273 [label="gini = 0.0\nsamples = 1\nvalue = [0, 1]"] ;
272 -> 273 ;
274 [label="gini = 0.0\nsamples = 2\nvalue = [2, 0]"] ;
272 -> 274 ;
275 [label="Appt_Made_Day <= 8.5\ngini = 0.5\nsamples = 4\nvalue = [2, 2]"] ;
269 -> 275 ;
276 [label="gini = 0.0\nsamples = 2\nvalue = [2, 0]"] ;
275 -> 276 ;
277 [label="gini = 0.0\nsamples = 2\nvalue = [0, 2]"] ;
275 -> 277 ;
278 [label="Distance <= 0.004\ngini = 0.154\nsamples = 190\nvalue = [174, 16]"] ;
244 -> 278 ;
279 [label="Made_Lead_Days_Work <= 5.5\ngini = 0.269\nsamples = 50\nvalue = [42, 8]"] ;
278 -> 279 ;
280 [label="Appt_Made_Min <= 22.5\ngini = 0.48\nsamples = 10\nvalue = [6, 4]"] ;
279 -> 280 ;
281 [label="gini = 0.0\nsamples = 4\nvalue = [4, 0]"] ;
280 -> 281 ;
282 [label="Appt_Time_Min <= 15.0\ngini = 0.444\nsamples = 6\nvalue = [2, 4]"] ;
280 -> 282 ;
283 [label="distance <= 12.59\ngini = 0.444\nsamples = 3\nvalue = [2, 1]"] ;
282 -> 283 ;
284 [label="gini = 0.0\nsamples = 2\nvalue = [2, 0]"] ;
283 -> 284 ;
285 [label="gini = 0.0\nsamples = 1\nvalue = [0, 1]"] ;
283 -> 285 ;
286 [label="gini = 0.0\nsamples = 3\nvalue = [0, 3]"] ;
282 -> 286 ;
287 [label="Appt_Day <= 9.5\ngini = 0.18\nsamples = 40\nvalue = [36, 4]"] ;
279 -> 287 ;
288 [label="gini = 0.0\nsamples = 20\nvalue = [20, 0]"] ;
287 -> 288 ;
289 [label="Appt_Made_Year <= 2015.5\ngini = 0.32\nsamples = 20\nvalue = [16, 4]"] ;
287 -> 289 ;
290 [label="gini = 0.0\nsamples = 10\nvalue = [10, 0]"] ;
289 -> 290 ;
291 [label="Made_Lead_Days_Work <= 16.5\ngini = 0.48\nsamples = 10\nvalue = [6, 4]"] ;
289 -> 291 ;
292 [label="gini = 0.0\nsamples = 2\nvalue = [0, 2]"] ;
291 -> 292 ;
293 [label="Appt_Time_Min <= 20.0\ngini = 0.375\nsamples = 8\nvalue = [6, 2]"] ;
291 -> 293 ;
294 [label="Appt_Month <= 8.5\ngini = 0.444\nsamples = 3\nvalue = [1, 2]"] ;
293 -> 294 ;
295 [label="gini = 0.0\nsamples = 2\nvalue = [0, 2]"] ;
294 -> 295 ;
296 [label="gini = 0.0\nsamples = 1\nvalue = [1, 0]"] ;
294 -> 296 ;
297 [label="gini = 0.0\nsamples = 5\nvalue = [5, 0]"] ;
293 -> 297 ;
298 [label="distance <= 11.277\ngini = 0.108\nsamples = 140\nvalue = [132, 8]"] ;
278 -> 298 ;
299 [label="gini = 0.0\nsamples = 1\nvalue = [0, 1]"] ;
298 -> 299 ;
300 [label="count_app <= 1.5\ngini = 0.096\nsamples = 139\nvalue = [132, 7]"] ;
298 -> 300 ;
301 [label="distance <= 20.87\ngini = 0.053\nsamples = 111\nvalue = [108, 3]"] ;
300 -> 301 ;
302 [label="Appt_Time_Hour <= 13.5\ngini = 0.037\nsamples = 107\nvalue = [105, 2]"] ;
301 -> 302 ;
303 [label="gini = 0.0\nsamples = 88\nvalue = [88, 0]"] ;
302 -> 303 ;
304 [label="Appt_Day <= 2.5\ngini = 0.188\nsamples = 19\nvalue = [17, 2]"] ;
302 -> 304 ;
305 [label="gini = 0.0\nsamples = 1\nvalue = [0, 1]"] ;
304 -> 305 ;
306 [label="Duration <= 0.012\ngini = 0.105\nsamples = 18\nvalue = [17, 1]"] ;
304 -> 306 ;
307 [label="gini = 0.0\nsamples = 16\nvalue = [16, 0]"] ;
306 -> 307 ;
308 [label="Duration <= 0.013\ngini = 0.5\nsamples = 2\nvalue = [1, 1]"] ;
306 -> 308 ;
309 [label="gini = 0.0\nsamples = 1\nvalue = [0, 1]"] ;
308 -> 309 ;
310 [label="gini = 0.0\nsamples = 1\nvalue = [1, 0]"] ;
308 -> 310 ;
311 [label="count_app <= 0.5\ngini = 0.375\nsamples = 4\nvalue = [3, 1]"] ;
301 -> 311 ;
312 [label="gini = 0.0\nsamples = 1\nvalue = [0, 1]"] ;
311 -> 312 ;
313 [label="gini = 0.0\nsamples = 3\nvalue = [3, 0]"] ;
311 -> 313 ;
314 [label="Duration <= 0.008\ngini = 0.245\nsamples = 28\nvalue = [24, 4]"] ;
300 -> 314 ;
315 [label="gini = 0.0\nsamples = 1\nvalue = [0, 1]"] ;
314 -> 315 ;
316 [label="Distance <= 0.006\ngini = 0.198\nsamples = 27\nvalue = [24, 3]"] ;
314 -> 316 ;
317 [label="gini = 0.0\nsamples = 16\nvalue = [16, 0]"] ;
316 -> 317 ;
318 [label="Distance <= 0.006\ngini = 0.397\nsamples = 11\nvalue = [8, 3]"] ;
316 -> 318 ;
319 [label="Appt_Made_Month <= 8.0\ngini = 0.48\nsamples = 5\nvalue = [2, 3]"] ;
318 -> 319 ;
320 [label="gini = 0.0\nsamples = 3\nvalue = [0, 3]"] ;
319 -> 320 ;
321 [label="gini = 0.0\nsamples = 2\nvalue = [2, 0]"] ;
319 -> 321 ;
322 [label="gini = 0.0\nsamples = 6\nvalue = [6, 0]"] ;
318 -> 322 ;
323 [label="Appt_Made_Day <= 14.0\ngini = 0.48\nsamples = 5\nvalue = [3, 2]"] ;
243 -> 323 ;
324 [label="gini = 0.0\nsamples = 3\nvalue = [3, 0]"] ;
323 -> 324 ;
325 [label="gini = 0.0\nsamples = 2\nvalue = [0, 2]"] ;
323 -> 325 ;
326 [label="Made_Lead_Days_Calendar <= 41.5\ngini = 0.075\nsamples = 102\nvalue = [98, 4]"] ;
188 -> 326 ;
327 [label="Appt_Made_Day <= 4.5\ngini = 0.041\nsamples = 96\nvalue = [94, 2]"] ;
326 -> 327 ;
328 [label="distance <= 13.629\ngini = 0.245\nsamples = 14\nvalue = [12, 2]"] ;
327 -> 328 ;
329 [label="gini = 0.0\nsamples = 11\nvalue = [11, 0]"] ;
328 -> 329 ;
330 [label="Appt_Day <= 12.5\ngini = 0.444\nsamples = 3\nvalue = [1, 2]"] ;
328 -> 330 ;
331 [label="gini = 0.0\nsamples = 2\nvalue = [0, 2]"] ;
330 -> 331 ;
332 [label="gini = 0.0\nsamples = 1\nvalue = [1, 0]"] ;
330 -> 332 ;
333 [label="gini = 0.0\nsamples = 82\nvalue = [82, 0]"] ;
327 -> 333 ;
334 [label="Appt_Made_Min <= 17.5\ngini = 0.444\nsamples = 6\nvalue = [4, 2]"] ;
326 -> 334 ;
335 [label="gini = 0.0\nsamples = 2\nvalue = [0, 2]"] ;
334 -> 335 ;
336 [label="gini = 0.0\nsamples = 4\nvalue = [4, 0]"] ;
334 -> 336 ;
337 [label="Appt_Day <= 4.5\ngini = 0.321\nsamples = 169\nvalue = [135, 34]"] ;
187 -> 337 ;
338 [label="Made_Lead_Days_Work <= 8.5\ngini = 0.49\nsamples = 21\nvalue = [12, 9]"] ;
337 -> 338 ;
339 [label="gini = 0.0\nsamples = 7\nvalue = [7, 0]"] ;
338 -> 339 ;
340 [label="Appt_Made_Hour <= 10.5\ngini = 0.459\nsamples = 14\nvalue = [5, 9]"] ;
338 -> 340 ;
341 [label="Made_Lead_Days_Calendar <= 13.5\ngini = 0.32\nsamples = 5\nvalue = [4, 1]"] ;
340 -> 341 ;
342 [label="gini = 0.0\nsamples = 1\nvalue = [0, 1]"] ;
341 -> 342 ;
343 [label="gini = 0.0\nsamples = 4\nvalue = [4, 0]"] ;
341 -> 343 ;
344 [label="Appt_Made_Min <= 4.5\ngini = 0.198\nsamples = 9\nvalue = [1, 8]"] ;
340 -> 344 ;
345 [label="gini = 0.0\nsamples = 1\nvalue = [1, 0]"] ;
344 -> 345 ;
346 [label="gini = 0.0\nsamples = 8\nvalue = [0, 8]"] ;
344 -> 346 ;
347 [label="distance <= 15.543\ngini = 0.281\nsamples = 148\nvalue = [123, 25]"] ;
337 -> 347 ;
348 [label="Appt_Made_Day <= 19.5\ngini = 0.353\nsamples = 105\nvalue = [81, 24]"] ;
347 -> 348 ;
349 [label="Distance <= 0.005\ngini = 0.25\nsamples = 75\nvalue = [64, 11]"] ;
348 -> 349 ;
350 [label="distance <= 15.397\ngini = 0.185\nsamples = 68\nvalue = [61, 7]"] ;
349 -> 350 ;
351 [label="Made_Lead_Days_Work <= 14.5\ngini = 0.163\nsamples = 67\nvalue = [61, 6]"] ;
350 -> 351 ;
352 [label="Appt_Logistics_Type_ID <= 3.0\ngini = 0.081\nsamples = 47\nvalue = [45, 2]"] ;
351 -> 352 ;
353 [label="Appt_Day <= 25.0\ngini = 0.044\nsamples = 44\nvalue = [43, 1]"] ;
352 -> 353 ;
354 [label="gini = 0.0\nsamples = 36\nvalue = [36, 0]"] ;
353 -> 354 ;
355 [label="Appt_Day <= 26.5\ngini = 0.219\nsamples = 8\nvalue = [7, 1]"] ;
353 -> 355 ;
356 [label="gini = 0.0\nsamples = 1\nvalue = [0, 1]"] ;
355 -> 356 ;
357 [label="gini = 0.0\nsamples = 7\nvalue = [7, 0]"] ;
355 -> 357 ;
358 [label="Appt_Made_Year <= 2015.5\ngini = 0.444\nsamples = 3\nvalue = [2, 1]"] ;
352 -> 358 ;
359 [label="gini = 0.0\nsamples = 1\nvalue = [0, 1]"] ;
358 -> 359 ;
360 [label="gini = 0.0\nsamples = 2\nvalue = [2, 0]"] ;
358 -> 360 ;
361 [label="Made_Lead_Days_Calendar <= 21.5\ngini = 0.32\nsamples = 20\nvalue = [16, 4]"] ;
351 -> 361 ;
362 [label="gini = 0.0\nsamples = 2\nvalue = [0, 2]"] ;
361 -> 362 ;
363 [label="count_app <= 1.5\ngini = 0.198\nsamples = 18\nvalue = [16, 2]"] ;
361 -> 363 ;
364 [label="gini = 0.0\nsamples = 1\nvalue = [0, 1]"] ;
363 -> 364 ;
365 [label="Appt_Year <= 2015.5\ngini = 0.111\nsamples = 17\nvalue = [16, 1]"] ;
363 -> 365 ;
366 [label="Appt_Day <= 19.5\ngini = 0.444\nsamples = 3\nvalue = [2, 1]"] ;
365 -> 366 ;
367 [label="gini = 0.0\nsamples = 1\nvalue = [0, 1]"] ;
366 -> 367 ;
368 [label="gini = 0.0\nsamples = 2\nvalue = [2, 0]"] ;
366 -> 368 ;
369 [label="gini = 0.0\nsamples = 14\nvalue = [14, 0]"] ;
365 -> 369 ;
370 [label="gini = 0.0\nsamples = 1\nvalue = [0, 1]"] ;
350 -> 370 ;
371 [label="Appt_Made_Min <= 6.0\ngini = 0.49\nsamples = 7\nvalue = [3, 4]"] ;
349 -> 371 ;
372 [label="gini = 0.0\nsamples = 3\nvalue = [3, 0]"] ;
371 -> 372 ;
373 [label="gini = 0.0\nsamples = 4\nvalue = [0, 4]"] ;
371 -> 373 ;
374 [label="Provider_ID <= 37.0\ngini = 0.491\nsamples = 30\nvalue = [17, 13]"] ;
348 -> 374 ;
375 [label="count_app <= 5.5\ngini = 0.457\nsamples = 17\nvalue = [6, 11]"] ;
374 -> 375 ;
376 [label="Appt_Made_Month <= 6.5\ngini = 0.337\nsamples = 14\nvalue = [3, 11]"] ;
375 -> 376 ;
377 [label="gini = 0.0\nsamples = 10\nvalue = [0, 10]"] ;
376 -> 377 ;
378 [label="Duration <= 0.01\ngini = 0.375\nsamples = 4\nvalue = [3, 1]"] ;
376 -> 378 ;
379 [label="gini = 0.0\nsamples = 1\nvalue = [0, 1]"] ;
378 -> 379 ;
380 [label="gini = 0.0\nsamples = 3\nvalue = [3, 0]"] ;
378 -> 380 ;
381 [label="gini = 0.0\nsamples = 3\nvalue = [3, 0]"] ;
375 -> 381 ;
382 [label="Appt_Made_Month <= 10.5\ngini = 0.26\nsamples = 13\nvalue = [11, 2]"] ;
374 -> 382 ;
383 [label="Appt_Made_Day <= 20.5\ngini = 0.153\nsamples = 12\nvalue = [11, 1]"] ;
382 -> 383 ;
384 [label="gini = 0.0\nsamples = 1\nvalue = [0, 1]"] ;
383 -> 384 ;
385 [label="gini = 0.0\nsamples = 11\nvalue = [11, 0]"] ;
383 -> 385 ;
386 [label="gini = 0.0\nsamples = 1\nvalue = [0, 1]"] ;
382 -> 386 ;
387 [label="Duration <= 0.01\ngini = 0.045\nsamples = 43\nvalue = [42, 1]"] ;
347 -> 387 ;
388 [label="Made_Lead_Days_Work <= 5.5\ngini = 0.5\nsamples = 2\nvalue = [1, 1]"] ;
387 -> 388 ;
389 [label="gini = 0.0\nsamples = 1\nvalue = [1, 0]"] ;
388 -> 389 ;
390 [label="gini = 0.0\nsamples = 1\nvalue = [0, 1]"] ;
388 -> 390 ;
391 [label="gini = 0.0\nsamples = 41\nvalue = [41, 0]"] ;
387 -> 391 ;
392 [label="gini = 0.0\nsamples = 27\nvalue = [27, 0]"] ;
186 -> 392 ;
393 [label="Appt_Made_Min <= 17.5\ngini = 0.408\nsamples = 35\nvalue = [25, 10]"] ;
185 -> 393 ;
394 [label="Duration <= 0.014\ngini = 0.48\nsamples = 10\nvalue = [4, 6]"] ;
393 -> 394 ;
395 [label="gini = 0.0\nsamples = 5\nvalue = [0, 5]"] ;
394 -> 395 ;
396 [label="Made_Lead_Days_Calendar <= 30.5\ngini = 0.32\nsamples = 5\nvalue = [4, 1]"] ;
394 -> 396 ;
397 [label="gini = 0.0\nsamples = 4\nvalue = [4, 0]"] ;
396 -> 397 ;
398 [label="gini = 0.0\nsamples = 1\nvalue = [0, 1]"] ;
396 -> 398 ;
399 [label="Appt_Logistics_Type_ID <= 0.5\ngini = 0.269\nsamples = 25\nvalue = [21, 4]"] ;
393 -> 399 ;
400 [label="gini = 0.0\nsamples = 1\nvalue = [0, 1]"] ;
399 -> 400 ;
401 [label="Appt_Day <= 18.5\ngini = 0.219\nsamples = 24\nvalue = [21, 3]"] ;
399 -> 401 ;
402 [label="gini = 0.0\nsamples = 15\nvalue = [15, 0]"] ;
401 -> 402 ;
403 [label="Appt_Logistics_Type_ID <= 1.5\ngini = 0.444\nsamples = 9\nvalue = [6, 3]"] ;
401 -> 403 ;
404 [label="gini = 0.0\nsamples = 5\nvalue = [5, 0]"] ;
403 -> 404 ;
405 [label="Made_Lead_Days_Work <= 5.5\ngini = 0.375\nsamples = 4\nvalue = [1, 3]"] ;
403 -> 405 ;
406 [label="gini = 0.0\nsamples = 1\nvalue = [1, 0]"] ;
405 -> 406 ;
407 [label="gini = 0.0\nsamples = 3\nvalue = [0, 3]"] ;
405 -> 407 ;
408 [label="gini = 0.0\nsamples = 1\nvalue = [0, 1]"] ;
184 -> 408 ;
409 [label="count_cancel <= 1.5\ngini = 0.432\nsamples = 38\nvalue = [26, 12]"] ;
183 -> 409 ;
410 [label="Made_Lead_Days_Work <= 13.5\ngini = 0.382\nsamples = 35\nvalue = [26, 9]"] ;
409 -> 410 ;
411 [label="Appt_Made_Day <= 23.5\ngini = 0.499\nsamples = 19\nvalue = [10, 9]"] ;
410 -> 411 ;
412 [label="Made_Lead_Days_Calendar <= 14.0\ngini = 0.459\nsamples = 14\nvalue = [5, 9]"] ;
411 -> 412 ;
413 [label="Provider_ID <= 31.5\ngini = 0.469\nsamples = 8\nvalue = [5, 3]"] ;
412 -> 413 ;
414 [label="gini = 0.0\nsamples = 2\nvalue = [0, 2]"] ;
413 -> 414 ;
415 [label="Distance <= 0.005\ngini = 0.278\nsamples = 6\nvalue = [5, 1]"] ;
413 -> 415 ;
416 [label="gini = 0.0\nsamples = 5\nvalue = [5, 0]"] ;
415 -> 416 ;
417 [label="gini = 0.0\nsamples = 1\nvalue = [0, 1]"] ;
415 -> 417 ;
418 [label="gini = 0.0\nsamples = 6\nvalue = [0, 6]"] ;
412 -> 418 ;
419 [label="gini = 0.0\nsamples = 5\nvalue = [5, 0]"] ;
411 -> 419 ;
420 [label="gini = 0.0\nsamples = 16\nvalue = [16, 0]"] ;
410 -> 420 ;
421 [label="gini = 0.0\nsamples = 3\nvalue = [0, 3]"] ;
409 -> 421 ;
422 [label="Made_Lead_Days_Calendar <= 90.5\ngini = 0.373\nsamples = 117\nvalue = [88, 29]"] ;
144 -> 422 ;
423 [label="count_app <= 2.5\ngini = 0.494\nsamples = 18\nvalue = [8, 10]"] ;
422 -> 423 ;
424 [label="Duration <= 0.006\ngini = 0.219\nsamples = 8\nvalue = [1, 7]"] ;
423 -> 424 ;
425 [label="gini = 0.0\nsamples = 1\nvalue = [1, 0]"] ;
424 -> 425 ;
426 [label="gini = 0.0\nsamples = 7\nvalue = [0, 7]"] ;
424 -> 426 ;
427 [label="Appt_Made_Month <= 2.5\ngini = 0.42\nsamples = 10\nvalue = [7, 3]"] ;
423 -> 427 ;
428 [label="gini = 0.0\nsamples = 3\nvalue = [0, 3]"] ;
427 -> 428 ;
429 [label="gini = 0.0\nsamples = 7\nvalue = [7, 0]"] ;
427 -> 429 ;
430 [label="count_cancel <= 1.5\ngini = 0.31\nsamples = 99\nvalue = [80, 19]"] ;
422 -> 430 ;
431 [label="Appt_Made_Hour <= 15.5\ngini = 0.289\nsamples = 97\nvalue = [80, 17]"] ;
430 -> 431 ;
432 [label="Distance <= 0.007\ngini = 0.242\nsamples = 85\nvalue = [73, 12]"] ;
431 -> 432 ;
433 [label="Appt_Day <= 3.5\ngini = 0.228\nsamples = 84\nvalue = [73, 11]"] ;
432 -> 433 ;
434 [label="Duration <= 0.007\ngini = 0.463\nsamples = 11\nvalue = [7, 4]"] ;
433 -> 434 ;
435 [label="gini = 0.0\nsamples = 2\nvalue = [0, 2]"] ;
434 -> 435 ;
436 [label="Provider_ID <= 53.0\ngini = 0.346\nsamples = 9\nvalue = [7, 2]"] ;
434 -> 436 ;
437 [label="gini = 0.0\nsamples = 6\nvalue = [6, 0]"] ;
436 -> 437 ;
438 [label="Appt_Time_Min <= 20.0\ngini = 0.444\nsamples = 3\nvalue = [1, 2]"] ;
436 -> 438 ;
439 [label="gini = 0.0\nsamples = 1\nvalue = [1, 0]"] ;
438 -> 439 ;
440 [label="gini = 0.0\nsamples = 2\nvalue = [0, 2]"] ;
438 -> 440 ;
441 [label="Provider_ID <= 54.5\ngini = 0.173\nsamples = 73\nvalue = [66, 7]"] ;
433 -> 441 ;
442 [label="Appt_Made_Hour <= 14.5\ngini = 0.048\nsamples = 41\nvalue = [40, 1]"] ;
441 -> 442 ;
443 [label="gini = 0.0\nsamples = 37\nvalue = [37, 0]"] ;
442 -> 443 ;
444 [label="Appt_Day <= 10.0\ngini = 0.375\nsamples = 4\nvalue = [3, 1]"] ;
442 -> 444 ;
445 [label="gini = 0.0\nsamples = 1\nvalue = [0, 1]"] ;
444 -> 445 ;
446 [label="gini = 0.0\nsamples = 3\nvalue = [3, 0]"] ;
444 -> 446 ;
447 [label="Appt_Day <= 16.5\ngini = 0.305\nsamples = 32\nvalue = [26, 6]"] ;
441 -> 447 ;
448 [label="gini = 0.0\nsamples = 14\nvalue = [14, 0]"] ;
447 -> 448 ;
449 [label="Appt_Time_Hour <= 9.5\ngini = 0.444\nsamples = 18\nvalue = [12, 6]"] ;
447 -> 449 ;
450 [label="distance <= 19.529\ngini = 0.18\nsamples = 10\nvalue = [9, 1]"] ;
449 -> 450 ;
451 [label="gini = 0.0\nsamples = 9\nvalue = [9, 0]"] ;
450 -> 451 ;
452 [label="gini = 0.0\nsamples = 1\nvalue = [0, 1]"] ;
450 -> 452 ;
453 [label="Appt_Made_Month <= 3.5\ngini = 0.469\nsamples = 8\nvalue = [3, 5]"] ;
449 -> 453 ;
454 [label="Appt_Time_Hour <= 14.5\ngini = 0.375\nsamples = 4\nvalue = [3, 1]"] ;
453 -> 454 ;
455 [label="gini = 0.0\nsamples = 3\nvalue = [3, 0]"] ;
454 -> 455 ;
456 [label="gini = 0.0\nsamples = 1\nvalue = [0, 1]"] ;
454 -> 456 ;
457 [label="gini = 0.0\nsamples = 4\nvalue = [0, 4]"] ;
453 -> 457 ;
458 [label="gini = 0.0\nsamples = 1\nvalue = [0, 1]"] ;
432 -> 458 ;
459 [label="Appt_Made_Day <= 23.5\ngini = 0.486\nsamples = 12\nvalue = [7, 5]"] ;
431 -> 459 ;
460 [label="Appt_Made_Min <= 6.0\ngini = 0.346\nsamples = 9\nvalue = [7, 2]"] ;
459 -> 460 ;
461 [label="gini = 0.0\nsamples = 2\nvalue = [0, 2]"] ;
460 -> 461 ;
462 [label="gini = 0.0\nsamples = 7\nvalue = [7, 0]"] ;
460 -> 462 ;
463 [label="gini = 0.0\nsamples = 3\nvalue = [0, 3]"] ;
459 -> 463 ;
464 [label="gini = 0.0\nsamples = 2\nvalue = [0, 2]"] ;
430 -> 464 ;
465 [label="Duration <= 0.018\ngini = 0.167\nsamples = 839\nvalue = [762, 77]"] ;
143 -> 465 ;
466 [label="count_app <= 15.5\ngini = 0.139\nsamples = 627\nvalue = [580, 47]"] ;
465 -> 466 ;
467 [label="Appt_Made_Month <= 4.5\ngini = 0.136\nsamples = 626\nvalue = [580, 46]"] ;
466 -> 467 ;
468 [label="count_app <= 13.0\ngini = 0.206\nsamples = 206\nvalue = [182, 24]"] ;
467 -> 468 ;
469 [label="diff_pay_count <= 1.5\ngini = 0.199\nsamples = 205\nvalue = [182, 23]"] ;
468 -> 469 ;
470 [label="Appt_Time_Hour <= 9.5\ngini = 0.192\nsamples = 204\nvalue = [182, 22]"] ;
469 -> 470 ;
471 [label="count_cancel <= 2.5\ngini = 0.313\nsamples = 72\nvalue = [58, 14]"] ;
470 -> 471 ;
472 [label="distance <= 36.191\ngini = 0.299\nsamples = 71\nvalue = [58, 13]"] ;
471 -> 472 ;
473 [label="count_app <= 1.5\ngini = 0.284\nsamples = 70\nvalue = [58, 12]"] ;
472 -> 473 ;
474 [label="Duration <= 0.014\ngini = 0.369\nsamples = 45\nvalue = [34, 11]"] ;
473 -> 474 ;
475 [label="Appt_Day <= 24.5\ngini = 0.278\nsamples = 36\nvalue = [30, 6]"] ;
474 -> 475 ;
476 [label="count_cancel <= 0.5\ngini = 0.124\nsamples = 30\nvalue = [28, 2]"] ;
475 -> 476 ;
477 [label="Appt_Made_Min <= 47.0\ngini = 0.067\nsamples = 29\nvalue = [28, 1]"] ;
476 -> 477 ;
478 [label="gini = 0.0\nsamples = 27\nvalue = [27, 0]"] ;
477 -> 478 ;
479 [label="Appt_Logistics_Type_ID <= 0.5\ngini = 0.5\nsamples = 2\nvalue = [1, 1]"] ;
477 -> 479 ;
480 [label="gini = 0.0\nsamples = 1\nvalue = [1, 0]"] ;
479 -> 480 ;
481 [label="gini = 0.0\nsamples = 1\nvalue = [0, 1]"] ;
479 -> 481 ;
482 [label="gini = 0.0\nsamples = 1\nvalue = [0, 1]"] ;
476 -> 482 ;
483 [label="Appt_Day <= 28.5\ngini = 0.444\nsamples = 6\nvalue = [2, 4]"] ;
475 -> 483 ;
484 [label="gini = 0.0\nsamples = 4\nvalue = [0, 4]"] ;
483 -> 484 ;
485 [label="gini = 0.0\nsamples = 2\nvalue = [2, 0]"] ;
483 -> 485 ;
486 [label="Appt_Made_Day <= 12.5\ngini = 0.494\nsamples = 9\nvalue = [4, 5]"] ;
474 -> 486 ;
487 [label="gini = 0.0\nsamples = 3\nvalue = [3, 0]"] ;
486 -> 487 ;
488 [label="Made_Lead_Days_Work <= 53.5\ngini = 0.278\nsamples = 6\nvalue = [1, 5]"] ;
486 -> 488 ;
489 [label="gini = 0.0\nsamples = 5\nvalue = [0, 5]"] ;
488 -> 489 ;
490 [label="gini = 0.0\nsamples = 1\nvalue = [1, 0]"] ;
488 -> 490 ;
491 [label="Appt_Day <= 2.5\ngini = 0.077\nsamples = 25\nvalue = [24, 1]"] ;
473 -> 491 ;
492 [label="Appt_Time_Hour <= 8.5\ngini = 0.5\nsamples = 2\nvalue = [1, 1]"] ;
491 -> 492 ;
493 [label="gini = 0.0\nsamples = 1\nvalue = [1, 0]"] ;
492 -> 493 ;
494 [label="gini = 0.0\nsamples = 1\nvalue = [0, 1]"] ;
492 -> 494 ;
495 [label="gini = 0.0\nsamples = 23\nvalue = [23, 0]"] ;
491 -> 495 ;
496 [label="gini = 0.0\nsamples = 1\nvalue = [0, 1]"] ;
472 -> 496 ;
497 [label="gini = 0.0\nsamples = 1\nvalue = [0, 1]"] ;
471 -> 497 ;
498 [label="Appt_Time_Min <= 5.0\ngini = 0.114\nsamples = 132\nvalue = [124, 8]"] ;
470 -> 498 ;
499 [label="Appt_Day <= 30.0\ngini = 0.172\nsamples = 84\nvalue = [76, 8]"] ;
498 -> 499 ;
500 [label="Appt_Made_Month <= 3.5\ngini = 0.154\nsamples = 83\nvalue = [76, 7]"] ;
499 -> 500 ;
501 [label="Appt_Made_Day <= 25.5\ngini = 0.106\nsamples = 71\nvalue = [67, 4]"] ;
500 -> 501 ;
502 [label="Appt_Year <= 2015.5\ngini = 0.063\nsamples = 61\nvalue = [59, 2]"] ;
501 -> 502 ;
503 [label="Distance <= 0.008\ngini = 0.18\nsamples = 20\nvalue = [18, 2]"] ;
502 -> 503 ;
504 [label="gini = 0.0\nsamples = 1\nvalue = [0, 1]"] ;
503 -> 504 ;
505 [label="Appt_Day <= 24.5\ngini = 0.1\nsamples = 19\nvalue = [18, 1]"] ;
503 -> 505 ;
506 [label="gini = 0.0\nsamples = 16\nvalue = [16, 0]"] ;
505 -> 506 ;
507 [label="Appt_Day <= 25.5\ngini = 0.444\nsamples = 3\nvalue = [2, 1]"] ;
505 -> 507 ;
508 [label="gini = 0.0\nsamples = 1\nvalue = [0, 1]"] ;
507 -> 508 ;
509 [label="gini = 0.0\nsamples = 2\nvalue = [2, 0]"] ;
507 -> 509 ;
510 [label="gini = 0.0\nsamples = 41\nvalue = [41, 0]"] ;
502 -> 510 ;
511 [label="Appt_Made_Min <= 17.5\ngini = 0.32\nsamples = 10\nvalue = [8, 2]"] ;
501 -> 511 ;
512 [label="Appt_Day <= 19.5\ngini = 0.444\nsamples = 3\nvalue = [1, 2]"] ;
511 -> 512 ;
513 [label="gini = 0.0\nsamples = 2\nvalue = [0, 2]"] ;
512 -> 513 ;
514 [label="gini = 0.0\nsamples = 1\nvalue = [1, 0]"] ;
512 -> 514 ;
515 [label="gini = 0.0\nsamples = 7\nvalue = [7, 0]"] ;
511 -> 515 ;
516 [label="Appt_Made_Min <= 42.0\ngini = 0.375\nsamples = 12\nvalue = [9, 3]"] ;
500 -> 516 ;
517 [label="Made_Lead_Days_Calendar <= 5.0\ngini = 0.18\nsamples = 10\nvalue = [9, 1]"] ;
516 -> 517 ;
518 [label="Appt_Made_Day <= 13.0\ngini = 0.444\nsamples = 3\nvalue = [2, 1]"] ;
517 -> 518 ;
519 [label="gini = 0.0\nsamples = 1\nvalue = [0, 1]"] ;
518 -> 519 ;
520 [label="gini = 0.0\nsamples = 2\nvalue = [2, 0]"] ;
518 -> 520 ;
521 [label="gini = 0.0\nsamples = 7\nvalue = [7, 0]"] ;
517 -> 521 ;
522 [label="gini = 0.0\nsamples = 2\nvalue = [0, 2]"] ;
516 -> 522 ;
523 [label="gini = 0.0\nsamples = 1\nvalue = [0, 1]"] ;
499 -> 523 ;
524 [label="gini = 0.0\nsamples = 48\nvalue = [48, 0]"] ;
498 -> 524 ;
525 [label="gini = 0.0\nsamples = 1\nvalue = [0, 1]"] ;
469 -> 525 ;
526 [label="gini = 0.0\nsamples = 1\nvalue = [0, 1]"] ;
468 -> 526 ;
527 [label="Appt_Made_Hour <= 9.5\ngini = 0.099\nsamples = 420\nvalue = [398, 22]"] ;
467 -> 527 ;
528 [label="Appt_Made_Min <= 57.5\ngini = 0.231\nsamples = 60\nvalue = [52, 8]"] ;
527 -> 528 ;
529 [label="Appt_Made_Year <= 2016.5\ngini = 0.188\nsamples = 57\nvalue = [51, 6]"] ;
528 -> 529 ;
530 [label="Patient_Age_Bucket_ID <= 3.5\ngini = 0.091\nsamples = 42\nvalue = [40, 2]"] ;
529 -> 530 ;
531 [label="diff_pay_count <= 0.5\ngini = 0.049\nsamples = 40\nvalue = [39, 1]"] ;
530 -> 531 ;
532 [label="gini = 0.0\nsamples = 37\nvalue = [37, 0]"] ;
531 -> 532 ;
533 [label="Appt_Made_Day <= 18.0\ngini = 0.444\nsamples = 3\nvalue = [2, 1]"] ;
531 -> 533 ;
534 [label="gini = 0.0\nsamples = 1\nvalue = [0, 1]"] ;
533 -> 534 ;
535 [label="gini = 0.0\nsamples = 2\nvalue = [2, 0]"] ;
533 -> 535 ;
536 [label="distance <= 19.667\ngini = 0.5\nsamples = 2\nvalue = [1, 1]"] ;
530 -> 536 ;
537 [label="gini = 0.0\nsamples = 1\nvalue = [1, 0]"] ;
536 -> 537 ;
538 [label="gini = 0.0\nsamples = 1\nvalue = [0, 1]"] ;
536 -> 538 ;
539 [label="Appt_Time_Min <= 20.0\ngini = 0.391\nsamples = 15\nvalue = [11, 4]"] ;
529 -> 539 ;
540 [label="Made_Lead_Days_Calendar <= 14.5\ngini = 0.5\nsamples = 8\nvalue = [4, 4]"] ;
539 -> 540 ;
541 [label="Made_Lead_Days_Work <= 1.5\ngini = 0.444\nsamples = 6\nvalue = [4, 2]"] ;
540 -> 541 ;
542 [label="Appt_Time_Hour <= 13.5\ngini = 0.444\nsamples = 3\nvalue = [1, 2]"] ;
541 -> 542 ;
543 [label="gini = 0.0\nsamples = 2\nvalue = [0, 2]"] ;
542 -> 543 ;
544 [label="gini = 0.0\nsamples = 1\nvalue = [1, 0]"] ;
542 -> 544 ;
545 [label="gini = 0.0\nsamples = 3\nvalue = [3, 0]"] ;
541 -> 545 ;
546 [label="gini = 0.0\nsamples = 2\nvalue = [0, 2]"] ;
540 -> 546 ;
547 [label="gini = 0.0\nsamples = 7\nvalue = [7, 0]"] ;
539 -> 547 ;
548 [label="Appt_Time_Hour <= 8.5\ngini = 0.444\nsamples = 3\nvalue = [1, 2]"] ;
528 -> 548 ;
549 [label="gini = 0.0\nsamples = 1\nvalue = [1, 0]"] ;
548 -> 549 ;
550 [label="gini = 0.0\nsamples = 2\nvalue = [0, 2]"] ;
548 -> 550 ;
551 [label="Duration <= 0.012\ngini = 0.075\nsamples = 360\nvalue = [346, 14]"] ;
527 -> 551 ;
552 [label="Appt_Logistics_Type_ID <= 1.5\ngini = 0.32\nsamples = 10\nvalue = [8, 2]"] ;
551 -> 552 ;
553 [label="gini = 0.0\nsamples = 8\nvalue = [8, 0]"] ;
552 -> 553 ;
554 [label="gini = 0.0\nsamples = 2\nvalue = [0, 2]"] ;
552 -> 554 ;
555 [label="Made_Lead_Days_Work <= 67.0\ngini = 0.066\nsamples = 350\nvalue = [338, 12]"] ;
551 -> 555 ;
556 [label="Appt_Day <= 30.5\ngini = 0.057\nsamples = 340\nvalue = [330, 10]"] ;
555 -> 556 ;
557 [label="Appt_Made_Day <= 23.5\ngini = 0.052\nsamples = 335\nvalue = [326, 9]"] ;
556 -> 557 ;
558 [label="Appt_Made_Hour <= 12.5\ngini = 0.031\nsamples = 250\nvalue = [246, 4]"] ;
557 -> 558 ;
559 [label="Appt_Year <= 2015.5\ngini = 0.072\nsamples = 107\nvalue = [103, 4]"] ;
558 -> 559 ;
560 [label="Appt_Logistics_Type_ID <= 0.5\ngini = 0.204\nsamples = 26\nvalue = [23, 3]"] ;
559 -> 560 ;
561 [label="Appt_Time_Hour <= 12.0\ngini = 0.444\nsamples = 6\nvalue = [4, 2]"] ;
560 -> 561 ;
562 [label="Made_Lead_Days_Calendar <= 10.0\ngini = 0.444\nsamples = 3\nvalue = [1, 2]"] ;
561 -> 562 ;
563 [label="gini = 0.0\nsamples = 2\nvalue = [0, 2]"] ;
562 -> 563 ;
564 [label="gini = 0.0\nsamples = 1\nvalue = [1, 0]"] ;
562 -> 564 ;
565 [label="gini = 0.0\nsamples = 3\nvalue = [3, 0]"] ;
561 -> 565 ;
566 [label="Appt_Made_Hour <= 11.5\ngini = 0.095\nsamples = 20\nvalue = [19, 1]"] ;
560 -> 566 ;
567 [label="gini = 0.0\nsamples = 15\nvalue = [15, 0]"] ;
566 -> 567 ;
568 [label="Appt_Day <= 12.0\ngini = 0.32\nsamples = 5\nvalue = [4, 1]"] ;
566 -> 568 ;
569 [label="gini = 0.0\nsamples = 4\nvalue = [4, 0]"] ;
568 -> 569 ;
570 [label="gini = 0.0\nsamples = 1\nvalue = [0, 1]"] ;
568 -> 570 ;
571 [label="Made_Lead_Days_Calendar <= 3.5\ngini = 0.024\nsamples = 81\nvalue = [80, 1]"] ;
559 -> 571 ;
572 [label="Made_Lead_Days_Work <= 2.5\ngini = 0.133\nsamples = 14\nvalue = [13, 1]"] ;
571 -> 572 ;
573 [label="gini = 0.0\nsamples = 12\nvalue = [12, 0]"] ;
572 -> 573 ;
574 [label="Appt_Made_Hour <= 11.5\ngini = 0.5\nsamples = 2\nvalue = [1, 1]"] ;
572 -> 574 ;
575 [label="gini = 0.0\nsamples = 1\nvalue = [0, 1]"] ;
574 -> 575 ;
576 [label="gini = 0.0\nsamples = 1\nvalue = [1, 0]"] ;
574 -> 576 ;
577 [label="gini = 0.0\nsamples = 67\nvalue = [67, 0]"] ;
571 -> 577 ;
578 [label="gini = 0.0\nsamples = 143\nvalue = [143, 0]"] ;
558 -> 578 ;
579 [label="Appt_Month <= 11.5\ngini = 0.111\nsamples = 85\nvalue = [80, 5]"] ;
557 -> 579 ;
580 [label="Appt_Made_Day <= 26.5\ngini = 0.075\nsamples = 77\nvalue = [74, 3]"] ;
579 -> 580 ;
581 [label="Appt_Year <= 2016.5\ngini = 0.185\nsamples = 29\nvalue = [26, 3]"] ;
580 -> 581 ;
582 [label="Appt_Day <= 4.5\ngini = 0.305\nsamples = 16\nvalue = [13, 3]"] ;
581 -> 582 ;
583 [label="gini = 0.0\nsamples = 1\nvalue = [0, 1]"] ;
582 -> 583 ;
584 [label="Appt_Time_Min <= 45.0\ngini = 0.231\nsamples = 15\nvalue = [13, 2]"] ;
582 -> 584 ;
585 [label="Made_Lead_Days_Work <= 17.5\ngini = 0.133\nsamples = 14\nvalue = [13, 1]"] ;
584 -> 585 ;
586 [label="gini = 0.0\nsamples = 11\nvalue = [11, 0]"] ;
585 -> 586 ;
587 [label="Appt_Time_Hour <= 11.5\ngini = 0.444\nsamples = 3\nvalue = [2, 1]"] ;
585 -> 587 ;
588 [label="gini = 0.0\nsamples = 2\nvalue = [2, 0]"] ;
587 -> 588 ;
589 [label="gini = 0.0\nsamples = 1\nvalue = [0, 1]"] ;
587 -> 589 ;
590 [label="gini = 0.0\nsamples = 1\nvalue = [0, 1]"] ;
584 -> 590 ;
591 [label="gini = 0.0\nsamples = 13\nvalue = [13, 0]"] ;
581 -> 591 ;
592 [label="gini = 0.0\nsamples = 48\nvalue = [48, 0]"] ;
580 -> 592 ;
593 [label="count_app <= 2.5\ngini = 0.375\nsamples = 8\nvalue = [6, 2]"] ;
579 -> 593 ;
594 [label="Made_Lead_Days_Work <= 26.5\ngini = 0.245\nsamples = 7\nvalue = [6, 1]"] ;
593 -> 594 ;
595 [label="gini = 0.0\nsamples = 6\nvalue = [6, 0]"] ;
594 -> 595 ;
596 [label="gini = 0.0\nsamples = 1\nvalue = [0, 1]"] ;
594 -> 596 ;
597 [label="gini = 0.0\nsamples = 1\nvalue = [0, 1]"] ;
593 -> 597 ;
598 [label="Made_Lead_Days_Calendar <= 27.0\ngini = 0.32\nsamples = 5\nvalue = [4, 1]"] ;
556 -> 598 ;
599 [label="gini = 0.0\nsamples = 4\nvalue = [4, 0]"] ;
598 -> 599 ;
600 [label="gini = 0.0\nsamples = 1\nvalue = [0, 1]"] ;
598 -> 600 ;
601 [label="Appt_Made_Month <= 7.5\ngini = 0.32\nsamples = 10\nvalue = [8, 2]"] ;
555 -> 601 ;
602 [label="Provider_ID <= 60.0\ngini = 0.444\nsamples = 3\nvalue = [1, 2]"] ;
601 -> 602 ;
603 [label="gini = 0.0\nsamples = 2\nvalue = [0, 2]"] ;
602 -> 603 ;
604 [label="gini = 0.0\nsamples = 1\nvalue = [1, 0]"] ;
602 -> 604 ;
605 [label="gini = 0.0\nsamples = 7\nvalue = [7, 0]"] ;
601 -> 605 ;
606 [label="gini = 0.0\nsamples = 1\nvalue = [0, 1]"] ;
466 -> 606 ;
607 [label="Duration <= 0.018\ngini = 0.243\nsamples = 212\nvalue = [182, 30]"] ;
465 -> 607 ;
608 [label="count_app <= 2.0\ngini = 0.444\nsamples = 6\nvalue = [2, 4]"] ;
607 -> 608 ;
609 [label="Appt_Year <= 2015.5\ngini = 0.444\nsamples = 3\nvalue = [2, 1]"] ;
608 -> 609 ;
610 [label="gini = 0.0\nsamples = 1\nvalue = [0, 1]"] ;
609 -> 610 ;
611 [label="gini = 0.0\nsamples = 2\nvalue = [2, 0]"] ;
609 -> 611 ;
612 [label="gini = 0.0\nsamples = 3\nvalue = [0, 3]"] ;
608 -> 612 ;
613 [label="Appt_Made_Min <= 0.5\ngini = 0.221\nsamples = 206\nvalue = [180, 26]"] ;
607 -> 613 ;
614 [label="Appt_Day <= 20.5\ngini = 0.375\nsamples = 4\nvalue = [1, 3]"] ;
613 -> 614 ;
615 [label="gini = 0.0\nsamples = 3\nvalue = [0, 3]"] ;
614 -> 615 ;
616 [label="gini = 0.0\nsamples = 1\nvalue = [1, 0]"] ;
614 -> 616 ;
617 [label="Provider_ID <= 60.0\ngini = 0.202\nsamples = 202\nvalue = [179, 23]"] ;
613 -> 617 ;
618 [label="Appt_Made_Min <= 55.5\ngini = 0.152\nsamples = 169\nvalue = [155, 14]"] ;
617 -> 618 ;
619 [label="Appt_Logistics_Type_ID <= 3.5\ngini = 0.121\nsamples = 155\nvalue = [145, 10]"] ;
618 -> 619 ;
620 [label="Distance <= 0.009\ngini = 0.072\nsamples = 134\nvalue = [129, 5]"] ;
619 -> 620 ;
621 [label="Appt_Day <= 11.0\ngini = 0.5\nsamples = 2\nvalue = [1, 1]"] ;
620 -> 621 ;
622 [label="gini = 0.0\nsamples = 1\nvalue = [1, 0]"] ;
621 -> 622 ;
623 [label="gini = 0.0\nsamples = 1\nvalue = [0, 1]"] ;
621 -> 623 ;
624 [label="Appt_Made_Min <= 5.5\ngini = 0.059\nsamples = 132\nvalue = [128, 4]"] ;
620 -> 624 ;
625 [label="distance <= 123.403\ngini = 0.278\nsamples = 12\nvalue = [10, 2]"] ;
624 -> 625 ;
626 [label="count_cancel <= 0.5\ngini = 0.165\nsamples = 11\nvalue = [10, 1]"] ;
625 -> 626 ;
627 [label="gini = 0.0\nsamples = 10\nvalue = [10, 0]"] ;
626 -> 627 ;
628 [label="gini = 0.0\nsamples = 1\nvalue = [0, 1]"] ;
626 -> 628 ;
629 [label="gini = 0.0\nsamples = 1\nvalue = [0, 1]"] ;
625 -> 629 ;
630 [label="Appt_Day <= 3.5\ngini = 0.033\nsamples = 120\nvalue = [118, 2]"] ;
624 -> 630 ;
631 [label="count_cancel <= 0.5\ngini = 0.26\nsamples = 13\nvalue = [11, 2]"] ;
630 -> 631 ;
632 [label="gini = 0.0\nsamples = 10\nvalue = [10, 0]"] ;
631 -> 632 ;
633 [label="Made_Lead_Days_Work <= 16.5\ngini = 0.444\nsamples = 3\nvalue = [1, 2]"] ;
631 -> 633 ;
634 [label="gini = 0.0\nsamples = 2\nvalue = [0, 2]"] ;
633 -> 634 ;
635 [label="gini = 0.0\nsamples = 1\nvalue = [1, 0]"] ;
633 -> 635 ;
636 [label="gini = 0.0\nsamples = 107\nvalue = [107, 0]"] ;
630 -> 636 ;
637 [label="Appt_Day <= 13.5\ngini = 0.363\nsamples = 21\nvalue = [16, 5]"] ;
619 -> 637 ;
638 [label="gini = 0.0\nsamples = 10\nvalue = [10, 0]"] ;
637 -> 638 ;
639 [label="Duration <= 0.024\ngini = 0.496\nsamples = 11\nvalue = [6, 5]"] ;
637 -> 639 ;
640 [label="gini = 0.0\nsamples = 4\nvalue = [4, 0]"] ;
639 -> 640 ;
641 [label="Appt_Made_Day <= 8.5\ngini = 0.408\nsamples = 7\nvalue = [2, 5]"] ;
639 -> 641 ;
642 [label="gini = 0.0\nsamples = 2\nvalue = [2, 0]"] ;
641 -> 642 ;
643 [label="gini = 0.0\nsamples = 5\nvalue = [0, 5]"] ;
641 -> 643 ;
644 [label="Made_Lead_Days_Work <= 15.5\ngini = 0.408\nsamples = 14\nvalue = [10, 4]"] ;
618 -> 644 ;
645 [label="gini = 0.0\nsamples = 8\nvalue = [8, 0]"] ;
644 -> 645 ;
646 [label="Made_Lead_Days_Calendar <= 59.5\ngini = 0.444\nsamples = 6\nvalue = [2, 4]"] ;
644 -> 646 ;
647 [label="gini = 0.0\nsamples = 4\nvalue = [0, 4]"] ;
646 -> 647 ;
648 [label="gini = 0.0\nsamples = 2\nvalue = [2, 0]"] ;
646 -> 648 ;
649 [label="distance <= 38.87\ngini = 0.397\nsamples = 33\nvalue = [24, 9]"] ;
617 -> 649 ;
650 [label="gini = 0.0\nsamples = 3\nvalue = [0, 3]"] ;
649 -> 650 ;
651 [label="distance <= 157.897\ngini = 0.32\nsamples = 30\nvalue = [24, 6]"] ;
649 -> 651 ;
652 [label="Appt_Made_Hour <= 14.5\ngini = 0.211\nsamples = 25\nvalue = [22, 3]"] ;
651 -> 652 ;
653 [label="Patient_Age_Bucket_ID <= 3.5\ngini = 0.095\nsamples = 20\nvalue = [19, 1]"] ;
652 -> 653 ;
654 [label="gini = 0.0\nsamples = 17\nvalue = [17, 0]"] ;
653 -> 654 ;
655 [label="distance <= 80.715\ngini = 0.444\nsamples = 3\nvalue = [2, 1]"] ;
653 -> 655 ;
656 [label="gini = 0.0\nsamples = 2\nvalue = [2, 0]"] ;
655 -> 656 ;
657 [label="gini = 0.0\nsamples = 1\nvalue = [0, 1]"] ;
655 -> 657 ;
658 [label="Appt_Made_Day <= 7.5\ngini = 0.48\nsamples = 5\nvalue = [3, 2]"] ;
652 -> 658 ;
659 [label="gini = 0.0\nsamples = 2\nvalue = [2, 0]"] ;
658 -> 659 ;
660 [label="Appt_Made_Min <= 8.5\ngini = 0.444\nsamples = 3\nvalue = [1, 2]"] ;
658 -> 660 ;
661 [label="gini = 0.0\nsamples = 1\nvalue = [1, 0]"] ;
660 -> 661 ;
662 [label="gini = 0.0\nsamples = 2\nvalue = [0, 2]"] ;
660 -> 662 ;
663 [label="Appt_Made_Year <= 2015.5\ngini = 0.48\nsamples = 5\nvalue = [2, 3]"] ;
651 -> 663 ;
664 [label="gini = 0.0\nsamples = 3\nvalue = [0, 3]"] ;
663 -> 664 ;
665 [label="gini = 0.0\nsamples = 2\nvalue = [2, 0]"] ;
663 -> 665 ;
666 [label="Made_Lead_Days_Calendar <= 238.0\ngini = 0.048\nsamples = 807\nvalue = [787, 20]"] ;
74 -> 666 ;
667 [label="Duration <= 0.008\ngini = 0.046\nsamples = 806\nvalue = [787, 19]"] ;
666 -> 667 ;
668 [label="gini = 0.0\nsamples = 214\nvalue = [214, 0]"] ;
667 -> 668 ;
669 [label="Duration <= 0.008\ngini = 0.062\nsamples = 592\nvalue = [573, 19]"] ;
667 -> 669 ;
670 [label="Appt_Month <= 5.5\ngini = 0.5\nsamples = 2\nvalue = [1, 1]"] ;
669 -> 670 ;
671 [label="gini = 0.0\nsamples = 1\nvalue = [1, 0]"] ;
670 -> 671 ;
672 [label="gini = 0.0\nsamples = 1\nvalue = [0, 1]"] ;
670 -> 672 ;
673 [label="Distance <= 0.005\ngini = 0.059\nsamples = 590\nvalue = [572, 18]"] ;
669 -> 673 ;
674 [label="distance <= 18.728\ngini = 0.162\nsamples = 79\nvalue = [72, 7]"] ;
673 -> 674 ;
675 [label="Appt_Made_Min <= 57.5\ngini = 0.142\nsamples = 78\nvalue = [72, 6]"] ;
674 -> 675 ;
676 [label="Appt_Made_Month <= 1.5\ngini = 0.121\nsamples = 77\nvalue = [72, 5]"] ;
675 -> 676 ;
677 [label="Duration <= 0.009\ngini = 0.48\nsamples = 5\nvalue = [3, 2]"] ;
676 -> 677 ;
678 [label="gini = 0.0\nsamples = 2\nvalue = [2, 0]"] ;
677 -> 678 ;
679 [label="Distance <= 0.004\ngini = 0.444\nsamples = 3\nvalue = [1, 2]"] ;
677 -> 679 ;
680 [label="gini = 0.0\nsamples = 2\nvalue = [0, 2]"] ;
679 -> 680 ;
681 [label="gini = 0.0\nsamples = 1\nvalue = [1, 0]"] ;
679 -> 681 ;
682 [label="Distance <= 0.005\ngini = 0.08\nsamples = 72\nvalue = [69, 3]"] ;
676 -> 682 ;
683 [label="Duration <= 0.011\ngini = 0.056\nsamples = 70\nvalue = [68, 2]"] ;
682 -> 683 ;
684 [label="Appt_Day <= 4.5\ngini = 0.029\nsamples = 68\nvalue = [67, 1]"] ;
683 -> 684 ;
685 [label="Appt_Month <= 10.5\ngini = 0.245\nsamples = 7\nvalue = [6, 1]"] ;
684 -> 685 ;
686 [label="gini = 0.0\nsamples = 6\nvalue = [6, 0]"] ;
685 -> 686 ;
687 [label="gini = 0.0\nsamples = 1\nvalue = [0, 1]"] ;
685 -> 687 ;
688 [label="gini = 0.0\nsamples = 61\nvalue = [61, 0]"] ;
684 -> 688 ;
689 [label="Appt_Year <= 2016.0\ngini = 0.5\nsamples = 2\nvalue = [1, 1]"] ;
683 -> 689 ;
690 [label="gini = 0.0\nsamples = 1\nvalue = [0, 1]"] ;
689 -> 690 ;
691 [label="gini = 0.0\nsamples = 1\nvalue = [1, 0]"] ;
689 -> 691 ;
692 [label="Appt_Day <= 4.0\ngini = 0.5\nsamples = 2\nvalue = [1, 1]"] ;
682 -> 692 ;
693 [label="gini = 0.0\nsamples = 1\nvalue = [1, 0]"] ;
692 -> 693 ;
694 [label="gini = 0.0\nsamples = 1\nvalue = [0, 1]"] ;
692 -> 694 ;
695 [label="gini = 0.0\nsamples = 1\nvalue = [0, 1]"] ;
675 -> 695 ;
696 [label="gini = 0.0\nsamples = 1\nvalue = [0, 1]"] ;
674 -> 696 ;
697 [label="Made_Lead_Days_Work <= 128.5\ngini = 0.042\nsamples = 511\nvalue = [500, 11]"] ;
673 -> 697 ;
698 [label="Appt_Made_Hour <= 8.5\ngini = 0.039\nsamples = 508\nvalue = [498, 10]"] ;
697 -> 698 ;
699 [label="Appt_Month <= 3.5\ngini = 0.124\nsamples = 45\nvalue = [42, 3]"] ;
698 -> 699 ;
700 [label="Patient_Age_Bucket_ID <= 2.5\ngini = 0.444\nsamples = 6\nvalue = [4, 2]"] ;
699 -> 700 ;
701 [label="gini = 0.0\nsamples = 4\nvalue = [4, 0]"] ;
700 -> 701 ;
702 [label="gini = 0.0\nsamples = 2\nvalue = [0, 2]"] ;
700 -> 702 ;
703 [label="diff_pay_count <= 0.5\ngini = 0.05\nsamples = 39\nvalue = [38, 1]"] ;
699 -> 703 ;
704 [label="gini = 0.0\nsamples = 35\nvalue = [35, 0]"] ;
703 -> 704 ;
705 [label="Provider_ID <= 24.0\ngini = 0.375\nsamples = 4\nvalue = [3, 1]"] ;
703 -> 705 ;
706 [label="gini = 0.0\nsamples = 3\nvalue = [3, 0]"] ;
705 -> 706 ;
707 [label="gini = 0.0\nsamples = 1\nvalue = [0, 1]"] ;
705 -> 707 ;
708 [label="Appt_Made_Min <= 58.5\ngini = 0.03\nsamples = 463\nvalue = [456, 7]"] ;
698 -> 708 ;
709 [label="Appt_Made_Month <= 10.5\ngini = 0.026\nsamples = 458\nvalue = [452, 6]"] ;
708 -> 709 ;
710 [label="Duration <= 0.047\ngini = 0.015\nsamples = 406\nvalue = [403, 3]"] ;
709 -> 710 ;
711 [label="count_app <= 0.5\ngini = 0.01\nsamples = 395\nvalue = [393, 2]"] ;
710 -> 711 ;
712 [label="Appt_Day <= 11.5\ngini = 0.039\nsamples = 100\nvalue = [98, 2]"] ;
711 -> 712 ;
713 [label="Appt_Day <= 10.5\ngini = 0.121\nsamples = 31\nvalue = [29, 2]"] ;
712 -> 713 ;
714 [label="Appt_Made_Hour <= 15.5\ngini = 0.067\nsamples = 29\nvalue = [28, 1]"] ;
713 -> 714 ;
715 [label="gini = 0.0\nsamples = 24\nvalue = [24, 0]"] ;
714 -> 715 ;
716 [label="Appt_Made_Day <= 21.0\ngini = 0.32\nsamples = 5\nvalue = [4, 1]"] ;
714 -> 716 ;
717 [label="gini = 0.0\nsamples = 4\nvalue = [4, 0]"] ;
716 -> 717 ;
718 [label="gini = 0.0\nsamples = 1\nvalue = [0, 1]"] ;
716 -> 718 ;
719 [label="Made_Lead_Days_Work <= 2.5\ngini = 0.5\nsamples = 2\nvalue = [1, 1]"] ;
713 -> 719 ;
720 [label="gini = 0.0\nsamples = 1\nvalue = [1, 0]"] ;
719 -> 720 ;
721 [label="gini = 0.0\nsamples = 1\nvalue = [0, 1]"] ;
719 -> 721 ;
722 [label="gini = 0.0\nsamples = 69\nvalue = [69, 0]"] ;
712 -> 722 ;
723 [label="gini = 0.0\nsamples = 295\nvalue = [295, 0]"] ;
711 -> 723 ;
724 [label="Duration <= 0.053\ngini = 0.165\nsamples = 11\nvalue = [10, 1]"] ;
710 -> 724 ;
725 [label="gini = 0.0\nsamples = 1\nvalue = [0, 1]"] ;
724 -> 725 ;
726 [label="gini = 0.0\nsamples = 10\nvalue = [10, 0]"] ;
724 -> 726 ;
727 [label="Appt_Made_Day <= 30.5\ngini = 0.109\nsamples = 52\nvalue = [49, 3]"] ;
709 -> 727 ;
728 [label="Appt_Time_Hour <= 9.5\ngini = 0.075\nsamples = 51\nvalue = [49, 2]"] ;
727 -> 728 ;
729 [label="Appt_Time_Hour <= 8.5\ngini = 0.172\nsamples = 21\nvalue = [19, 2]"] ;
728 -> 729 ;
730 [label="gini = 0.0\nsamples = 14\nvalue = [14, 0]"] ;
729 -> 730 ;
731 [label="Appt_Made_Year <= 2016.5\ngini = 0.408\nsamples = 7\nvalue = [5, 2]"] ;
729 -> 731 ;
732 [label="Made_Lead_Days_Work <= 2.0\ngini = 0.278\nsamples = 6\nvalue = [5, 1]"] ;
731 -> 732 ;
733 [label="gini = 0.0\nsamples = 1\nvalue = [0, 1]"] ;
732 -> 733 ;
734 [label="gini = 0.0\nsamples = 5\nvalue = [5, 0]"] ;
732 -> 734 ;
735 [label="gini = 0.0\nsamples = 1\nvalue = [0, 1]"] ;
731 -> 735 ;
736 [label="gini = 0.0\nsamples = 30\nvalue = [30, 0]"] ;
728 -> 736 ;
737 [label="gini = 0.0\nsamples = 1\nvalue = [0, 1]"] ;
727 -> 737 ;
738 [label="Appt_Made_Day <= 7.5\ngini = 0.32\nsamples = 5\nvalue = [4, 1]"] ;
708 -> 738 ;
739 [label="gini = 0.0\nsamples = 1\nvalue = [0, 1]"] ;
738 -> 739 ;
740 [label="gini = 0.0\nsamples = 4\nvalue = [4, 0]"] ;
738 -> 740 ;
741 [label="Provider_ID <= 53.0\ngini = 0.444\nsamples = 3\nvalue = [2, 1]"] ;
697 -> 741 ;
742 [label="gini = 0.0\nsamples = 2\nvalue = [2, 0]"] ;
741 -> 742 ;
743 [label="gini = 0.0\nsamples = 1\nvalue = [0, 1]"] ;
741 -> 743 ;
744 [label="gini = 0.0\nsamples = 1\nvalue = [0, 1]"] ;
666 -> 744 ;
745 [label="Payor_Type_ID <= 3.5\ngini = 0.319\nsamples = 1193\nvalue = [955, 238]"] ;
73 -> 745 ;
746 [label="Payor_Type_ID <= 1.5\ngini = 0.354\nsamples = 971\nvalue = [748, 223]"] ;
745 -> 746 ;
747 [label="Appt_Made_Min <= 58.5\ngini = 0.123\nsamples = 137\nvalue = [128, 9]"] ;
746 -> 747 ;
748 [label="Made_Lead_Days_Work <= 23.5\ngini = 0.098\nsamples = 135\nvalue = [128, 7]"] ;
747 -> 748 ;
749 [label="distance <= 345.944\ngini = 0.047\nsamples = 125\nvalue = [122, 3]"] ;
748 -> 749 ;
750 [label="Appt_Time_Min <= 45.0\ngini = 0.032\nsamples = 123\nvalue = [121, 2]"] ;
749 -> 750 ;
751 [label="Appt_Made_Day <= 2.5\ngini = 0.017\nsamples = 114\nvalue = [113, 1]"] ;
750 -> 751 ;
752 [label="Appt_Made_Month <= 9.5\ngini = 0.153\nsamples = 12\nvalue = [11, 1]"] ;
751 -> 752 ;
753 [label="gini = 0.0\nsamples = 9\nvalue = [9, 0]"] ;
752 -> 753 ;
754 [label="Appt_Day <= 14.5\ngini = 0.444\nsamples = 3\nvalue = [2, 1]"] ;
752 -> 754 ;
755 [label="gini = 0.0\nsamples = 1\nvalue = [0, 1]"] ;
754 -> 755 ;
756 [label="gini = 0.0\nsamples = 2\nvalue = [2, 0]"] ;
754 -> 756 ;
757 [label="gini = 0.0\nsamples = 102\nvalue = [102, 0]"] ;
751 -> 757 ;
758 [label="Made_Lead_Days_Calendar <= 25.5\ngini = 0.198\nsamples = 9\nvalue = [8, 1]"] ;
750 -> 758 ;
759 [label="gini = 0.0\nsamples = 8\nvalue = [8, 0]"] ;
758 -> 759 ;
760 [label="gini = 0.0\nsamples = 1\nvalue = [0, 1]"] ;
758 -> 760 ;
761 [label="Appt_Made_Hour <= 11.5\ngini = 0.5\nsamples = 2\nvalue = [1, 1]"] ;
749 -> 761 ;
762 [label="gini = 0.0\nsamples = 1\nvalue = [0, 1]"] ;
761 -> 762 ;
763 [label="gini = 0.0\nsamples = 1\nvalue = [1, 0]"] ;
761 -> 763 ;
764 [label="Appt_Day <= 7.5\ngini = 0.48\nsamples = 10\nvalue = [6, 4]"] ;
748 -> 764 ;
765 [label="gini = 0.0\nsamples = 4\nvalue = [4, 0]"] ;
764 -> 765 ;
766 [label="Patient_Age_Bucket_ID <= 1.5\ngini = 0.444\nsamples = 6\nvalue = [2, 4]"] ;
764 -> 766 ;
767 [label="Provider_ID <= 35.5\ngini = 0.444\nsamples = 3\nvalue = [2, 1]"] ;
766 -> 767 ;
768 [label="gini = 0.0\nsamples = 1\nvalue = [0, 1]"] ;
767 -> 768 ;
769 [label="gini = 0.0\nsamples = 2\nvalue = [2, 0]"] ;
767 -> 769 ;
770 [label="gini = 0.0\nsamples = 3\nvalue = [0, 3]"] ;
766 -> 770 ;
771 [label="gini = 0.0\nsamples = 2\nvalue = [0, 2]"] ;
747 -> 771 ;
772 [label="distance <= 8.134\ngini = 0.382\nsamples = 834\nvalue = [620, 214]"] ;
746 -> 772 ;
773 [label="Appt_Made_Min <= 55.5\ngini = 0.24\nsamples = 158\nvalue = [136, 22]"] ;
772 -> 773 ;
774 [label="Appt_Month <= 10.5\ngini = 0.191\nsamples = 140\nvalue = [125, 15]"] ;
773 -> 774 ;
775 [label="Distance <= 0.002\ngini = 0.147\nsamples = 125\nvalue = [115, 10]"] ;
774 -> 775 ;
776 [label="Appt_Made_Day <= 27.5\ngini = 0.289\nsamples = 40\nvalue = [33, 7]"] ;
775 -> 776 ;
777 [label="Appt_Made_Min <= 0.5\ngini = 0.17\nsamples = 32\nvalue = [29, 3]"] ;
776 -> 777 ;
778 [label="gini = 0.0\nsamples = 1\nvalue = [0, 1]"] ;
777 -> 778 ;
779 [label="Appt_Made_Day <= 8.5\ngini = 0.121\nsamples = 31\nvalue = [29, 2]"] ;
777 -> 779 ;
780 [label="Appt_Made_Min <= 13.5\ngini = 0.408\nsamples = 7\nvalue = [5, 2]"] ;
779 -> 780 ;
781 [label="gini = 0.0\nsamples = 1\nvalue = [0, 1]"] ;
780 -> 781 ;
782 [label="Appt_Made_Hour <= 10.5\ngini = 0.278\nsamples = 6\nvalue = [5, 1]"] ;
780 -> 782 ;
783 [label="gini = 0.0\nsamples = 1\nvalue = [0, 1]"] ;
782 -> 783 ;
784 [label="gini = 0.0\nsamples = 5\nvalue = [5, 0]"] ;
782 -> 784 ;
785 [label="gini = 0.0\nsamples = 24\nvalue = [24, 0]"] ;
779 -> 785 ;
786 [label="Appt_Month <= 5.5\ngini = 0.5\nsamples = 8\nvalue = [4, 4]"] ;
776 -> 786 ;
787 [label="gini = 0.0\nsamples = 3\nvalue = [3, 0]"] ;
786 -> 787 ;
788 [label="Made_Lead_Days_Calendar <= 13.0\ngini = 0.32\nsamples = 5\nvalue = [1, 4]"] ;
786 -> 788 ;
789 [label="gini = 0.0\nsamples = 4\nvalue = [0, 4]"] ;
788 -> 789 ;
790 [label="gini = 0.0\nsamples = 1\nvalue = [1, 0]"] ;
788 -> 790 ;
791 [label="distance <= 7.8\ngini = 0.068\nsamples = 85\nvalue = [82, 3]"] ;
775 -> 791 ;
792 [label="gini = 0.0\nsamples = 60\nvalue = [60, 0]"] ;
791 -> 792 ;
793 [label="distance <= 7.891\ngini = 0.211\nsamples = 25\nvalue = [22, 3]"] ;
791 -> 793 ;
794 [label="gini = 0.0\nsamples = 3\nvalue = [0, 3]"] ;
793 -> 794 ;
795 [label="gini = 0.0\nsamples = 22\nvalue = [22, 0]"] ;
793 -> 795 ;
796 [label="Appt_Day <= 22.0\ngini = 0.444\nsamples = 15\nvalue = [10, 5]"] ;
774 -> 796 ;
797 [label="Duration <= 0.006\ngini = 0.355\nsamples = 13\nvalue = [10, 3]"] ;
796 -> 797 ;
798 [label="distance <= 4.144\ngini = 0.375\nsamples = 4\nvalue = [1, 3]"] ;
797 -> 798 ;
799 [label="gini = 0.0\nsamples = 1\nvalue = [1, 0]"] ;
798 -> 799 ;
800 [label="gini = 0.0\nsamples = 3\nvalue = [0, 3]"] ;
798 -> 800 ;
801 [label="gini = 0.0\nsamples = 9\nvalue = [9, 0]"] ;
797 -> 801 ;
802 [label="gini = 0.0\nsamples = 2\nvalue = [0, 2]"] ;
796 -> 802 ;
803 [label="Appt_Made_Hour <= 8.5\ngini = 0.475\nsamples = 18\nvalue = [11, 7]"] ;
773 -> 803 ;
804 [label="gini = 0.0\nsamples = 2\nvalue = [0, 2]"] ;
803 -> 804 ;
805 [label="Appt_Made_Month <= 4.5\ngini = 0.43\nsamples = 16\nvalue = [11, 5]"] ;
803 -> 805 ;
806 [label="gini = 0.0\nsamples = 5\nvalue = [5, 0]"] ;
805 -> 806 ;
807 [label="Appt_Made_Month <= 6.5\ngini = 0.496\nsamples = 11\nvalue = [6, 5]"] ;
805 -> 807 ;
808 [label="gini = 0.0\nsamples = 2\nvalue = [0, 2]"] ;
807 -> 808 ;
809 [label="Appt_Time_Hour <= 11.5\ngini = 0.444\nsamples = 9\nvalue = [6, 3]"] ;
807 -> 809 ;
810 [label="gini = 0.0\nsamples = 4\nvalue = [4, 0]"] ;
809 -> 810 ;
811 [label="Appt_Day <= 16.5\ngini = 0.48\nsamples = 5\nvalue = [2, 3]"] ;
809 -> 811 ;
812 [label="gini = 0.0\nsamples = 3\nvalue = [0, 3]"] ;
811 -> 812 ;
813 [label="gini = 0.0\nsamples = 2\nvalue = [2, 0]"] ;
811 -> 813 ;
814 [label="distance <= 28.338\ngini = 0.407\nsamples = 676\nvalue = [484, 192]"] ;
772 -> 814 ;
815 [label="Appt_Month <= 8.5\ngini = 0.43\nsamples = 575\nvalue = [395, 180]"] ;
814 -> 815 ;
816 [label="Appt_Day <= 12.5\ngini = 0.395\nsamples = 395\nvalue = [288, 107]"] ;
815 -> 816 ;
817 [label="Appt_Time_Hour <= 13.5\ngini = 0.465\nsamples = 166\nvalue = [105, 61]"] ;
816 -> 817 ;
818 [label="Appt_Logistics_Type_ID <= 0.5\ngini = 0.433\nsamples = 123\nvalue = [84, 39]"] ;
817 -> 818 ;
819 [label="Distance <= 0.003\ngini = 0.407\nsamples = 116\nvalue = [83, 33]"] ;
818 -> 819 ;
820 [label="Patient_Age_Bucket_ID <= 1.5\ngini = 0.499\nsamples = 29\nvalue = [14, 15]"] ;
819 -> 820 ;
821 [label="Distance <= 0.002\ngini = 0.32\nsamples = 10\nvalue = [8, 2]"] ;
820 -> 821 ;
822 [label="gini = 0.0\nsamples = 2\nvalue = [0, 2]"] ;
821 -> 822 ;
823 [label="gini = 0.0\nsamples = 8\nvalue = [8, 0]"] ;
821 -> 823 ;
824 [label="Appt_Made_Month <= 3.5\ngini = 0.432\nsamples = 19\nvalue = [6, 13]"] ;
820 -> 824 ;
825 [label="Appt_Made_Min <= 30.0\ngini = 0.469\nsamples = 8\nvalue = [5, 3]"] ;
824 -> 825 ;
826 [label="gini = 0.0\nsamples = 4\nvalue = [4, 0]"] ;
825 -> 826 ;
827 [label="Appt_Month <= 1.5\ngini = 0.375\nsamples = 4\nvalue = [1, 3]"] ;
825 -> 827 ;
828 [label="gini = 0.0\nsamples = 1\nvalue = [1, 0]"] ;
827 -> 828 ;
829 [label="gini = 0.0\nsamples = 3\nvalue = [0, 3]"] ;
827 -> 829 ;
830 [label="distance <= 8.369\ngini = 0.165\nsamples = 11\nvalue = [1, 10]"] ;
824 -> 830 ;
831 [label="gini = 0.0\nsamples = 1\nvalue = [1, 0]"] ;
830 -> 831 ;
832 [label="gini = 0.0\nsamples = 10\nvalue = [0, 10]"] ;
830 -> 832 ;
833 [label="Duration <= 0.015\ngini = 0.328\nsamples = 87\nvalue = [69, 18]"] ;
819 -> 833 ;
834 [label="Appt_Day <= 6.5\ngini = 0.306\nsamples = 85\nvalue = [69, 16]"] ;
833 -> 834 ;
835 [label="Appt_Made_Min <= 56.5\ngini = 0.093\nsamples = 41\nvalue = [39, 2]"] ;
834 -> 835 ;
836 [label="Appt_Day <= 2.5\ngini = 0.049\nsamples = 40\nvalue = [39, 1]"] ;
835 -> 836 ;
837 [label="Appt_Made_Hour <= 13.0\ngini = 0.219\nsamples = 8\nvalue = [7, 1]"] ;
836 -> 837 ;
838 [label="gini = 0.0\nsamples = 6\nvalue = [6, 0]"] ;
837 -> 838 ;
839 [label="Appt_Month <= 3.0\ngini = 0.5\nsamples = 2\nvalue = [1, 1]"] ;
837 -> 839 ;
840 [label="gini = 0.0\nsamples = 1\nvalue = [1, 0]"] ;
839 -> 840 ;
841 [label="gini = 0.0\nsamples = 1\nvalue = [0, 1]"] ;
839 -> 841 ;
842 [label="gini = 0.0\nsamples = 32\nvalue = [32, 0]"] ;
836 -> 842 ;
843 [label="gini = 0.0\nsamples = 1\nvalue = [0, 1]"] ;
835 -> 843 ;
844 [label="Made_Lead_Days_Work <= 2.5\ngini = 0.434\nsamples = 44\nvalue = [30, 14]"] ;
834 -> 844 ;
845 [label="Appt_Made_Min <= 25.5\ngini = 0.469\nsamples = 8\nvalue = [3, 5]"] ;
844 -> 845 ;
846 [label="gini = 0.0\nsamples = 4\nvalue = [0, 4]"] ;
845 -> 846 ;
847 [label="Appt_Time_Hour <= 8.5\ngini = 0.375\nsamples = 4\nvalue = [3, 1]"] ;
845 -> 847 ;
848 [label="gini = 0.0\nsamples = 1\nvalue = [0, 1]"] ;
847 -> 848 ;
849 [label="gini = 0.0\nsamples = 3\nvalue = [3, 0]"] ;
847 -> 849 ;
850 [label="Appt_Made_Year <= 2016.5\ngini = 0.375\nsamples = 36\nvalue = [27, 9]"] ;
844 -> 850 ;
851 [label="Made_Lead_Days_Work <= 6.5\ngini = 0.26\nsamples = 26\nvalue = [22, 4]"] ;
850 -> 851 ;
852 [label="Appt_Made_Hour <= 13.5\ngini = 0.408\nsamples = 14\nvalue = [10, 4]"] ;
851 -> 852 ;
853 [label="Duration <= 0.012\ngini = 0.298\nsamples = 11\nvalue = [9, 2]"] ;
852 -> 853 ;
854 [label="gini = 0.0\nsamples = 8\nvalue = [8, 0]"] ;
853 -> 854 ;
855 [label="count_app <= 0.5\ngini = 0.444\nsamples = 3\nvalue = [1, 2]"] ;
853 -> 855 ;
856 [label="gini = 0.0\nsamples = 2\nvalue = [0, 2]"] ;
855 -> 856 ;
857 [label="gini = 0.0\nsamples = 1\nvalue = [1, 0]"] ;
855 -> 857 ;
858 [label="Appt_Made_Day <= 5.5\ngini = 0.444\nsamples = 3\nvalue = [1, 2]"] ;
852 -> 858 ;
859 [label="gini = 0.0\nsamples = 2\nvalue = [0, 2]"] ;
858 -> 859 ;
860 [label="gini = 0.0\nsamples = 1\nvalue = [1, 0]"] ;
858 -> 860 ;
861 [label="gini = 0.0\nsamples = 12\nvalue = [12, 0]"] ;
851 -> 861 ;
862 [label="Made_Lead_Days_Calendar <= 25.0\ngini = 0.5\nsamples = 10\nvalue = [5, 5]"] ;
850 -> 862 ;
863 [label="Appt_Made_Hour <= 12.0\ngini = 0.469\nsamples = 8\nvalue = [5, 3]"] ;
862 -> 863 ;
864 [label="Made_Lead_Days_Work <= 10.0\ngini = 0.48\nsamples = 5\nvalue = [2, 3]"] ;
863 -> 864 ;
865 [label="gini = 0.0\nsamples = 2\nvalue = [0, 2]"] ;
864 -> 865 ;
866 [label="Appt_Time_Min <= 25.0\ngini = 0.444\nsamples = 3\nvalue = [2, 1]"] ;
864 -> 866 ;
867 [label="gini = 0.0\nsamples = 1\nvalue = [0, 1]"] ;
866 -> 867 ;
868 [label="gini = 0.0\nsamples = 2\nvalue = [2, 0]"] ;
866 -> 868 ;
869 [label="gini = 0.0\nsamples = 3\nvalue = [3, 0]"] ;
863 -> 869 ;
870 [label="gini = 0.0\nsamples = 2\nvalue = [0, 2]"] ;
862 -> 870 ;
871 [label="gini = 0.0\nsamples = 2\nvalue = [0, 2]"] ;
833 -> 871 ;
872 [label="Appt_Time_Min <= 15.0\ngini = 0.245\nsamples = 7\nvalue = [1, 6]"] ;
818 -> 872 ;
873 [label="gini = 0.0\nsamples = 1\nvalue = [1, 0]"] ;
872 -> 873 ;
874 [label="gini = 0.0\nsamples = 6\nvalue = [0, 6]"] ;
872 -> 874 ;
875 [label="Appt_Month <= 6.5\ngini = 0.5\nsamples = 43\nvalue = [21, 22]"] ;
817 -> 875 ;
876 [label="Appt_Made_Min <= 35.5\ngini = 0.486\nsamples = 36\nvalue = [21, 15]"] ;
875 -> 876 ;
877 [label="Appt_Day <= 8.5\ngini = 0.497\nsamples = 26\nvalue = [12, 14]"] ;
876 -> 877 ;
878 [label="Appt_Made_Min <= 20.5\ngini = 0.484\nsamples = 17\nvalue = [10, 7]"] ;
877 -> 878 ;
879 [label="Appt_Month <= 2.5\ngini = 0.375\nsamples = 12\nvalue = [9, 3]"] ;
878 -> 879 ;
880 [label="gini = 0.0\nsamples = 6\nvalue = [6, 0]"] ;
879 -> 880 ;
881 [label="Duration <= 0.011\ngini = 0.5\nsamples = 6\nvalue = [3, 3]"] ;
879 -> 881 ;
882 [label="Appt_Month <= 4.0\ngini = 0.375\nsamples = 4\nvalue = [3, 1]"] ;
881 -> 882 ;
883 [label="gini = 0.0\nsamples = 1\nvalue = [0, 1]"] ;
882 -> 883 ;
884 [label="gini = 0.0\nsamples = 3\nvalue = [3, 0]"] ;
882 -> 884 ;
885 [label="gini = 0.0\nsamples = 2\nvalue = [0, 2]"] ;
881 -> 885 ;
886 [label="Appt_Year <= 2016.5\ngini = 0.32\nsamples = 5\nvalue = [1, 4]"] ;
878 -> 886 ;
887 [label="gini = 0.0\nsamples = 4\nvalue = [0, 4]"] ;
886 -> 887 ;
888 [label="gini = 0.0\nsamples = 1\nvalue = [1, 0]"] ;
886 -> 888 ;
889 [label="Distance <= 0.005\ngini = 0.346\nsamples = 9\nvalue = [2, 7]"] ;
877 -> 889 ;
890 [label="diff_pay_count <= 0.5\ngini = 0.444\nsamples = 3\nvalue = [2, 1]"] ;
889 -> 890 ;
891 [label="gini = 0.0\nsamples = 2\nvalue = [2, 0]"] ;
890 -> 891 ;
892 [label="gini = 0.0\nsamples = 1\nvalue = [0, 1]"] ;
890 -> 892 ;
893 [label="gini = 0.0\nsamples = 6\nvalue = [0, 6]"] ;
889 -> 893 ;
894 [label="Made_Lead_Days_Calendar <= 19.5\ngini = 0.18\nsamples = 10\nvalue = [9, 1]"] ;
876 -> 894 ;
895 [label="gini = 0.0\nsamples = 9\nvalue = [9, 0]"] ;
894 -> 895 ;
896 [label="gini = 0.0\nsamples = 1\nvalue = [0, 1]"] ;
894 -> 896 ;
897 [label="gini = 0.0\nsamples = 7\nvalue = [0, 7]"] ;
875 -> 897 ;
898 [label="distance <= 8.172\ngini = 0.321\nsamples = 229\nvalue = [183, 46]"] ;
816 -> 898 ;
899 [label="gini = 0.0\nsamples = 2\nvalue = [0, 2]"] ;
898 -> 899 ;
900 [label="Appt_Made_Min <= 56.5\ngini = 0.313\nsamples = 227\nvalue = [183, 44]"] ;
898 -> 900 ;
901 [label="distance <= 24.613\ngini = 0.288\nsamples = 212\nvalue = [175, 37]"] ;
900 -> 901 ;
902 [label="Patient_Age_Bucket_ID <= 1.5\ngini = 0.264\nsamples = 198\nvalue = [167, 31]"] ;
901 -> 902 ;
903 [label="distance <= 12.356\ngini = 0.114\nsamples = 66\nvalue = [62, 4]"] ;
902 -> 903 ;
904 [label="distance <= 12.103\ngini = 0.269\nsamples = 25\nvalue = [21, 4]"] ;
903 -> 904 ;
905 [label="Appt_Made_Min <= 54.0\ngini = 0.219\nsamples = 24\nvalue = [21, 3]"] ;
904 -> 905 ;
906 [label="Appt_Time_Hour <= 9.5\ngini = 0.159\nsamples = 23\nvalue = [21, 2]"] ;
905 -> 906 ;
907 [label="Appt_Made_Min <= 21.5\ngini = 0.408\nsamples = 7\nvalue = [5, 2]"] ;
906 -> 907 ;
908 [label="gini = 0.0\nsamples = 4\nvalue = [4, 0]"] ;
907 -> 908 ;
909 [label="Appt_Made_Hour <= 13.5\ngini = 0.444\nsamples = 3\nvalue = [1, 2]"] ;
907 -> 909 ;
910 [label="gini = 0.0\nsamples = 2\nvalue = [0, 2]"] ;
909 -> 910 ;
911 [label="gini = 0.0\nsamples = 1\nvalue = [1, 0]"] ;
909 -> 911 ;
912 [label="gini = 0.0\nsamples = 16\nvalue = [16, 0]"] ;
906 -> 912 ;
913 [label="gini = 0.0\nsamples = 1\nvalue = [0, 1]"] ;
905 -> 913 ;
914 [label="gini = 0.0\nsamples = 1\nvalue = [0, 1]"] ;
904 -> 914 ;
915 [label="gini = 0.0\nsamples = 41\nvalue = [41, 0]"] ;
903 -> 915 ;
916 [label="Appt_Made_Hour <= 11.5\ngini = 0.325\nsamples = 132\nvalue = [105, 27]"] ;
902 -> 916 ;
917 [label="Appt_Made_Min <= 1.5\ngini = 0.198\nsamples = 63\nvalue = [56, 7]"] ;
916 -> 917 ;
918 [label="gini = 0.0\nsamples = 1\nvalue = [0, 1]"] ;
917 -> 918 ;
919 [label="Duration <= 0.011\ngini = 0.175\nsamples = 62\nvalue = [56, 6]"] ;
917 -> 919 ;
920 [label="Duration <= 0.008\ngini = 0.059\nsamples = 33\nvalue = [32, 1]"] ;
919 -> 920 ;
921 [label="Appt_Month <= 4.0\ngini = 0.375\nsamples = 4\nvalue = [3, 1]"] ;
920 -> 921 ;
922 [label="gini = 0.0\nsamples = 3\nvalue = [3, 0]"] ;
921 -> 922 ;
923 [label="gini = 0.0\nsamples = 1\nvalue = [0, 1]"] ;
921 -> 923 ;
924 [label="gini = 0.0\nsamples = 29\nvalue = [29, 0]"] ;
920 -> 924 ;
925 [label="Duration <= 0.011\ngini = 0.285\nsamples = 29\nvalue = [24, 5]"] ;
919 -> 925 ;
926 [label="Appt_Day <= 22.0\ngini = 0.375\nsamples = 4\nvalue = [1, 3]"] ;
925 -> 926 ;
927 [label="gini = 0.0\nsamples = 3\nvalue = [0, 3]"] ;
926 -> 927 ;
928 [label="gini = 0.0\nsamples = 1\nvalue = [1, 0]"] ;
926 -> 928 ;
929 [label="Appt_Logistics_Type_ID <= 0.5\ngini = 0.147\nsamples = 25\nvalue = [23, 2]"] ;
925 -> 929 ;
930 [label="Made_Lead_Days_Calendar <= 1.5\ngini = 0.083\nsamples = 23\nvalue = [22, 1]"] ;
929 -> 930 ;
931 [label="Appt_Made_Year <= 2016.5\ngini = 0.444\nsamples = 3\nvalue = [2, 1]"] ;
930 -> 931 ;
932 [label="gini = 0.0\nsamples = 2\nvalue = [2, 0]"] ;
931 -> 932 ;
933 [label="gini = 0.0\nsamples = 1\nvalue = [0, 1]"] ;
931 -> 933 ;
934 [label="gini = 0.0\nsamples = 20\nvalue = [20, 0]"] ;
930 -> 934 ;
935 [label="Appt_Made_Day <= 6.0\ngini = 0.5\nsamples = 2\nvalue = [1, 1]"] ;
929 -> 935 ;
936 [label="gini = 0.0\nsamples = 1\nvalue = [1, 0]"] ;
935 -> 936 ;
937 [label="gini = 0.0\nsamples = 1\nvalue = [0, 1]"] ;
935 -> 937 ;
938 [label="Appt_Made_Min <= 33.5\ngini = 0.412\nsamples = 69\nvalue = [49, 20]"] ;
916 -> 938 ;
939 [label="Appt_Made_Hour <= 15.5\ngini = 0.484\nsamples = 39\nvalue = [23, 16]"] ;
938 -> 939 ;
940 [label="Duration <= 0.01\ngini = 0.451\nsamples = 35\nvalue = [23, 12]"] ;
939 -> 940 ;
941 [label="Appt_Month <= 2.5\ngini = 0.133\nsamples = 14\nvalue = [13, 1]"] ;
940 -> 941 ;
942 [label="Made_Lead_Days_Calendar <= 4.5\ngini = 0.444\nsamples = 3\nvalue = [2, 1]"] ;
941 -> 942 ;
943 [label="gini = 0.0\nsamples = 1\nvalue = [0, 1]"] ;
942 -> 943 ;
944 [label="gini = 0.0\nsamples = 2\nvalue = [2, 0]"] ;
942 -> 944 ;
945 [label="gini = 0.0\nsamples = 11\nvalue = [11, 0]"] ;
941 -> 945 ;
946 [label="distance <= 19.982\ngini = 0.499\nsamples = 21\nvalue = [10, 11]"] ;
940 -> 946 ;
947 [label="Distance <= 0.006\ngini = 0.457\nsamples = 17\nvalue = [6, 11]"] ;
946 -> 947 ;
948 [label="distance <= 15.019\ngini = 0.496\nsamples = 11\nvalue = [6, 5]"] ;
947 -> 948 ;
949 [label="Provider_ID <= 63.0\ngini = 0.408\nsamples = 7\nvalue = [2, 5]"] ;
948 -> 949 ;
950 [label="gini = 0.0\nsamples = 5\nvalue = [0, 5]"] ;
949 -> 950 ;
951 [label="gini = 0.0\nsamples = 2\nvalue = [2, 0]"] ;
949 -> 951 ;
952 [label="gini = 0.0\nsamples = 4\nvalue = [4, 0]"] ;
948 -> 952 ;
953 [label="gini = 0.0\nsamples = 6\nvalue = [0, 6]"] ;
947 -> 953 ;
954 [label="gini = 0.0\nsamples = 4\nvalue = [4, 0]"] ;
946 -> 954 ;
955 [label="gini = 0.0\nsamples = 4\nvalue = [0, 4]"] ;
939 -> 955 ;
956 [label="Appt_Made_Day <= 2.5\ngini = 0.231\nsamples = 30\nvalue = [26, 4]"] ;
938 -> 956 ;
957 [label="gini = 0.0\nsamples = 1\nvalue = [0, 1]"] ;
956 -> 957 ;
958 [label="Appt_Made_Min <= 45.5\ngini = 0.185\nsamples = 29\nvalue = [26, 3]"] ;
956 -> 958 ;
959 [label="Appt_Time_Min <= 45.0\ngini = 0.32\nsamples = 15\nvalue = [12, 3]"] ;
958 -> 959 ;
960 [label="Duration <= 0.01\ngini = 0.245\nsamples = 14\nvalue = [12, 2]"] ;
959 -> 960 ;
961 [label="gini = 0.0\nsamples = 8\nvalue = [8, 0]"] ;
960 -> 961 ;
962 [label="Appt_Day <= 24.0\ngini = 0.444\nsamples = 6\nvalue = [4, 2]"] ;
960 -> 962 ;
963 [label="distance <= 23.179\ngini = 0.444\nsamples = 3\nvalue = [1, 2]"] ;
962 -> 963 ;
964 [label="gini = 0.0\nsamples = 2\nvalue = [0, 2]"] ;
963 -> 964 ;
965 [label="gini = 0.0\nsamples = 1\nvalue = [1, 0]"] ;
963 -> 965 ;
966 [label="gini = 0.0\nsamples = 3\nvalue = [3, 0]"] ;
962 -> 966 ;
967 [label="gini = 0.0\nsamples = 1\nvalue = [0, 1]"] ;
959 -> 967 ;
968 [label="gini = 0.0\nsamples = 14\nvalue = [14, 0]"] ;
958 -> 968 ;
969 [label="distance <= 25.075\ngini = 0.49\nsamples = 14\nvalue = [8, 6]"] ;
901 -> 969 ;
970 [label="gini = 0.0\nsamples = 3\nvalue = [0, 3]"] ;
969 -> 970 ;
971 [label="distance <= 27.191\ngini = 0.397\nsamples = 11\nvalue = [8, 3]"] ;
969 -> 971 ;
972 [label="gini = 0.0\nsamples = 5\nvalue = [5, 0]"] ;
971 -> 972 ;
973 [label="Patient_Age_Bucket_ID <= 3.5\ngini = 0.5\nsamples = 6\nvalue = [3, 3]"] ;
971 -> 973 ;
974 [label="gini = 0.0\nsamples = 3\nvalue = [0, 3]"] ;
973 -> 974 ;
975 [label="gini = 0.0\nsamples = 3\nvalue = [3, 0]"] ;
973 -> 975 ;
976 [label="Appt_Made_Month <= 7.5\ngini = 0.498\nsamples = 15\nvalue = [8, 7]"] ;
900 -> 976 ;
977 [label="Appt_Month <= 2.5\ngini = 0.397\nsamples = 11\nvalue = [8, 3]"] ;
976 -> 977 ;
978 [label="Appt_Day <= 26.0\ngini = 0.375\nsamples = 4\nvalue = [1, 3]"] ;
977 -> 978 ;
979 [label="gini = 0.0\nsamples = 3\nvalue = [0, 3]"] ;
978 -> 979 ;
980 [label="gini = 0.0\nsamples = 1\nvalue = [1, 0]"] ;
978 -> 980 ;
981 [label="gini = 0.0\nsamples = 7\nvalue = [7, 0]"] ;
977 -> 981 ;
982 [label="gini = 0.0\nsamples = 4\nvalue = [0, 4]"] ;
976 -> 982 ;
983 [label="count_app <= 0.5\ngini = 0.482\nsamples = 180\nvalue = [107, 73]"] ;
815 -> 983 ;
984 [label="Appt_Year <= 2015.5\ngini = 0.5\nsamples = 98\nvalue = [49, 49]"] ;
983 -> 984 ;
985 [label="Appt_Made_Min <= 9.5\ngini = 0.457\nsamples = 48\nvalue = [31, 17]"] ;
984 -> 985 ;
986 [label="Provider_ID <= 53.0\ngini = 0.346\nsamples = 9\nvalue = [2, 7]"] ;
985 -> 986 ;
987 [label="gini = 0.0\nsamples = 6\nvalue = [0, 6]"] ;
986 -> 987 ;
988 [label="Appt_Month <= 9.5\ngini = 0.444\nsamples = 3\nvalue = [2, 1]"] ;
986 -> 988 ;
989 [label="gini = 0.0\nsamples = 1\nvalue = [0, 1]"] ;
988 -> 989 ;
990 [label="gini = 0.0\nsamples = 2\nvalue = [2, 0]"] ;
988 -> 990 ;
991 [label="Appt_Time_Hour <= 13.5\ngini = 0.381\nsamples = 39\nvalue = [29, 10]"] ;
985 -> 991 ;
992 [label="Appt_Made_Month <= 9.5\ngini = 0.444\nsamples = 30\nvalue = [20, 10]"] ;
991 -> 992 ;
993 [label="Appt_Made_Min <= 43.0\ngini = 0.5\nsamples = 16\nvalue = [8, 8]"] ;
992 -> 993 ;
994 [label="Appt_Made_Hour <= 8.5\ngini = 0.245\nsamples = 7\nvalue = [1, 6]"] ;
993 -> 994 ;
995 [label="gini = 0.0\nsamples = 1\nvalue = [1, 0]"] ;
994 -> 995 ;
996 [label="gini = 0.0\nsamples = 6\nvalue = [0, 6]"] ;
994 -> 996 ;
997 [label="Provider_ID <= 63.0\ngini = 0.346\nsamples = 9\nvalue = [7, 2]"] ;
993 -> 997 ;
998 [label="gini = 0.0\nsamples = 7\nvalue = [7, 0]"] ;
997 -> 998 ;
999 [label="gini = 0.0\nsamples = 2\nvalue = [0, 2]"] ;
997 -> 999 ;
1000 [label="Appt_Made_Min <= 45.5\ngini = 0.245\nsamples = 14\nvalue = [12, 2]"] ;
992 -> 1000 ;
1001 [label="gini = 0.0\nsamples = 11\nvalue = [11, 0]"] ;
1000 -> 1001 ;
1002 [label="Patient_Age_Bucket_ID <= 2.0\ngini = 0.444\nsamples = 3\nvalue = [1, 2]"] ;
1000 -> 1002 ;
1003 [label="gini = 0.0\nsamples = 1\nvalue = [1, 0]"] ;
1002 -> 1003 ;
1004 [label="gini = 0.0\nsamples = 2\nvalue = [0, 2]"] ;
1002 -> 1004 ;
1005 [label="gini = 0.0\nsamples = 9\nvalue = [9, 0]"] ;
991 -> 1005 ;
1006 [label="Appt_Made_Day <= 5.5\ngini = 0.461\nsamples = 50\nvalue = [18, 32]"] ;
984 -> 1006 ;
1007 [label="Patient_Age_Bucket_ID <= 1.5\ngini = 0.346\nsamples = 9\nvalue = [7, 2]"] ;
1006 -> 1007 ;
1008 [label="gini = 0.0\nsamples = 6\nvalue = [6, 0]"] ;
1007 -> 1008 ;
1009 [label="Provider_ID <= 35.5\ngini = 0.444\nsamples = 3\nvalue = [1, 2]"] ;
1007 -> 1009 ;
1010 [label="gini = 0.0\nsamples = 1\nvalue = [1, 0]"] ;
1009 -> 1010 ;
1011 [label="gini = 0.0\nsamples = 2\nvalue = [0, 2]"] ;
1009 -> 1011 ;
1012 [label="Duration <= 0.009\ngini = 0.393\nsamples = 41\nvalue = [11, 30]"] ;
1006 -> 1012 ;
1013 [label="Appt_Time_Hour <= 11.5\ngini = 0.444\nsamples = 6\nvalue = [4, 2]"] ;
1012 -> 1013 ;
1014 [label="gini = 0.0\nsamples = 3\nvalue = [3, 0]"] ;
1013 -> 1014 ;
1015 [label="Appt_Made_Day <= 28.0\ngini = 0.444\nsamples = 3\nvalue = [1, 2]"] ;
1013 -> 1015 ;
1016 [label="gini = 0.0\nsamples = 2\nvalue = [0, 2]"] ;
1015 -> 1016 ;
1017 [label="gini = 0.0\nsamples = 1\nvalue = [1, 0]"] ;
1015 -> 1017 ;
1018 [label="distance <= 22.585\ngini = 0.32\nsamples = 35\nvalue = [7, 28]"] ;
1012 -> 1018 ;
1019 [label="distance <= 14.943\ngini = 0.264\nsamples = 32\nvalue = [5, 27]"] ;
1018 -> 1019 ;
1020 [label="distance <= 13.241\ngini = 0.401\nsamples = 18\nvalue = [5, 13]"] ;
1019 -> 1020 ;
1021 [label="gini = 0.0\nsamples = 10\nvalue = [0, 10]"] ;
1020 -> 1021 ;
1022 [label="Appt_Time_Min <= 45.0\ngini = 0.469\nsamples = 8\nvalue = [5, 3]"] ;
1020 -> 1022 ;
1023 [label="Appt_Year <= 2016.5\ngini = 0.278\nsamples = 6\nvalue = [5, 1]"] ;
1022 -> 1023 ;
1024 [label="gini = 0.0\nsamples = 5\nvalue = [5, 0]"] ;
1023 -> 1024 ;
1025 [label="gini = 0.0\nsamples = 1\nvalue = [0, 1]"] ;
1023 -> 1025 ;
1026 [label="gini = 0.0\nsamples = 2\nvalue = [0, 2]"] ;
1022 -> 1026 ;
1027 [label="gini = 0.0\nsamples = 14\nvalue = [0, 14]"] ;
1019 -> 1027 ;
1028 [label="Appt_Time_Min <= 30.0\ngini = 0.444\nsamples = 3\nvalue = [2, 1]"] ;
1018 -> 1028 ;
1029 [label="gini = 0.0\nsamples = 1\nvalue = [0, 1]"] ;
1028 -> 1029 ;
1030 [label="gini = 0.0\nsamples = 2\nvalue = [2, 0]"] ;
1028 -> 1030 ;
1031 [label="count_cancel <= 1.5\ngini = 0.414\nsamples = 82\nvalue = [58, 24]"] ;
983 -> 1031 ;
1032 [label="Appt_Time_Min <= 45.0\ngini = 0.368\nsamples = 70\nvalue = [53, 17]"] ;
1031 -> 1032 ;
1033 [label="Appt_Made_Min <= 1.0\ngini = 0.307\nsamples = 58\nvalue = [47, 11]"] ;
1032 -> 1033 ;
1034 [label="gini = 0.0\nsamples = 1\nvalue = [0, 1]"] ;
1033 -> 1034 ;
1035 [label="Made_Lead_Days_Work <= 30.5\ngini = 0.289\nsamples = 57\nvalue = [47, 10]"] ;
1033 -> 1035 ;
1036 [label="Appt_Logistics_Type_ID <= 2.5\ngini = 0.27\nsamples = 56\nvalue = [47, 9]"] ;
1035 -> 1036 ;
1037 [label="Duration <= 0.01\ngini = 0.249\nsamples = 55\nvalue = [47, 8]"] ;
1036 -> 1037 ;
1038 [label="gini = 0.0\nsamples = 18\nvalue = [18, 0]"] ;
1037 -> 1038 ;
1039 [label="Appt_Made_Min <= 40.5\ngini = 0.339\nsamples = 37\nvalue = [29, 8]"] ;
1037 -> 1039 ;
1040 [label="Appt_Made_Min <= 37.5\ngini = 0.426\nsamples = 26\nvalue = [18, 8]"] ;
1039 -> 1040 ;
1041 [label="distance <= 15.64\ngini = 0.375\nsamples = 24\nvalue = [18, 6]"] ;
1040 -> 1041 ;
1042 [label="Made_Lead_Days_Calendar <= 13.5\ngini = 0.5\nsamples = 8\nvalue = [4, 4]"] ;
1041 -> 1042 ;
1043 [label="gini = 0.0\nsamples = 3\nvalue = [3, 0]"] ;
1042 -> 1043 ;
1044 [label="Made_Lead_Days_Calendar <= 22.5\ngini = 0.32\nsamples = 5\nvalue = [1, 4]"] ;
1042 -> 1044 ;
1045 [label="gini = 0.0\nsamples = 4\nvalue = [0, 4]"] ;
1044 -> 1045 ;
1046 [label="gini = 0.0\nsamples = 1\nvalue = [1, 0]"] ;
1044 -> 1046 ;
1047 [label="Made_Lead_Days_Calendar <= 5.0\ngini = 0.219\nsamples = 16\nvalue = [14, 2]"] ;
1041 -> 1047 ;
1048 [label="Appt_Time_Min <= 20.0\ngini = 0.444\nsamples = 3\nvalue = [1, 2]"] ;
1047 -> 1048 ;
1049 [label="gini = 0.0\nsamples = 2\nvalue = [0, 2]"] ;
1048 -> 1049 ;
1050 [label="gini = 0.0\nsamples = 1\nvalue = [1, 0]"] ;
1048 -> 1050 ;
1051 [label="gini = 0.0\nsamples = 13\nvalue = [13, 0]"] ;
1047 -> 1051 ;
1052 [label="gini = 0.0\nsamples = 2\nvalue = [0, 2]"] ;
1040 -> 1052 ;
1053 [label="gini = 0.0\nsamples = 11\nvalue = [11, 0]"] ;
1039 -> 1053 ;
1054 [label="gini = 0.0\nsamples = 1\nvalue = [0, 1]"] ;
1036 -> 1054 ;
1055 [label="gini = 0.0\nsamples = 1\nvalue = [0, 1]"] ;
1035 -> 1055 ;
1056 [label="Appt_Made_Month <= 10.5\ngini = 0.5\nsamples = 12\nvalue = [6, 6]"] ;
1032 -> 1056 ;
1057 [label="Made_Lead_Days_Work <= 14.0\ngini = 0.245\nsamples = 7\nvalue = [1, 6]"] ;
1056 -> 1057 ;
1058 [label="gini = 0.0\nsamples = 6\nvalue = [0, 6]"] ;
1057 -> 1058 ;
1059 [label="gini = 0.0\nsamples = 1\nvalue = [1, 0]"] ;
1057 -> 1059 ;
1060 [label="gini = 0.0\nsamples = 5\nvalue = [5, 0]"] ;
1056 -> 1060 ;
1061 [label="Made_Lead_Days_Work <= 4.5\ngini = 0.486\nsamples = 12\nvalue = [5, 7]"] ;
1031 -> 1061 ;
1062 [label="gini = 0.0\nsamples = 3\nvalue = [3, 0]"] ;
1061 -> 1062 ;
1063 [label="Duration <= 0.008\ngini = 0.346\nsamples = 9\nvalue = [2, 7]"] ;
1061 -> 1063 ;
1064 [label="gini = 0.0\nsamples = 2\nvalue = [2, 0]"] ;
1063 -> 1064 ;
1065 [label="gini = 0.0\nsamples = 7\nvalue = [0, 7]"] ;
1063 -> 1065 ;
1066 [label="Appt_Made_Min <= 58.5\ngini = 0.209\nsamples = 101\nvalue = [89, 12]"] ;
814 -> 1066 ;
1067 [label="Provider_ID <= 12.0\ngini = 0.196\nsamples = 100\nvalue = [89, 11]"] ;
1066 -> 1067 ;
1068 [label="gini = 0.0\nsamples = 1\nvalue = [0, 1]"] ;
1067 -> 1068 ;
1069 [label="Appt_Made_Hour <= 10.5\ngini = 0.182\nsamples = 99\nvalue = [89, 10]"] ;
1067 -> 1069 ;
1070 [label="Appt_Day <= 25.5\ngini = 0.049\nsamples = 40\nvalue = [39, 1]"] ;
1069 -> 1070 ;
1071 [label="gini = 0.0\nsamples = 34\nvalue = [34, 0]"] ;
1070 -> 1071 ;
1072 [label="Appt_Day <= 26.5\ngini = 0.278\nsamples = 6\nvalue = [5, 1]"] ;
1070 -> 1072 ;
1073 [label="gini = 0.0\nsamples = 1\nvalue = [0, 1]"] ;
1072 -> 1073 ;
1074 [label="gini = 0.0\nsamples = 5\nvalue = [5, 0]"] ;
1072 -> 1074 ;
1075 [label="Appt_Time_Min <= 35.0\ngini = 0.259\nsamples = 59\nvalue = [50, 9]"] ;
1069 -> 1075 ;
1076 [label="Patient_Age_Bucket_ID <= 1.5\ngini = 0.331\nsamples = 43\nvalue = [34, 9]"] ;
1075 -> 1076 ;
1077 [label="Appt_Day <= 4.5\ngini = 0.1\nsamples = 19\nvalue = [18, 1]"] ;
1076 -> 1077 ;
1078 [label="gini = 0.0\nsamples = 1\nvalue = [0, 1]"] ;
1077 -> 1078 ;
1079 [label="gini = 0.0\nsamples = 18\nvalue = [18, 0]"] ;
1077 -> 1079 ;
1080 [label="Duration <= 0.015\ngini = 0.444\nsamples = 24\nvalue = [16, 8]"] ;
1076 -> 1080 ;
1081 [label="gini = 0.0\nsamples = 3\nvalue = [0, 3]"] ;
1080 -> 1081 ;
1082 [label="Provider_ID <= 19.5\ngini = 0.363\nsamples = 21\nvalue = [16, 5]"] ;
1080 -> 1082 ;
1083 [label="Appt_Made_Min <= 24.0\ngini = 0.494\nsamples = 9\nvalue = [5, 4]"] ;
1082 -> 1083 ;
1084 [label="gini = 0.0\nsamples = 3\nvalue = [0, 3]"] ;
1083 -> 1084 ;
1085 [label="Made_Lead_Days_Calendar <= 23.0\ngini = 0.278\nsamples = 6\nvalue = [5, 1]"] ;
1083 -> 1085 ;
1086 [label="gini = 0.0\nsamples = 5\nvalue = [5, 0]"] ;
1085 -> 1086 ;
1087 [label="gini = 0.0\nsamples = 1\nvalue = [0, 1]"] ;
1085 -> 1087 ;
1088 [label="Visit_Type_ID <= 16.5\ngini = 0.153\nsamples = 12\nvalue = [11, 1]"] ;
1082 -> 1088 ;
1089 [label="gini = 0.0\nsamples = 1\nvalue = [0, 1]"] ;
1088 -> 1089 ;
1090 [label="gini = 0.0\nsamples = 11\nvalue = [11, 0]"] ;
1088 -> 1090 ;
1091 [label="gini = 0.0\nsamples = 16\nvalue = [16, 0]"] ;
1075 -> 1091 ;
1092 [label="gini = 0.0\nsamples = 1\nvalue = [0, 1]"] ;
1066 -> 1092 ;
1093 [label="count_app <= 17.5\ngini = 0.126\nsamples = 222\nvalue = [207, 15]"] ;
745 -> 1093 ;
1094 [label="Appt_Made_Hour <= 7.5\ngini = 0.119\nsamples = 221\nvalue = [207, 14]"] ;
1093 -> 1094 ;
1095 [label="gini = 0.0\nsamples = 1\nvalue = [0, 1]"] ;
1094 -> 1095 ;
1096 [label="Made_Lead_Days_Work <= 80.5\ngini = 0.111\nsamples = 220\nvalue = [207, 13]"] ;
1094 -> 1096 ;
1097 [label="distance <= 11.21\ngini = 0.104\nsamples = 218\nvalue = [206, 12]"] ;
1096 -> 1097 ;
1098 [label="count_cancel <= 1.5\ngini = 0.019\nsamples = 104\nvalue = [103, 1]"] ;
1097 -> 1098 ;
1099 [label="gini = 0.0\nsamples = 101\nvalue = [101, 0]"] ;
1098 -> 1099 ;
1100 [label="Appt_Made_Hour <= 9.5\ngini = 0.444\nsamples = 3\nvalue = [2, 1]"] ;
1098 -> 1100 ;
1101 [label="gini = 0.0\nsamples = 1\nvalue = [0, 1]"] ;
1100 -> 1101 ;
1102 [label="gini = 0.0\nsamples = 2\nvalue = [2, 0]"] ;
1100 -> 1102 ;
1103 [label="distance <= 11.464\ngini = 0.174\nsamples = 114\nvalue = [103, 11]"] ;
1097 -> 1103 ;
1104 [label="gini = 0.0\nsamples = 1\nvalue = [0, 1]"] ;
1103 -> 1104 ;
1105 [label="Distance <= 0.007\ngini = 0.161\nsamples = 113\nvalue = [103, 10]"] ;
1103 -> 1105 ;
1106 [label="Distance <= 0.007\ngini = 0.26\nsamples = 52\nvalue = [44, 8]"] ;
1105 -> 1106 ;
1107 [label="Appt_Month <= 1.5\ngini = 0.159\nsamples = 46\nvalue = [42, 4]"] ;
1106 -> 1107 ;
1108 [label="gini = 0.0\nsamples = 1\nvalue = [0, 1]"] ;
1107 -> 1108 ;
1109 [label="Appt_Made_Day <= 5.5\ngini = 0.124\nsamples = 45\nvalue = [42, 3]"] ;
1107 -> 1109 ;
1110 [label="Appt_Made_Day <= 3.5\ngini = 0.408\nsamples = 7\nvalue = [5, 2]"] ;
1109 -> 1110 ;
1111 [label="gini = 0.0\nsamples = 4\nvalue = [4, 0]"] ;
1110 -> 1111 ;
1112 [label="Duration <= 0.01\ngini = 0.444\nsamples = 3\nvalue = [1, 2]"] ;
1110 -> 1112 ;
1113 [label="gini = 0.0\nsamples = 1\nvalue = [1, 0]"] ;
1112 -> 1113 ;
1114 [label="gini = 0.0\nsamples = 2\nvalue = [0, 2]"] ;
1112 -> 1114 ;
1115 [label="Visit_Type_ID <= 19.5\ngini = 0.051\nsamples = 38\nvalue = [37, 1]"] ;
1109 -> 1115 ;
1116 [label="Appt_Year <= 2016.0\ngini = 0.5\nsamples = 2\nvalue = [1, 1]"] ;
1115 -> 1116 ;
1117 [label="gini = 0.0\nsamples = 1\nvalue = [0, 1]"] ;
1116 -> 1117 ;
1118 [label="gini = 0.0\nsamples = 1\nvalue = [1, 0]"] ;
1116 -> 1118 ;
1119 [label="gini = 0.0\nsamples = 36\nvalue = [36, 0]"] ;
1115 -> 1119 ;
1120 [label="Appt_Made_Min <= 6.5\ngini = 0.444\nsamples = 6\nvalue = [2, 4]"] ;
1106 -> 1120 ;
1121 [label="gini = 0.0\nsamples = 2\nvalue = [2, 0]"] ;
1120 -> 1121 ;
1122 [label="gini = 0.0\nsamples = 4\nvalue = [0, 4]"] ;
1120 -> 1122 ;
1123 [label="Visit_Type_ID <= 40.0\ngini = 0.063\nsamples = 61\nvalue = [59, 2]"] ;
1105 -> 1123 ;
1124 [label="Appt_Made_Day <= 29.5\ngini = 0.033\nsamples = 59\nvalue = [58, 1]"] ;
1123 -> 1124 ;
1125 [label="gini = 0.0\nsamples = 54\nvalue = [54, 0]"] ;
1124 -> 1125 ;
1126 [label="Made_Lead_Days_Work <= 8.5\ngini = 0.32\nsamples = 5\nvalue = [4, 1]"] ;
1124 -> 1126 ;
1127 [label="gini = 0.0\nsamples = 4\nvalue = [4, 0]"] ;
1126 -> 1127 ;
1128 [label="gini = 0.0\nsamples = 1\nvalue = [0, 1]"] ;
1126 -> 1128 ;
1129 [label="Appt_Time_Hour <= 12.0\ngini = 0.5\nsamples = 2\nvalue = [1, 1]"] ;
1123 -> 1129 ;
1130 [label="gini = 0.0\nsamples = 1\nvalue = [0, 1]"] ;
1129 -> 1130 ;
1131 [label="gini = 0.0\nsamples = 1\nvalue = [1, 0]"] ;
1129 -> 1131 ;
1132 [label="Appt_Day <= 26.0\ngini = 0.5\nsamples = 2\nvalue = [1, 1]"] ;
1096 -> 1132 ;
1133 [label="gini = 0.0\nsamples = 1\nvalue = [1, 0]"] ;
1132 -> 1133 ;
1134 [label="gini = 0.0\nsamples = 1\nvalue = [0, 1]"] ;
1132 -> 1134 ;
1135 [label="gini = 0.0\nsamples = 1\nvalue = [0, 1]"] ;
1093 -> 1135 ;
1136 [label="count_app <= 10.5\ngini = 0.379\nsamples = 1020\nvalue = [761, 259]"] ;
72 -> 1136 ;
1137 [label="Payor_Type_ID <= 3.5\ngini = 0.408\nsamples = 868\nvalue = [620, 248]"] ;
1136 -> 1137 ;
1138 [label="Made_Lead_Days_Calendar <= 6.5\ngini = 0.424\nsamples = 791\nvalue = [550, 241]"] ;
1137 -> 1138 ;
1139 [label="Appt_Made_Hour <= 13.5\ngini = 0.282\nsamples = 153\nvalue = [127, 26]"] ;
1138 -> 1139 ;
1140 [label="Appt_Made_Day <= 21.5\ngini = 0.167\nsamples = 109\nvalue = [99, 10]"] ;
1139 -> 1140 ;
1141 [label="distance <= 3.445\ngini = 0.08\nsamples = 72\nvalue = [69, 3]"] ;
1140 -> 1141 ;
1142 [label="count_miss <= 1.5\ngini = 0.5\nsamples = 2\nvalue = [1, 1]"] ;
1141 -> 1142 ;
1143 [label="gini = 0.0\nsamples = 1\nvalue = [0, 1]"] ;
1142 -> 1143 ;
1144 [label="gini = 0.0\nsamples = 1\nvalue = [1, 0]"] ;
1142 -> 1144 ;
1145 [label="Appt_Made_Min <= 55.5\ngini = 0.056\nsamples = 70\nvalue = [68, 2]"] ;
1141 -> 1145 ;
1146 [label="Provider_ID <= 62.5\ngini = 0.03\nsamples = 66\nvalue = [65, 1]"] ;
1145 -> 1146 ;
1147 [label="gini = 0.0\nsamples = 53\nvalue = [53, 0]"] ;
1146 -> 1147 ;
1148 [label="Distance <= 0.005\ngini = 0.142\nsamples = 13\nvalue = [12, 1]"] ;
1146 -> 1148 ;
1149 [label="gini = 0.0\nsamples = 11\nvalue = [11, 0]"] ;
1148 -> 1149 ;
1150 [label="Appt_Time_Hour <= 13.5\ngini = 0.5\nsamples = 2\nvalue = [1, 1]"] ;
1148 -> 1150 ;
1151 [label="gini = 0.0\nsamples = 1\nvalue = [1, 0]"] ;
1150 -> 1151 ;
1152 [label="gini = 0.0\nsamples = 1\nvalue = [0, 1]"] ;
1150 -> 1152 ;
1153 [label="count_app <= 2.0\ngini = 0.375\nsamples = 4\nvalue = [3, 1]"] ;
1145 -> 1153 ;
1154 [label="gini = 0.0\nsamples = 1\nvalue = [0, 1]"] ;
1153 -> 1154 ;
1155 [label="gini = 0.0\nsamples = 3\nvalue = [3, 0]"] ;
1153 -> 1155 ;
1156 [label="Duration <= 0.017\ngini = 0.307\nsamples = 37\nvalue = [30, 7]"] ;
1140 -> 1156 ;
1157 [label="Appt_Made_Min <= 32.0\ngini = 0.251\nsamples = 34\nvalue = [29, 5]"] ;
1156 -> 1157 ;
1158 [label="Appt_Made_Hour <= 12.5\ngini = 0.1\nsamples = 19\nvalue = [18, 1]"] ;
1157 -> 1158 ;
1159 [label="gini = 0.0\nsamples = 16\nvalue = [16, 0]"] ;
1158 -> 1159 ;
1160 [label="count_cancel <= 0.5\ngini = 0.444\nsamples = 3\nvalue = [2, 1]"] ;
1158 -> 1160 ;
1161 [label="gini = 0.0\nsamples = 2\nvalue = [2, 0]"] ;
1160 -> 1161 ;
1162 [label="gini = 0.0\nsamples = 1\nvalue = [0, 1]"] ;
1160 -> 1162 ;
1163 [label="Appt_Made_Min <= 45.0\ngini = 0.391\nsamples = 15\nvalue = [11, 4]"] ;
1157 -> 1163 ;
1164 [label="Appt_Day <= 1.5\ngini = 0.375\nsamples = 4\nvalue = [1, 3]"] ;
1163 -> 1164 ;
1165 [label="gini = 0.0\nsamples = 1\nvalue = [1, 0]"] ;
1164 -> 1165 ;
1166 [label="gini = 0.0\nsamples = 3\nvalue = [0, 3]"] ;
1164 -> 1166 ;
1167 [label="Appt_Day <= 1.5\ngini = 0.165\nsamples = 11\nvalue = [10, 1]"] ;
1163 -> 1167 ;
1168 [label="Appt_Time_Min <= 15.0\ngini = 0.5\nsamples = 2\nvalue = [1, 1]"] ;
1167 -> 1168 ;
1169 [label="gini = 0.0\nsamples = 1\nvalue = [1, 0]"] ;
1168 -> 1169 ;
1170 [label="gini = 0.0\nsamples = 1\nvalue = [0, 1]"] ;
1168 -> 1170 ;
1171 [label="gini = 0.0\nsamples = 9\nvalue = [9, 0]"] ;
1167 -> 1171 ;
1172 [label="count_app <= 4.5\ngini = 0.444\nsamples = 3\nvalue = [1, 2]"] ;
1156 -> 1172 ;
1173 [label="gini = 0.0\nsamples = 2\nvalue = [0, 2]"] ;
1172 -> 1173 ;
1174 [label="gini = 0.0\nsamples = 1\nvalue = [1, 0]"] ;
1172 -> 1174 ;
1175 [label="Appt_Made_Day <= 22.5\ngini = 0.463\nsamples = 44\nvalue = [28, 16]"] ;
1139 -> 1175 ;
1176 [label="Duration <= 0.01\ngini = 0.498\nsamples = 32\nvalue = [17, 15]"] ;
1175 -> 1176 ;
1177 [label="Appt_Year <= 2016.5\ngini = 0.219\nsamples = 8\nvalue = [7, 1]"] ;
1176 -> 1177 ;
1178 [label="gini = 0.0\nsamples = 7\nvalue = [7, 0]"] ;
1177 -> 1178 ;
1179 [label="gini = 0.0\nsamples = 1\nvalue = [0, 1]"] ;
1177 -> 1179 ;
1180 [label="count_cancel <= 1.5\ngini = 0.486\nsamples = 24\nvalue = [10, 14]"] ;
1176 -> 1180 ;
1181 [label="Appt_Made_Min <= 6.0\ngini = 0.36\nsamples = 17\nvalue = [4, 13]"] ;
1180 -> 1181 ;
1182 [label="gini = 0.0\nsamples = 2\nvalue = [2, 0]"] ;
1181 -> 1182 ;
1183 [label="Appt_Time_Hour <= 13.5\ngini = 0.231\nsamples = 15\nvalue = [2, 13]"] ;
1181 -> 1183 ;
1184 [label="gini = 0.0\nsamples = 10\nvalue = [0, 10]"] ;
1183 -> 1184 ;
1185 [label="Made_Lead_Days_Calendar <= 4.5\ngini = 0.48\nsamples = 5\nvalue = [2, 3]"] ;
1183 -> 1185 ;
1186 [label="gini = 0.0\nsamples = 2\nvalue = [2, 0]"] ;
1185 -> 1186 ;
1187 [label="gini = 0.0\nsamples = 3\nvalue = [0, 3]"] ;
1185 -> 1187 ;
1188 [label="count_cancel <= 4.0\ngini = 0.245\nsamples = 7\nvalue = [6, 1]"] ;
1180 -> 1188 ;
1189 [label="gini = 0.0\nsamples = 6\nvalue = [6, 0]"] ;
1188 -> 1189 ;
1190 [label="gini = 0.0\nsamples = 1\nvalue = [0, 1]"] ;
1188 -> 1190 ;
1191 [label="Appt_Day <= 27.5\ngini = 0.153\nsamples = 12\nvalue = [11, 1]"] ;
1175 -> 1191 ;
1192 [label="gini = 0.0\nsamples = 9\nvalue = [9, 0]"] ;
1191 -> 1192 ;
1193 [label="Appt_Made_Min <= 16.0\ngini = 0.444\nsamples = 3\nvalue = [2, 1]"] ;
1191 -> 1193 ;
1194 [label="gini = 0.0\nsamples = 1\nvalue = [0, 1]"] ;
1193 -> 1194 ;
1195 [label="gini = 0.0\nsamples = 2\nvalue = [2, 0]"] ;
1193 -> 1195 ;
1196 [label="count_miss <= 1.5\ngini = 0.447\nsamples = 638\nvalue = [423, 215]"] ;
1138 -> 1196 ;
1197 [label="count_app <= 2.5\ngini = 0.418\nsamples = 454\nvalue = [319, 135]"] ;
1196 -> 1197 ;
1198 [label="Distance <= 0.009\ngini = 0.476\nsamples = 230\nvalue = [140, 90]"] ;
1197 -> 1198 ;
1199 [label="Made_Lead_Days_Calendar <= 20.5\ngini = 0.486\nsamples = 211\nvalue = [123, 88]"] ;
1198 -> 1199 ;
1200 [label="Appt_Made_Min <= 18.5\ngini = 0.463\nsamples = 151\nvalue = [96, 55]"] ;
1199 -> 1200 ;
1201 [label="distance <= 23.045\ngini = 0.499\nsamples = 42\nvalue = [20, 22]"] ;
1200 -> 1201 ;
1202 [label="Appt_Made_Day <= 23.5\ngini = 0.497\nsamples = 37\nvalue = [20, 17]"] ;
1201 -> 1202 ;
1203 [label="Appt_Made_Min <= 15.0\ngini = 0.495\nsamples = 29\nvalue = [13, 16]"] ;
1202 -> 1203 ;
1204 [label="Made_Lead_Days_Calendar <= 10.5\ngini = 0.497\nsamples = 24\nvalue = [13, 11]"] ;
1203 -> 1204 ;
1205 [label="Appt_Made_Min <= 3.5\ngini = 0.278\nsamples = 6\nvalue = [1, 5]"] ;
1204 -> 1205 ;
1206 [label="Made_Lead_Days_Calendar <= 7.5\ngini = 0.5\nsamples = 2\nvalue = [1, 1]"] ;
1205 -> 1206 ;
1207 [label="gini = 0.0\nsamples = 1\nvalue = [0, 1]"] ;
1206 -> 1207 ;
