digraph Tree {
node [shape=box] ;
0 [label="count_miss <= 0.5\ngini = 0.191\nsamples = 69587\nvalue = [62146, 7441]"] ;
1 [label="Payor_Type_ID <= 0.5\ngini = 0.164\nsamples = 59649\nvalue = [54258, 5391]"] ;
0 -> 1 [labeldistance=2.5, labelangle=45, headlabel="True"] ;
2 [label="Made_Lead_Days_Calendar <= 2.5\ngini = 0.351\nsamples = 2445\nvalue = [1890, 555]"] ;
1 -> 2 ;
3 [label="distance <= 1021.779\ngini = 0.175\nsamples = 453\nvalue = [409, 44]"] ;
2 -> 3 ;
4 [label="Distance <= 0.001\ngini = 0.169\nsamples = 451\nvalue = [409, 42]"] ;
3 -> 4 ;
5 [label="Duration <= 0.002\ngini = 0.49\nsamples = 7\nvalue = [3, 4]"] ;
4 -> 5 ;
6 [label="gini = 0.0\nsamples = 3\nvalue = [3, 0]"] ;
5 -> 6 ;
7 [label="gini = 0.0\nsamples = 4\nvalue = [0, 4]"] ;
5 -> 7 ;
8 [label="Provider_ID <= 11.0\ngini = 0.157\nsamples = 444\nvalue = [406, 38]"] ;
4 -> 8 ;
9 [label="gini = 0.0\nsamples = 67\nvalue = [67, 0]"] ;
8 -> 9 ;
10 [label="Unnamed: 0 <= 67323.0\ngini = 0.181\nsamples = 377\nvalue = [339, 38]"] ;
8 -> 10 ;
11 [label="Provider_ID <= 29.5\ngini = 0.248\nsamples = 186\nvalue = [159, 27]"] ;
10 -> 11 ;
12 [label="Appt_Made_Min <= 44.0\ngini = 0.457\nsamples = 17\nvalue = [11, 6]"] ;
11 -> 12 ;
13 [label="Unnamed: 0 <= 2844.5\ngini = 0.26\nsamples = 13\nvalue = [11, 2]"] ;
12 -> 13 ;
14 [label="gini = 0.0\nsamples = 1\nvalue = [0, 1]"] ;
13 -> 14 ;
15 [label="Appt_Time_Hour <= 13.5\ngini = 0.153\nsamples = 12\nvalue = [11, 1]"] ;
13 -> 15 ;
16 [label="gini = 0.0\nsamples = 9\nvalue = [9, 0]"] ;
15 -> 16 ;
17 [label="Distance <= 0.002\ngini = 0.444\nsamples = 3\nvalue = [2, 1]"] ;
15 -> 17 ;
18 [label="gini = 0.0\nsamples = 1\nvalue = [0, 1]"] ;
17 -> 18 ;
19 [label="gini = 0.0\nsamples = 2\nvalue = [2, 0]"] ;
17 -> 19 ;
20 [label="gini = 0.0\nsamples = 4\nvalue = [0, 4]"] ;
12 -> 20 ;
21 [label="Duration <= 0.006\ngini = 0.218\nsamples = 169\nvalue = [148, 21]"] ;
11 -> 21 ;
22 [label="distance <= 10.321\ngini = 0.432\nsamples = 19\nvalue = [13, 6]"] ;
21 -> 22 ;
23 [label="Dept_ID <= 17.5\ngini = 0.36\nsamples = 17\nvalue = [13, 4]"] ;
22 -> 23 ;
24 [label="Appt_Year <= 2015.5\ngini = 0.231\nsamples = 15\nvalue = [13, 2]"] ;
23 -> 24 ;
25 [label="Appt_Made_Day <= 8.0\ngini = 0.48\nsamples = 5\nvalue = [3, 2]"] ;
24 -> 25 ;
26 [label="gini = 0.0\nsamples = 2\nvalue = [0, 2]"] ;
25 -> 26 ;
27 [label="gini = 0.0\nsamples = 3\nvalue = [3, 0]"] ;
25 -> 27 ;
28 [label="gini = 0.0\nsamples = 10\nvalue = [10, 0]"] ;
24 -> 28 ;
29 [label="gini = 0.0\nsamples = 2\nvalue = [0, 2]"] ;
23 -> 29 ;
30 [label="gini = 0.0\nsamples = 2\nvalue = [0, 2]"] ;
22 -> 30 ;
31 [label="Appt_Time_Hour <= 8.5\ngini = 0.18\nsamples = 150\nvalue = [135, 15]"] ;
21 -> 31 ;
32 [label="PopDensity <= 1875.725\ngini = 0.459\nsamples = 14\nvalue = [9, 5]"] ;
31 -> 32 ;
33 [label="gini = 0.0\nsamples = 3\nvalue = [0, 3]"] ;
32 -> 33 ;
34 [label="Appt_Month <= 8.5\ngini = 0.298\nsamples = 11\nvalue = [9, 2]"] ;
32 -> 34 ;
35 [label="gini = 0.0\nsamples = 8\nvalue = [8, 0]"] ;
34 -> 35 ;
36 [label="Appt_Year <= 2015.5\ngini = 0.444\nsamples = 3\nvalue = [1, 2]"] ;
34 -> 36 ;
37 [label="gini = 0.0\nsamples = 1\nvalue = [1, 0]"] ;
36 -> 37 ;
38 [label="gini = 0.0\nsamples = 2\nvalue = [0, 2]"] ;
36 -> 38 ;
39 [label="Unnamed: 0 <= 66733.5\ngini = 0.136\nsamples = 136\nvalue = [126, 10]"] ;
31 -> 39 ;
40 [label="Duration <= 0.027\ngini = 0.124\nsamples = 135\nvalue = [126, 9]"] ;
39 -> 40 ;
41 [label="Appt_Made_Min <= 0.5\ngini = 0.102\nsamples = 130\nvalue = [123, 7]"] ;
40 -> 41 ;
42 [label="Distance <= 0.004\ngini = 0.48\nsamples = 5\nvalue = [3, 2]"] ;
41 -> 42 ;
43 [label="gini = 0.0\nsamples = 3\nvalue = [3, 0]"] ;
42 -> 43 ;
44 [label="gini = 0.0\nsamples = 2\nvalue = [0, 2]"] ;
42 -> 44 ;
45 [label="Appt_Day <= 20.5\ngini = 0.077\nsamples = 125\nvalue = [120, 5]"] ;
41 -> 45 ;
46 [label="gini = 0.0\nsamples = 90\nvalue = [90, 0]"] ;
45 -> 46 ;
47 [label="Unnamed: 0 <= 61030.0\ngini = 0.245\nsamples = 35\nvalue = [30, 5]"] ;
45 -> 47 ;
48 [label="Appt_Made_Day <= 19.5\ngini = 0.208\nsamples = 34\nvalue = [30, 4]"] ;
47 -> 48 ;
49 [label="gini = 0.0\nsamples = 1\nvalue = [0, 1]"] ;
48 -> 49 ;
50 [label="Appt_Made_Min <= 13.5\ngini = 0.165\nsamples = 33\nvalue = [30, 3]"] ;
48 -> 50 ;
51 [label="distance <= 15.186\ngini = 0.397\nsamples = 11\nvalue = [8, 3]"] ;
50 -> 51 ;
52 [label="PopDensity <= 1738.735\ngini = 0.444\nsamples = 3\nvalue = [1, 2]"] ;
51 -> 52 ;
53 [label="gini = 0.0\nsamples = 1\nvalue = [1, 0]"] ;
52 -> 53 ;
54 [label="gini = 0.0\nsamples = 2\nvalue = [0, 2]"] ;
52 -> 54 ;
55 [label="Appt_Month <= 3.5\ngini = 0.219\nsamples = 8\nvalue = [7, 1]"] ;
51 -> 55 ;
56 [label="gini = 0.0\nsamples = 1\nvalue = [0, 1]"] ;
55 -> 56 ;
57 [label="gini = 0.0\nsamples = 7\nvalue = [7, 0]"] ;
55 -> 57 ;
58 [label="gini = 0.0\nsamples = 22\nvalue = [22, 0]"] ;
50 -> 58 ;
59 [label="gini = 0.0\nsamples = 1\nvalue = [0, 1]"] ;
47 -> 59 ;
60 [label="Appt_Time_Min <= 15.0\ngini = 0.48\nsamples = 5\nvalue = [3, 2]"] ;
40 -> 60 ;
61 [label="gini = 0.0\nsamples = 3\nvalue = [3, 0]"] ;
60 -> 61 ;
62 [label="gini = 0.0\nsamples = 2\nvalue = [0, 2]"] ;
60 -> 62 ;
63 [label="gini = 0.0\nsamples = 1\nvalue = [0, 1]"] ;
39 -> 63 ;
64 [label="Appt_Made_Min <= 25.0\ngini = 0.109\nsamples = 191\nvalue = [180, 11]"] ;
10 -> 64 ;
65 [label="Appt_Time_Min <= 27.5\ngini = 0.216\nsamples = 81\nvalue = [71, 10]"] ;
64 -> 65 ;
66 [label="Visit_Type_ID <= 19.0\ngini = 0.34\nsamples = 46\nvalue = [36, 10]"] ;
65 -> 66 ;
67 [label="gini = 0.0\nsamples = 18\nvalue = [18, 0]"] ;
66 -> 67 ;
68 [label="Appt_Time_Hour <= 10.5\ngini = 0.459\nsamples = 28\nvalue = [18, 10]"] ;
66 -> 68 ;
69 [label="distance <= 6.338\ngini = 0.32\nsamples = 5\nvalue = [1, 4]"] ;
68 -> 69 ;
70 [label="gini = 0.0\nsamples = 1\nvalue = [1, 0]"] ;
69 -> 70 ;
71 [label="gini = 0.0\nsamples = 4\nvalue = [0, 4]"] ;
69 -> 71 ;
72 [label="count_cancel <= 0.5\ngini = 0.386\nsamples = 23\nvalue = [17, 6]"] ;
68 -> 72 ;
73 [label="Appt_Made_Day <= 11.0\ngini = 0.208\nsamples = 17\nvalue = [15, 2]"] ;
72 -> 73 ;
74 [label="Appt_Made_Month <= 6.0\ngini = 0.48\nsamples = 5\nvalue = [3, 2]"] ;
73 -> 74 ;
75 [label="gini = 0.0\nsamples = 3\nvalue = [3, 0]"] ;
74 -> 75 ;
76 [label="gini = 0.0\nsamples = 2\nvalue = [0, 2]"] ;
74 -> 76 ;
77 [label="gini = 0.0\nsamples = 12\nvalue = [12, 0]"] ;
73 -> 77 ;
78 [label="Made_Lead_Days_Calendar <= 1.5\ngini = 0.444\nsamples = 6\nvalue = [2, 4]"] ;
72 -> 78 ;
79 [label="Appt_Made_Year <= 2016.0\ngini = 0.444\nsamples = 3\nvalue = [2, 1]"] ;
78 -> 79 ;
80 [label="gini = 0.0\nsamples = 1\nvalue = [0, 1]"] ;
79 -> 80 ;
81 [label="gini = 0.0\nsamples = 2\nvalue = [2, 0]"] ;
79 -> 81 ;
82 [label="gini = 0.0\nsamples = 3\nvalue = [0, 3]"] ;
78 -> 82 ;
83 [label="gini = 0.0\nsamples = 35\nvalue = [35, 0]"] ;
65 -> 83 ;
84 [label="Appt_Made_Min <= 54.5\ngini = 0.018\nsamples = 110\nvalue = [109, 1]"] ;
64 -> 84 ;
85 [label="gini = 0.0\nsamples = 94\nvalue = [94, 0]"] ;
84 -> 85 ;
86 [label="Unnamed: 0 <= 95534.5\ngini = 0.117\nsamples = 16\nvalue = [15, 1]"] ;
84 -> 86 ;
87 [label="Appt_Made_Month <= 4.0\ngini = 0.5\nsamples = 2\nvalue = [1, 1]"] ;
86 -> 87 ;
88 [label="gini = 0.0\nsamples = 1\nvalue = [1, 0]"] ;
87 -> 88 ;
89 [label="gini = 0.0\nsamples = 1\nvalue = [0, 1]"] ;
87 -> 89 ;
90 [label="gini = 0.0\nsamples = 14\nvalue = [14, 0]"] ;
86 -> 90 ;
91 [label="gini = 0.0\nsamples = 2\nvalue = [0, 2]"] ;
3 -> 91 ;
92 [label="Made_Lead_Days_Calendar <= 85.5\ngini = 0.381\nsamples = 1992\nvalue = [1481, 511]"] ;
2 -> 92 ;
93 [label="Appt_Made_Year <= 2015.5\ngini = 0.371\nsamples = 1867\nvalue = [1408, 459]"] ;
92 -> 93 ;
94 [label="Appt_Made_Hour <= 12.5\ngini = 0.302\nsamples = 508\nvalue = [414, 94]"] ;
93 -> 94 ;
95 [label="Patient_Age_Bucket_ID <= 1.5\ngini = 0.359\nsamples = 273\nvalue = [209, 64]"] ;
94 -> 95 ;
96 [label="Appt_Made_Day <= 4.0\ngini = 0.202\nsamples = 70\nvalue = [62, 8]"] ;
95 -> 96 ;
97 [label="Appt_Made_Day <= 2.5\ngini = 0.5\nsamples = 10\nvalue = [5, 5]"] ;
96 -> 97 ;
98 [label="Dept_ID <= 11.5\ngini = 0.408\nsamples = 7\nvalue = [5, 2]"] ;
97 -> 98 ;
99 [label="gini = 0.0\nsamples = 2\nvalue = [0, 2]"] ;
98 -> 99 ;
100 [label="gini = 0.0\nsamples = 5\nvalue = [5, 0]"] ;
98 -> 100 ;
101 [label="gini = 0.0\nsamples = 3\nvalue = [0, 3]"] ;
97 -> 101 ;
102 [label="Made_Lead_Days_Calendar <= 4.5\ngini = 0.095\nsamples = 60\nvalue = [57, 3]"] ;
96 -> 102 ;
103 [label="Appt_Time_Hour <= 8.5\ngini = 0.444\nsamples = 9\nvalue = [6, 3]"] ;
102 -> 103 ;
104 [label="gini = 0.0\nsamples = 2\nvalue = [0, 2]"] ;
103 -> 104 ;
105 [label="Dept_ID <= 18.0\ngini = 0.245\nsamples = 7\nvalue = [6, 1]"] ;
103 -> 105 ;
106 [label="gini = 0.0\nsamples = 6\nvalue = [6, 0]"] ;
105 -> 106 ;
107 [label="gini = 0.0\nsamples = 1\nvalue = [0, 1]"] ;
105 -> 107 ;
108 [label="gini = 0.0\nsamples = 51\nvalue = [51, 0]"] ;
102 -> 108 ;
109 [label="Duration <= 0.014\ngini = 0.4\nsamples = 203\nvalue = [147, 56]"] ;
95 -> 109 ;
110 [label="Appt_Made_Min <= 10.5\ngini = 0.449\nsamples = 153\nvalue = [101, 52]"] ;
109 -> 110 ;
111 [label="Appt_Day <= 16.5\ngini = 0.231\nsamples = 30\nvalue = [26, 4]"] ;
110 -> 111 ;
112 [label="gini = 0.0\nsamples = 19\nvalue = [19, 0]"] ;
111 -> 112 ;
113 [label="Appt_Month <= 3.0\ngini = 0.463\nsamples = 11\nvalue = [7, 4]"] ;
111 -> 113 ;
114 [label="gini = 0.0\nsamples = 5\nvalue = [5, 0]"] ;
113 -> 114 ;
115 [label="Appt_Made_Day <= 15.0\ngini = 0.444\nsamples = 6\nvalue = [2, 4]"] ;
113 -> 115 ;
116 [label="Appt_Time_Hour <= 10.5\ngini = 0.444\nsamples = 3\nvalue = [2, 1]"] ;
115 -> 116 ;
117 [label="gini = 0.0\nsamples = 1\nvalue = [0, 1]"] ;
116 -> 117 ;
118 [label="gini = 0.0\nsamples = 2\nvalue = [2, 0]"] ;
116 -> 118 ;
119 [label="gini = 0.0\nsamples = 3\nvalue = [0, 3]"] ;
115 -> 119 ;
120 [label="Provider_ID <= 45.5\ngini = 0.476\nsamples = 123\nvalue = [75, 48]"] ;
110 -> 120 ;
121 [label="Appt_Time_Min <= 42.5\ngini = 0.426\nsamples = 78\nvalue = [54, 24]"] ;
120 -> 121 ;
122 [label="Appt_Day <= 8.5\ngini = 0.375\nsamples = 64\nvalue = [48, 16]"] ;
121 -> 122 ;
123 [label="Appt_Length <= 25.0\ngini = 0.105\nsamples = 18\nvalue = [17, 1]"] ;
122 -> 123 ;
124 [label="gini = 0.0\nsamples = 17\nvalue = [17, 0]"] ;
123 -> 124 ;
125 [label="gini = 0.0\nsamples = 1\nvalue = [0, 1]"] ;
123 -> 125 ;
126 [label="Distance <= 0.004\ngini = 0.44\nsamples = 46\nvalue = [31, 15]"] ;
122 -> 126 ;
127 [label="distance <= 8.042\ngini = 0.499\nsamples = 23\nvalue = [11, 12]"] ;
126 -> 127 ;
128 [label="Appt_Time_Hour <= 9.5\ngini = 0.408\nsamples = 14\nvalue = [10, 4]"] ;
127 -> 128 ;
129 [label="distance <= 6.768\ngini = 0.375\nsamples = 4\nvalue = [1, 3]"] ;
128 -> 129 ;
130 [label="gini = 0.0\nsamples = 3\nvalue = [0, 3]"] ;
129 -> 130 ;
131 [label="gini = 0.0\nsamples = 1\nvalue = [1, 0]"] ;
129 -> 131 ;
132 [label="Made_Lead_Days_Work <= 2.5\ngini = 0.18\nsamples = 10\nvalue = [9, 1]"] ;
128 -> 132 ;
133 [label="gini = 0.0\nsamples = 1\nvalue = [0, 1]"] ;
132 -> 133 ;
134 [label="gini = 0.0\nsamples = 9\nvalue = [9, 0]"] ;
132 -> 134 ;
135 [label="Appt_Made_Min <= 57.5\ngini = 0.198\nsamples = 9\nvalue = [1, 8]"] ;
127 -> 135 ;
136 [label="gini = 0.0\nsamples = 8\nvalue = [0, 8]"] ;
135 -> 136 ;
137 [label="gini = 0.0\nsamples = 1\nvalue = [1, 0]"] ;
135 -> 137 ;
138 [label="Distance <= 0.01\ngini = 0.227\nsamples = 23\nvalue = [20, 3]"] ;
126 -> 138 ;
139 [label="Appt_Made_Day <= 2.0\ngini = 0.165\nsamples = 22\nvalue = [20, 2]"] ;
138 -> 139 ;
140 [label="gini = 0.0\nsamples = 1\nvalue = [0, 1]"] ;
139 -> 140 ;
141 [label="Made_Lead_Days_Work <= 2.5\ngini = 0.091\nsamples = 21\nvalue = [20, 1]"] ;
139 -> 141 ;
142 [label="count_app <= 0.5\ngini = 0.5\nsamples = 2\nvalue = [1, 1]"] ;
141 -> 142 ;
143 [label="gini = 0.0\nsamples = 1\nvalue = [0, 1]"] ;
142 -> 143 ;
144 [label="gini = 0.0\nsamples = 1\nvalue = [1, 0]"] ;
142 -> 144 ;
145 [label="gini = 0.0\nsamples = 19\nvalue = [19, 0]"] ;
141 -> 145 ;
146 [label="gini = 0.0\nsamples = 1\nvalue = [0, 1]"] ;
138 -> 146 ;
147 [label="Appt_Made_Min <= 44.0\ngini = 0.49\nsamples = 14\nvalue = [6, 8]"] ;
121 -> 147 ;
148 [label="count_app <= 1.5\ngini = 0.346\nsamples = 9\nvalue = [2, 7]"] ;
147 -> 148 ;
149 [label="gini = 0.0\nsamples = 7\nvalue = [0, 7]"] ;
148 -> 149 ;
150 [label="gini = 0.0\nsamples = 2\nvalue = [2, 0]"] ;
148 -> 150 ;
151 [label="Distance <= 0.001\ngini = 0.32\nsamples = 5\nvalue = [4, 1]"] ;
147 -> 151 ;
152 [label="gini = 0.0\nsamples = 1\nvalue = [0, 1]"] ;
151 -> 152 ;
153 [label="gini = 0.0\nsamples = 4\nvalue = [4, 0]"] ;
151 -> 153 ;
154 [label="Made_Lead_Days_Calendar <= 27.0\ngini = 0.498\nsamples = 45\nvalue = [21, 24]"] ;
120 -> 154 ;
155 [label="Appt_Made_Month <= 8.5\ngini = 0.473\nsamples = 39\nvalue = [15, 24]"] ;
154 -> 155 ;
156 [label="Distance <= 0.009\ngini = 0.332\nsamples = 19\nvalue = [4, 15]"] ;
155 -> 156 ;
157 [label="Appt_Made_Min <= 58.5\ngini = 0.219\nsamples = 16\nvalue = [2, 14]"] ;
156 -> 157 ;
158 [label="PopDensity <= 904.2\ngini = 0.124\nsamples = 15\nvalue = [1, 14]"] ;
157 -> 158 ;
159 [label="gini = 0.0\nsamples = 1\nvalue = [1, 0]"] ;
158 -> 159 ;
160 [label="gini = 0.0\nsamples = 14\nvalue = [0, 14]"] ;
158 -> 160 ;
161 [label="gini = 0.0\nsamples = 1\nvalue = [1, 0]"] ;
157 -> 161 ;
162 [label="Appt_Made_Day <= 21.5\ngini = 0.444\nsamples = 3\nvalue = [2, 1]"] ;
156 -> 162 ;
163 [label="gini = 0.0\nsamples = 2\nvalue = [2, 0]"] ;
162 -> 163 ;
164 [label="gini = 0.0\nsamples = 1\nvalue = [0, 1]"] ;
162 -> 164 ;
165 [label="Appt_Time_Min <= 15.0\ngini = 0.495\nsamples = 20\nvalue = [11, 9]"] ;
155 -> 165 ;
166 [label="Appt_Day <= 27.5\ngini = 0.219\nsamples = 8\nvalue = [7, 1]"] ;
165 -> 166 ;
167 [label="gini = 0.0\nsamples = 6\nvalue = [6, 0]"] ;
166 -> 167 ;
168 [label="count_app <= 1.0\ngini = 0.5\nsamples = 2\nvalue = [1, 1]"] ;
166 -> 168 ;
169 [label="gini = 0.0\nsamples = 1\nvalue = [0, 1]"] ;
168 -> 169 ;
170 [label="gini = 0.0\nsamples = 1\nvalue = [1, 0]"] ;
168 -> 170 ;
171 [label="Dept_ID <= 16.0\ngini = 0.444\nsamples = 12\nvalue = [4, 8]"] ;
165 -> 171 ;
172 [label="Provider_ID <= 56.0\ngini = 0.219\nsamples = 8\nvalue = [1, 7]"] ;
171 -> 172 ;
173 [label="Appt_Day <= 26.0\ngini = 0.5\nsamples = 2\nvalue = [1, 1]"] ;
172 -> 173 ;
174 [label="gini = 0.0\nsamples = 1\nvalue = [1, 0]"] ;
173 -> 174 ;
175 [label="gini = 0.0\nsamples = 1\nvalue = [0, 1]"] ;
173 -> 175 ;
176 [label="gini = 0.0\nsamples = 6\nvalue = [0, 6]"] ;
172 -> 176 ;
177 [label="Made_Lead_Days_Calendar <= 13.5\ngini = 0.375\nsamples = 4\nvalue = [3, 1]"] ;
171 -> 177 ;
178 [label="gini = 0.0\nsamples = 3\nvalue = [3, 0]"] ;
177 -> 178 ;
179 [label="gini = 0.0\nsamples = 1\nvalue = [0, 1]"] ;
177 -> 179 ;
180 [label="gini = 0.0\nsamples = 6\nvalue = [6, 0]"] ;
154 -> 180 ;
181 [label="Appt_Length <= 37.5\ngini = 0.147\nsamples = 50\nvalue = [46, 4]"] ;
109 -> 181 ;
182 [label="Distance <= 0.098\ngini = 0.115\nsamples = 49\nvalue = [46, 3]"] ;
181 -> 182 ;
183 [label="Appt_Made_Day <= 1.5\ngini = 0.081\nsamples = 47\nvalue = [45, 2]"] ;
182 -> 183 ;
184 [label="Appt_Year <= 2015.5\ngini = 0.5\nsamples = 2\nvalue = [1, 1]"] ;
183 -> 184 ;
185 [label="gini = 0.0\nsamples = 1\nvalue = [0, 1]"] ;
184 -> 185 ;
186 [label="gini = 0.0\nsamples = 1\nvalue = [1, 0]"] ;
184 -> 186 ;
187 [label="Unnamed: 0 <= 117129.5\ngini = 0.043\nsamples = 45\nvalue = [44, 1]"] ;
183 -> 187 ;
188 [label="gini = 0.0\nsamples = 42\nvalue = [42, 0]"] ;
187 -> 188 ;
189 [label="Appt_Made_Min <= 25.0\ngini = 0.444\nsamples = 3\nvalue = [2, 1]"] ;
187 -> 189 ;
190 [label="gini = 0.0\nsamples = 2\nvalue = [2, 0]"] ;
189 -> 190 ;
191 [label="gini = 0.0\nsamples = 1\nvalue = [0, 1]"] ;
189 -> 191 ;
192 [label="Appt_Made_Day <= 13.5\ngini = 0.5\nsamples = 2\nvalue = [1, 1]"] ;
182 -> 192 ;
193 [label="gini = 0.0\nsamples = 1\nvalue = [1, 0]"] ;
192 -> 193 ;
194 [label="gini = 0.0\nsamples = 1\nvalue = [0, 1]"] ;
192 -> 194 ;
195 [label="gini = 0.0\nsamples = 1\nvalue = [0, 1]"] ;
181 -> 195 ;
196 [label="Dept_ID <= 10.0\ngini = 0.223\nsamples = 235\nvalue = [205, 30]"] ;
94 -> 196 ;
197 [label="Patient_Age_Bucket_ID <= 2.5\ngini = 0.325\nsamples = 88\nvalue = [70, 18]"] ;
196 -> 197 ;
198 [label="Dept_ID <= 1.5\ngini = 0.111\nsamples = 34\nvalue = [32, 2]"] ;
197 -> 198 ;
199 [label="Appt_Made_Min <= 9.0\ngini = 0.5\nsamples = 2\nvalue = [1, 1]"] ;
198 -> 199 ;
200 [label="gini = 0.0\nsamples = 1\nvalue = [1, 0]"] ;
199 -> 200 ;
201 [label="gini = 0.0\nsamples = 1\nvalue = [0, 1]"] ;
199 -> 201 ;
202 [label="Appt_Time_Min <= 47.5\ngini = 0.061\nsamples = 32\nvalue = [31, 1]"] ;
198 -> 202 ;
203 [label="gini = 0.0\nsamples = 30\nvalue = [30, 0]"] ;
202 -> 203 ;
204 [label="Appt_Month <= 8.5\ngini = 0.5\nsamples = 2\nvalue = [1, 1]"] ;
202 -> 204 ;
205 [label="gini = 0.0\nsamples = 1\nvalue = [0, 1]"] ;
204 -> 205 ;
206 [label="gini = 0.0\nsamples = 1\nvalue = [1, 0]"] ;
204 -> 206 ;
207 [label="Appt_Made_Day <= 13.5\ngini = 0.417\nsamples = 54\nvalue = [38, 16]"] ;
197 -> 207 ;
208 [label="Provider_ID <= 37.0\ngini = 0.499\nsamples = 19\nvalue = [10, 9]"] ;
207 -> 208 ;
209 [label="Appt_Day <= 23.5\ngini = 0.444\nsamples = 15\nvalue = [10, 5]"] ;
208 -> 209 ;
210 [label="Appt_Time_Hour <= 8.5\ngini = 0.278\nsamples = 12\nvalue = [10, 2]"] ;
209 -> 210 ;
211 [label="gini = 0.0\nsamples = 1\nvalue = [0, 1]"] ;
210 -> 211 ;
212 [label="Appt_Made_Min <= 52.5\ngini = 0.165\nsamples = 11\nvalue = [10, 1]"] ;
210 -> 212 ;
213 [label="gini = 0.0\nsamples = 10\nvalue = [10, 0]"] ;
212 -> 213 ;
214 [label="gini = 0.0\nsamples = 1\nvalue = [0, 1]"] ;
212 -> 214 ;
215 [label="gini = 0.0\nsamples = 3\nvalue = [0, 3]"] ;
209 -> 215 ;
216 [label="gini = 0.0\nsamples = 4\nvalue = [0, 4]"] ;
208 -> 216 ;
217 [label="Unnamed: 0 <= 995.0\ngini = 0.32\nsamples = 35\nvalue = [28, 7]"] ;
207 -> 217 ;
218 [label="gini = 0.0\nsamples = 2\nvalue = [0, 2]"] ;
217 -> 218 ;
219 [label="Provider_ID <= 4.5\ngini = 0.257\nsamples = 33\nvalue = [28, 5]"] ;
217 -> 219 ;
220 [label="gini = 0.0\nsamples = 1\nvalue = [0, 1]"] ;
219 -> 220 ;
221 [label="Made_Lead_Days_Work <= 2.5\ngini = 0.219\nsamples = 32\nvalue = [28, 4]"] ;
219 -> 221 ;
222 [label="Appt_Time_Hour <= 13.5\ngini = 0.5\nsamples = 4\nvalue = [2, 2]"] ;
221 -> 222 ;
223 [label="gini = 0.0\nsamples = 2\nvalue = [0, 2]"] ;
222 -> 223 ;
224 [label="gini = 0.0\nsamples = 2\nvalue = [2, 0]"] ;
222 -> 224 ;
225 [label="Made_Lead_Days_Calendar <= 18.0\ngini = 0.133\nsamples = 28\nvalue = [26, 2]"] ;
221 -> 225 ;
226 [label="gini = 0.0\nsamples = 21\nvalue = [21, 0]"] ;
225 -> 226 ;
227 [label="Made_Lead_Days_Calendar <= 21.5\ngini = 0.408\nsamples = 7\nvalue = [5, 2]"] ;
225 -> 227 ;
228 [label="gini = 0.0\nsamples = 2\nvalue = [0, 2]"] ;
227 -> 228 ;
229 [label="gini = 0.0\nsamples = 5\nvalue = [5, 0]"] ;
227 -> 229 ;
230 [label="Unnamed: 0 <= 124277.0\ngini = 0.15\nsamples = 147\nvalue = [135, 12]"] ;
196 -> 230 ;
231 [label="count_cancel <= 1.5\ngini = 0.139\nsamples = 146\nvalue = [135, 11]"] ;
230 -> 231 ;
232 [label="Unnamed: 0 <= 78388.5\ngini = 0.109\nsamples = 138\nvalue = [130, 8]"] ;
231 -> 232 ;
233 [label="Distance <= 0.002\ngini = 0.025\nsamples = 80\nvalue = [79, 1]"] ;
232 -> 233 ;
234 [label="Dept_ID <= 17.5\ngini = 0.375\nsamples = 4\nvalue = [3, 1]"] ;
233 -> 234 ;
235 [label="gini = 0.0\nsamples = 3\nvalue = [3, 0]"] ;
234 -> 235 ;
236 [label="gini = 0.0\nsamples = 1\nvalue = [0, 1]"] ;
234 -> 236 ;
237 [label="gini = 0.0\nsamples = 76\nvalue = [76, 0]"] ;
233 -> 237 ;
238 [label="Unnamed: 0 <= 78534.5\ngini = 0.212\nsamples = 58\nvalue = [51, 7]"] ;
232 -> 238 ;
239 [label="Duration <= 0.013\ngini = 0.375\nsamples = 4\nvalue = [1, 3]"] ;
238 -> 239 ;
240 [label="gini = 0.0\nsamples = 3\nvalue = [0, 3]"] ;
239 -> 240 ;
241 [label="gini = 0.0\nsamples = 1\nvalue = [1, 0]"] ;
239 -> 241 ;
242 [label="Duration <= 0.006\ngini = 0.137\nsamples = 54\nvalue = [50, 4]"] ;
238 -> 242 ;
243 [label="Made_Lead_Days_Calendar <= 13.5\ngini = 0.42\nsamples = 10\nvalue = [7, 3]"] ;
242 -> 243 ;
244 [label="distance <= 5.085\ngini = 0.48\nsamples = 5\nvalue = [2, 3]"] ;
243 -> 244 ;
245 [label="gini = 0.0\nsamples = 2\nvalue = [2, 0]"] ;
244 -> 245 ;
246 [label="gini = 0.0\nsamples = 3\nvalue = [0, 3]"] ;
244 -> 246 ;
247 [label="gini = 0.0\nsamples = 5\nvalue = [5, 0]"] ;
243 -> 247 ;
248 [label="diff_pay_count <= 1.5\ngini = 0.044\nsamples = 44\nvalue = [43, 1]"] ;
242 -> 248 ;
249 [label="gini = 0.0\nsamples = 41\nvalue = [41, 0]"] ;
248 -> 249 ;
250 [label="Appt_Made_Month <= 10.5\ngini = 0.444\nsamples = 3\nvalue = [2, 1]"] ;
248 -> 250 ;
251 [label="gini = 0.0\nsamples = 1\nvalue = [0, 1]"] ;
250 -> 251 ;
252 [label="gini = 0.0\nsamples = 2\nvalue = [2, 0]"] ;
250 -> 252 ;
253 [label="Appt_Made_Hour <= 13.5\ngini = 0.469\nsamples = 8\nvalue = [5, 3]"] ;
231 -> 253 ;
254 [label="gini = 0.0\nsamples = 2\nvalue = [0, 2]"] ;
253 -> 254 ;
255 [label="Appt_Made_Hour <= 15.5\ngini = 0.278\nsamples = 6\nvalue = [5, 1]"] ;
253 -> 255 ;
256 [label="gini = 0.0\nsamples = 5\nvalue = [5, 0]"] ;
255 -> 256 ;
257 [label="gini = 0.0\nsamples = 1\nvalue = [0, 1]"] ;
255 -> 257 ;
258 [label="gini = 0.0\nsamples = 1\nvalue = [0, 1]"] ;
230 -> 258 ;
259 [label="PopDensity <= 1805.9\ngini = 0.393\nsamples = 1359\nvalue = [994, 365]"] ;
93 -> 259 ;
260 [label="count_app <= 2.5\ngini = 0.429\nsamples = 663\nvalue = [456, 207]"] ;
259 -> 260 ;
261 [label="Patient_Age_Bucket_ID <= 3.5\ngini = 0.44\nsamples = 614\nvalue = [413, 201]"] ;
260 -> 261 ;
262 [label="Unnamed: 0 <= 107141.5\ngini = 0.463\nsamples = 403\nvalue = [256, 147]"] ;
261 -> 262 ;
263 [label="distance <= 105.749\ngini = 0.483\nsamples = 278\nvalue = [165, 113]"] ;
262 -> 263 ;
264 [label="Made_Lead_Days_Calendar <= 19.5\ngini = 0.487\nsamples = 269\nvalue = [156, 113]"] ;
263 -> 264 ;
265 [label="diff_pay_count <= 1.5\ngini = 0.497\nsamples = 211\nvalue = [114, 97]"] ;
264 -> 265 ;
266 [label="Unnamed: 0 <= 36940.0\ngini = 0.494\nsamples = 206\nvalue = [114, 92]"] ;
265 -> 266 ;
267 [label="gini = 0.0\nsamples = 6\nvalue = [6, 0]"] ;
266 -> 267 ;
268 [label="Appt_Time_Hour <= 13.5\ngini = 0.497\nsamples = 200\nvalue = [108, 92]"] ;
266 -> 268 ;
269 [label="Appt_Length <= 35.0\ngini = 0.5\nsamples = 172\nvalue = [88, 84]"] ;
268 -> 269 ;
270 [label="Dept_ID <= 5.5\ngini = 0.5\nsamples = 167\nvalue = [83, 84]"] ;
269 -> 270 ;
271 [label="Duration <= 0.026\ngini = 0.434\nsamples = 22\nvalue = [15, 7]"] ;
270 -> 271 ;
272 [label="Provider_ID <= 9.5\ngini = 0.375\nsamples = 20\nvalue = [15, 5]"] ;
271 -> 272 ;
273 [label="gini = 0.0\nsamples = 2\nvalue = [0, 2]"] ;
272 -> 273 ;
274 [label="count_app <= 1.5\ngini = 0.278\nsamples = 18\nvalue = [15, 3]"] ;
272 -> 274 ;
275 [label="Appt_Made_Month <= 11.5\ngini = 0.208\nsamples = 17\nvalue = [15, 2]"] ;
274 -> 275 ;
276 [label="Appt_Made_Min <= 47.5\ngini = 0.117\nsamples = 16\nvalue = [15, 1]"] ;
275 -> 276 ;
277 [label="gini = 0.0\nsamples = 14\nvalue = [14, 0]"] ;
276 -> 277 ;
278 [label="Appt_Made_Day <= 26.5\ngini = 0.5\nsamples = 2\nvalue = [1, 1]"] ;
276 -> 278 ;
279 [label="gini = 0.0\nsamples = 1\nvalue = [1, 0]"] ;
278 -> 279 ;
280 [label="gini = 0.0\nsamples = 1\nvalue = [0, 1]"] ;
278 -> 280 ;
281 [label="gini = 0.0\nsamples = 1\nvalue = [0, 1]"] ;
275 -> 281 ;
282 [label="gini = 0.0\nsamples = 1\nvalue = [0, 1]"] ;
274 -> 282 ;
283 [label="gini = 0.0\nsamples = 2\nvalue = [0, 2]"] ;
271 -> 283 ;
284 [label="Duration <= 0.008\ngini = 0.498\nsamples = 145\nvalue = [68, 77]"] ;
270 -> 284 ;
285 [label="Appt_Time_Hour <= 9.5\ngini = 0.414\nsamples = 41\nvalue = [12, 29]"] ;
284 -> 285 ;
286 [label="Unnamed: 0 <= 104735.5\ngini = 0.117\nsamples = 16\nvalue = [1, 15]"] ;
285 -> 286 ;
287 [label="gini = 0.0\nsamples = 14\nvalue = [0, 14]"] ;
286 -> 287 ;
288 [label="Distance <= 0.001\ngini = 0.5\nsamples = 2\nvalue = [1, 1]"] ;
286 -> 288 ;
289 [label="gini = 0.0\nsamples = 1\nvalue = [0, 1]"] ;
288 -> 289 ;
290 [label="gini = 0.0\nsamples = 1\nvalue = [1, 0]"] ;
288 -> 290 ;
291 [label="Provider_ID <= 77.5\ngini = 0.493\nsamples = 25\nvalue = [11, 14]"] ;
285 -> 291 ;
292 [label="Duration <= 0.007\ngini = 0.495\nsamples = 20\nvalue = [11, 9]"] ;
291 -> 292 ;
293 [label="Appt_Made_Min <= 24.5\ngini = 0.43\nsamples = 16\nvalue = [11, 5]"] ;
292 -> 293 ;
294 [label="gini = 0.0\nsamples = 7\nvalue = [7, 0]"] ;
293 -> 294 ;
295 [label="Appt_Made_Min <= 40.5\ngini = 0.494\nsamples = 9\nvalue = [4, 5]"] ;
293 -> 295 ;
296 [label="Unnamed: 0 <= 41491.0\ngini = 0.278\nsamples = 6\nvalue = [1, 5]"] ;
295 -> 296 ;
297 [label="gini = 0.0\nsamples = 1\nvalue = [1, 0]"] ;
296 -> 297 ;
298 [label="gini = 0.0\nsamples = 5\nvalue = [0, 5]"] ;
296 -> 298 ;
299 [label="gini = 0.0\nsamples = 3\nvalue = [3, 0]"] ;
295 -> 299 ;
300 [label="gini = 0.0\nsamples = 4\nvalue = [0, 4]"] ;
292 -> 300 ;
301 [label="gini = 0.0\nsamples = 5\nvalue = [0, 5]"] ;
291 -> 301 ;
302 [label="distance <= 18.675\ngini = 0.497\nsamples = 104\nvalue = [56, 48]"] ;
284 -> 302 ;
303 [label="Provider_ID <= 32.0\ngini = 0.278\nsamples = 24\nvalue = [20, 4]"] ;
302 -> 303 ;
304 [label="gini = 0.0\nsamples = 2\nvalue = [0, 2]"] ;
303 -> 304 ;
305 [label="distance <= 8.292\ngini = 0.165\nsamples = 22\nvalue = [20, 2]"] ;
303 -> 305 ;
306 [label="gini = 0.0\nsamples = 1\nvalue = [0, 1]"] ;
305 -> 306 ;
307 [label="Appt_Month <= 11.0\ngini = 0.091\nsamples = 21\nvalue = [20, 1]"] ;
305 -> 307 ;
308 [label="gini = 0.0\nsamples = 19\nvalue = [19, 0]"] ;
307 -> 308 ;
309 [label="Appt_Time_Hour <= 11.0\ngini = 0.5\nsamples = 2\nvalue = [1, 1]"] ;
307 -> 309 ;
310 [label="gini = 0.0\nsamples = 1\nvalue = [1, 0]"] ;
309 -> 310 ;
311 [label="gini = 0.0\nsamples = 1\nvalue = [0, 1]"] ;
309 -> 311 ;
312 [label="Appt_Month <= 3.5\ngini = 0.495\nsamples = 80\nvalue = [36, 44]"] ;
302 -> 312 ;
313 [label="Appt_Logistics_Type_ID <= 1.0\ngini = 0.26\nsamples = 13\nvalue = [2, 11]"] ;
312 -> 313 ;
314 [label="Duration <= 0.01\ngini = 0.153\nsamples = 12\nvalue = [1, 11]"] ;
313 -> 314 ;
315 [label="gini = 0.0\nsamples = 1\nvalue = [1, 0]"] ;
314 -> 315 ;
316 [label="gini = 0.0\nsamples = 11\nvalue = [0, 11]"] ;
314 -> 316 ;
317 [label="gini = 0.0\nsamples = 1\nvalue = [1, 0]"] ;
313 -> 317 ;
318 [label="Appt_Day <= 4.5\ngini = 0.5\nsamples = 67\nvalue = [34, 33]"] ;
312 -> 318 ;
319 [label="Duration <= 0.009\ngini = 0.219\nsamples = 8\nvalue = [7, 1]"] ;
318 -> 319 ;
320 [label="gini = 0.0\nsamples = 1\nvalue = [0, 1]"] ;
319 -> 320 ;
321 [label="gini = 0.0\nsamples = 7\nvalue = [7, 0]"] ;
319 -> 321 ;
322 [label="distance <= 21.463\ngini = 0.496\nsamples = 59\nvalue = [27, 32]"] ;
318 -> 322 ;
323 [label="gini = 0.0\nsamples = 5\nvalue = [0, 5]"] ;
322 -> 323 ;
324 [label="Appt_Made_Day <= 11.5\ngini = 0.5\nsamples = 54\nvalue = [27, 27]"] ;
322 -> 324 ;
325 [label="Appt_Made_Day <= 6.5\ngini = 0.434\nsamples = 22\nvalue = [15, 7]"] ;
324 -> 325 ;
326 [label="Appt_Time_Min <= 20.0\ngini = 0.5\nsamples = 10\nvalue = [5, 5]"] ;
325 -> 326 ;
327 [label="Appt_Time_Hour <= 11.5\ngini = 0.278\nsamples = 6\nvalue = [5, 1]"] ;
326 -> 327 ;
328 [label="gini = 0.0\nsamples = 5\nvalue = [5, 0]"] ;
327 -> 328 ;
329 [label="gini = 0.0\nsamples = 1\nvalue = [0, 1]"] ;
327 -> 329 ;
330 [label="gini = 0.0\nsamples = 4\nvalue = [0, 4]"] ;
326 -> 330 ;
331 [label="Appt_Made_Min <= 46.5\ngini = 0.278\nsamples = 12\nvalue = [10, 2]"] ;
325 -> 331 ;
332 [label="Appt_Made_Hour <= 10.5\ngini = 0.165\nsamples = 11\nvalue = [10, 1]"] ;
331 -> 332 ;
333 [label="Made_Lead_Days_Work <= 9.5\ngini = 0.5\nsamples = 2\nvalue = [1, 1]"] ;
332 -> 333 ;
334 [label="gini = 0.0\nsamples = 1\nvalue = [1, 0]"] ;
333 -> 334 ;
335 [label="gini = 0.0\nsamples = 1\nvalue = [0, 1]"] ;
333 -> 335 ;
336 [label="gini = 0.0\nsamples = 9\nvalue = [9, 0]"] ;
332 -> 336 ;
337 [label="gini = 0.0\nsamples = 1\nvalue = [0, 1]"] ;
331 -> 337 ;
338 [label="Dept_ID <= 12.5\ngini = 0.469\nsamples = 32\nvalue = [12, 20]"] ;
324 -> 338 ;
339 [label="Appt_Made_Hour <= 9.0\ngini = 0.245\nsamples = 14\nvalue = [2, 12]"] ;
338 -> 339 ;
340 [label="gini = 0.0\nsamples = 2\nvalue = [2, 0]"] ;
339 -> 340 ;
341 [label="gini = 0.0\nsamples = 12\nvalue = [0, 12]"] ;
339 -> 341 ;
342 [label="Duration <= 0.011\ngini = 0.494\nsamples = 18\nvalue = [10, 8]"] ;
338 -> 342 ;
343 [label="distance <= 23.241\ngini = 0.278\nsamples = 6\nvalue = [1, 5]"] ;
342 -> 343 ;
344 [label="gini = 0.0\nsamples = 1\nvalue = [1, 0]"] ;
343 -> 344 ;
345 [label="gini = 0.0\nsamples = 5\nvalue = [0, 5]"] ;
343 -> 345 ;
346 [label="Appt_Made_Min <= 20.5\ngini = 0.375\nsamples = 12\nvalue = [9, 3]"] ;
342 -> 346 ;
347 [label="Unnamed: 0 <= 91875.0\ngini = 0.5\nsamples = 6\nvalue = [3, 3]"] ;
346 -> 347 ;
348 [label="gini = 0.0\nsamples = 2\nvalue = [2, 0]"] ;
347 -> 348 ;
349 [label="Distance <= 0.022\ngini = 0.375\nsamples = 4\nvalue = [1, 3]"] ;
347 -> 349 ;
350 [label="gini = 0.0\nsamples = 3\nvalue = [0, 3]"] ;
349 -> 350 ;
351 [label="gini = 0.0\nsamples = 1\nvalue = [1, 0]"] ;
349 -> 351 ;
352 [label="gini = 0.0\nsamples = 6\nvalue = [6, 0]"] ;
346 -> 352 ;
353 [label="gini = 0.0\nsamples = 5\nvalue = [5, 0]"] ;
269 -> 353 ;
354 [label="Appt_Made_Day <= 7.5\ngini = 0.408\nsamples = 28\nvalue = [20, 8]"] ;
268 -> 354 ;
355 [label="Made_Lead_Days_Work <= 8.5\ngini = 0.494\nsamples = 9\nvalue = [4, 5]"] ;
354 -> 355 ;
356 [label="Appt_Month <= 3.0\ngini = 0.444\nsamples = 6\nvalue = [4, 2]"] ;
355 -> 356 ;
357 [label="Made_Lead_Days_Work <= 1.5\ngini = 0.444\nsamples = 3\nvalue = [1, 2]"] ;
356 -> 357 ;
358 [label="gini = 0.0\nsamples = 1\nvalue = [1, 0]"] ;
357 -> 358 ;
359 [label="gini = 0.0\nsamples = 2\nvalue = [0, 2]"] ;
357 -> 359 ;
360 [label="gini = 0.0\nsamples = 3\nvalue = [3, 0]"] ;
356 -> 360 ;
361 [label="gini = 0.0\nsamples = 3\nvalue = [0, 3]"] ;
355 -> 361 ;
362 [label="Appt_Length <= 52.5\ngini = 0.266\nsamples = 19\nvalue = [16, 3]"] ;
354 -> 362 ;
363 [label="Distance <= 0.023\ngini = 0.198\nsamples = 18\nvalue = [16, 2]"] ;
362 -> 363 ;
364 [label="Made_Lead_Days_Calendar <= 3.5\ngini = 0.111\nsamples = 17\nvalue = [16, 1]"] ;
363 -> 364 ;
365 [label="Appt_Month <= 6.0\ngini = 0.444\nsamples = 3\nvalue = [2, 1]"] ;
364 -> 365 ;
366 [label="gini = 0.0\nsamples = 1\nvalue = [0, 1]"] ;
365 -> 366 ;
367 [label="gini = 0.0\nsamples = 2\nvalue = [2, 0]"] ;
365 -> 367 ;
368 [label="gini = 0.0\nsamples = 14\nvalue = [14, 0]"] ;
364 -> 368 ;
369 [label="gini = 0.0\nsamples = 1\nvalue = [0, 1]"] ;
363 -> 369 ;
370 [label="gini = 0.0\nsamples = 1\nvalue = [0, 1]"] ;
362 -> 370 ;
371 [label="gini = 0.0\nsamples = 5\nvalue = [0, 5]"] ;
265 -> 371 ;
372 [label="Appt_Day <= 28.5\ngini = 0.4\nsamples = 58\nvalue = [42, 16]"] ;
264 -> 372 ;
373 [label="Made_Lead_Days_Calendar <= 40.5\ngini = 0.346\nsamples = 54\nvalue = [42, 12]"] ;
372 -> 373 ;
374 [label="Appt_Made_Hour <= 9.5\ngini = 0.254\nsamples = 47\nvalue = [40, 7]"] ;
373 -> 374 ;
375 [label="diff_pay_count <= 1.5\ngini = 0.444\nsamples = 3\nvalue = [1, 2]"] ;
374 -> 375 ;
376 [label="gini = 0.0\nsamples = 2\nvalue = [0, 2]"] ;
375 -> 376 ;
377 [label="gini = 0.0\nsamples = 1\nvalue = [1, 0]"] ;
375 -> 377 ;
378 [label="Appt_Day <= 22.5\ngini = 0.201\nsamples = 44\nvalue = [39, 5]"] ;
374 -> 378 ;
379 [label="Appt_Made_Min <= 54.5\ngini = 0.102\nsamples = 37\nvalue = [35, 2]"] ;
378 -> 379 ;
380 [label="gini = 0.0\nsamples = 31\nvalue = [31, 0]"] ;
379 -> 380 ;
381 [label="Distance <= 0.007\ngini = 0.444\nsamples = 6\nvalue = [4, 2]"] ;
379 -> 381 ;
382 [label="gini = 0.0\nsamples = 4\nvalue = [4, 0]"] ;
381 -> 382 ;
383 [label="gini = 0.0\nsamples = 2\nvalue = [0, 2]"] ;
381 -> 383 ;
384 [label="Appt_Time_Min <= 20.0\ngini = 0.49\nsamples = 7\nvalue = [4, 3]"] ;
378 -> 384 ;
385 [label="gini = 0.0\nsamples = 3\nvalue = [3, 0]"] ;
384 -> 385 ;
386 [label="Unnamed: 0 <= 103604.5\ngini = 0.375\nsamples = 4\nvalue = [1, 3]"] ;
384 -> 386 ;
387 [label="gini = 0.0\nsamples = 3\nvalue = [0, 3]"] ;
386 -> 387 ;
388 [label="gini = 0.0\nsamples = 1\nvalue = [1, 0]"] ;
386 -> 388 ;
389 [label="Appt_Made_Day <= 20.5\ngini = 0.408\nsamples = 7\nvalue = [2, 5]"] ;
373 -> 389 ;
390 [label="gini = 0.0\nsamples = 5\nvalue = [0, 5]"] ;
389 -> 390 ;
391 [label="gini = 0.0\nsamples = 2\nvalue = [2, 0]"] ;
389 -> 391 ;
392 [label="gini = 0.0\nsamples = 4\nvalue = [0, 4]"] ;
372 -> 392 ;
393 [label="gini = 0.0\nsamples = 9\nvalue = [9, 0]"] ;
263 -> 393 ;
394 [label="Duration <= 0.002\ngini = 0.396\nsamples = 125\nvalue = [91, 34]"] ;
262 -> 394 ;
395 [label="gini = 0.0\nsamples = 2\nvalue = [0, 2]"] ;
394 -> 395 ;
396 [label="Provider_ID <= 35.5\ngini = 0.385\nsamples = 123\nvalue = [91, 32]"] ;
394 -> 396 ;
397 [label="Appt_Made_Month <= 6.5\ngini = 0.448\nsamples = 65\nvalue = [43, 22]"] ;
396 -> 397 ;
398 [label="Made_Lead_Days_Work <= 2.5\ngini = 0.363\nsamples = 42\nvalue = [32, 10]"] ;
397 -> 398 ;
399 [label="gini = 0.0\nsamples = 2\nvalue = [0, 2]"] ;
398 -> 399 ;
400 [label="Appt_Made_Hour <= 12.5\ngini = 0.32\nsamples = 40\nvalue = [32, 8]"] ;
398 -> 400 ;
401 [label="distance <= 11.299\ngini = 0.457\nsamples = 17\nvalue = [11, 6]"] ;
400 -> 401 ;
402 [label="Made_Lead_Days_Calendar <= 12.5\ngini = 0.469\nsamples = 8\nvalue = [3, 5]"] ;
401 -> 402 ;
403 [label="Appt_Year <= 2016.5\ngini = 0.375\nsamples = 4\nvalue = [3, 1]"] ;
402 -> 403 ;
404 [label="gini = 0.0\nsamples = 3\nvalue = [3, 0]"] ;
403 -> 404 ;
405 [label="gini = 0.0\nsamples = 1\nvalue = [0, 1]"] ;
403 -> 405 ;
406 [label="gini = 0.0\nsamples = 4\nvalue = [0, 4]"] ;
402 -> 406 ;
407 [label="Made_Lead_Days_Calendar <= 7.5\ngini = 0.198\nsamples = 9\nvalue = [8, 1]"] ;
401 -> 407 ;
408 [label="Appt_Month <= 3.0\ngini = 0.5\nsamples = 2\nvalue = [1, 1]"] ;
407 -> 408 ;
409 [label="gini = 0.0\nsamples = 1\nvalue = [1, 0]"] ;
408 -> 409 ;
410 [label="gini = 0.0\nsamples = 1\nvalue = [0, 1]"] ;
408 -> 410 ;
411 [label="gini = 0.0\nsamples = 7\nvalue = [7, 0]"] ;
407 -> 411 ;
412 [label="count_cancel <= 0.5\ngini = 0.159\nsamples = 23\nvalue = [21, 2]"] ;
400 -> 412 ;
413 [label="gini = 0.0\nsamples = 17\nvalue = [17, 0]"] ;
412 -> 413 ;
414 [label="Appt_Month <= 4.5\ngini = 0.444\nsamples = 6\nvalue = [4, 2]"] ;
412 -> 414 ;
415 [label="gini = 0.0\nsamples = 2\nvalue = [0, 2]"] ;
414 -> 415 ;
416 [label="gini = 0.0\nsamples = 4\nvalue = [4, 0]"] ;
414 -> 416 ;
417 [label="Appt_Made_Day <= 14.0\ngini = 0.499\nsamples = 23\nvalue = [11, 12]"] ;
397 -> 417 ;
418 [label="Appt_Day <= 27.0\ngini = 0.245\nsamples = 7\nvalue = [1, 6]"] ;
417 -> 418 ;
419 [label="gini = 0.0\nsamples = 6\nvalue = [0, 6]"] ;
418 -> 419 ;
420 [label="gini = 0.0\nsamples = 1\nvalue = [1, 0]"] ;
418 -> 420 ;
421 [label="Appt_Made_Min <= 22.5\ngini = 0.469\nsamples = 16\nvalue = [10, 6]"] ;
417 -> 421 ;
422 [label="gini = 0.0\nsamples = 6\nvalue = [6, 0]"] ;
421 -> 422 ;
423 [label="Unnamed: 0 <= 119772.0\ngini = 0.48\nsamples = 10\nvalue = [4, 6]"] ;
421 -> 423 ;
424 [label="gini = 0.0\nsamples = 4\nvalue = [0, 4]"] ;
423 -> 424 ;
425 [label="diff_pay_count <= 0.5\ngini = 0.444\nsamples = 6\nvalue = [4, 2]"] ;
423 -> 425 ;
426 [label="gini = 0.0\nsamples = 4\nvalue = [4, 0]"] ;
425 -> 426 ;
427 [label="gini = 0.0\nsamples = 2\nvalue = [0, 2]"] ;
425 -> 427 ;
428 [label="Appt_Month <= 8.5\ngini = 0.285\nsamples = 58\nvalue = [48, 10]"] ;
396 -> 428 ;
429 [label="Distance <= 0.003\ngini = 0.071\nsamples = 27\nvalue = [26, 1]"] ;
428 -> 429 ;
430 [label="Unnamed: 0 <= 125416.5\ngini = 0.5\nsamples = 2\nvalue = [1, 1]"] ;
429 -> 430 ;
431 [label="gini = 0.0\nsamples = 1\nvalue = [1, 0]"] ;
430 -> 431 ;
432 [label="gini = 0.0\nsamples = 1\nvalue = [0, 1]"] ;
430 -> 432 ;
433 [label="gini = 0.0\nsamples = 25\nvalue = [25, 0]"] ;
429 -> 433 ;
434 [label="Dept_ID <= 16.5\ngini = 0.412\nsamples = 31\nvalue = [22, 9]"] ;
428 -> 434 ;
435 [label="Unnamed: 0 <= 125472.5\ngini = 0.236\nsamples = 22\nvalue = [19, 3]"] ;
434 -> 435 ;
436 [label="Provider_ID <= 82.5\ngini = 0.095\nsamples = 20\nvalue = [19, 1]"] ;
435 -> 436 ;
437 [label="gini = 0.0\nsamples = 17\nvalue = [17, 0]"] ;
436 -> 437 ;
438 [label="Distance <= 0.005\ngini = 0.444\nsamples = 3\nvalue = [2, 1]"] ;
436 -> 438 ;
439 [label="gini = 0.0\nsamples = 1\nvalue = [0, 1]"] ;
438 -> 439 ;
440 [label="gini = 0.0\nsamples = 2\nvalue = [2, 0]"] ;
438 -> 440 ;
441 [label="gini = 0.0\nsamples = 2\nvalue = [0, 2]"] ;
435 -> 441 ;
442 [label="Appt_Made_Day <= 11.5\ngini = 0.444\nsamples = 9\nvalue = [3, 6]"] ;
434 -> 442 ;
443 [label="Appt_Made_Hour <= 11.5\ngini = 0.375\nsamples = 4\nvalue = [3, 1]"] ;
442 -> 443 ;
444 [label="gini = 0.0\nsamples = 1\nvalue = [0, 1]"] ;
443 -> 444 ;
445 [label="gini = 0.0\nsamples = 3\nvalue = [3, 0]"] ;
443 -> 445 ;
446 [label="gini = 0.0\nsamples = 5\nvalue = [0, 5]"] ;
442 -> 446 ;
447 [label="Provider_ID <= 38.5\ngini = 0.381\nsamples = 211\nvalue = [157, 54]"] ;
261 -> 447 ;
448 [label="Appt_Month <= 7.5\ngini = 0.288\nsamples = 103\nvalue = [85, 18]"] ;
447 -> 448 ;
449 [label="Duration <= 0.015\ngini = 0.133\nsamples = 56\nvalue = [52, 4]"] ;
448 -> 449 ;
450 [label="gini = 0.0\nsamples = 40\nvalue = [40, 0]"] ;
449 -> 450 ;
451 [label="Appt_Made_Day <= 18.5\ngini = 0.375\nsamples = 16\nvalue = [12, 4]"] ;
449 -> 451 ;
452 [label="gini = 0.0\nsamples = 7\nvalue = [7, 0]"] ;
451 -> 452 ;
453 [label="Made_Lead_Days_Calendar <= 15.5\ngini = 0.494\nsamples = 9\nvalue = [5, 4]"] ;
451 -> 453 ;
454 [label="Appt_Made_Day <= 20.5\ngini = 0.278\nsamples = 6\nvalue = [5, 1]"] ;
453 -> 454 ;
455 [label="gini = 0.0\nsamples = 1\nvalue = [0, 1]"] ;
454 -> 455 ;
456 [label="gini = 0.0\nsamples = 5\nvalue = [5, 0]"] ;
454 -> 456 ;
457 [label="gini = 0.0\nsamples = 3\nvalue = [0, 3]"] ;
453 -> 457 ;
458 [label="Duration <= 0.028\ngini = 0.418\nsamples = 47\nvalue = [33, 14]"] ;
448 -> 458 ;
459 [label="distance <= 7.46\ngini = 0.363\nsamples = 42\nvalue = [32, 10]"] ;
458 -> 459 ;
460 [label="gini = 0.0\nsamples = 2\nvalue = [0, 2]"] ;
459 -> 460 ;
461 [label="Appt_Made_Hour <= 12.5\ngini = 0.32\nsamples = 40\nvalue = [32, 8]"] ;
459 -> 461 ;
462 [label="gini = 0.0\nsamples = 16\nvalue = [16, 0]"] ;
461 -> 462 ;
463 [label="Appt_Month <= 9.5\ngini = 0.444\nsamples = 24\nvalue = [16, 8]"] ;
461 -> 463 ;
464 [label="Provider_ID <= 17.0\ngini = 0.486\nsamples = 12\nvalue = [5, 7]"] ;
463 -> 464 ;
465 [label="gini = 0.0\nsamples = 4\nvalue = [4, 0]"] ;
464 -> 465 ;
466 [label="Appt_Made_Min <= 6.0\ngini = 0.219\nsamples = 8\nvalue = [1, 7]"] ;
464 -> 466 ;
467 [label="gini = 0.0\nsamples = 1\nvalue = [1, 0]"] ;
466 -> 467 ;
468 [label="gini = 0.0\nsamples = 7\nvalue = [0, 7]"] ;
466 -> 468 ;
469 [label="Appt_Logistics_Type_ID <= 1.5\ngini = 0.153\nsamples = 12\nvalue = [11, 1]"] ;
463 -> 469 ;
470 [label="gini = 0.0\nsamples = 10\nvalue = [10, 0]"] ;
469 -> 470 ;
471 [label="Made_Lead_Days_Calendar <= 7.0\ngini = 0.5\nsamples = 2\nvalue = [1, 1]"] ;
469 -> 471 ;
472 [label="gini = 0.0\nsamples = 1\nvalue = [0, 1]"] ;
471 -> 472 ;
473 [label="gini = 0.0\nsamples = 1\nvalue = [1, 0]"] ;
471 -> 473 ;
474 [label="Distance <= 0.042\ngini = 0.32\nsamples = 5\nvalue = [1, 4]"] ;
458 -> 474 ;
475 [label="gini = 0.0\nsamples = 4\nvalue = [0, 4]"] ;
474 -> 475 ;
476 [label="gini = 0.0\nsamples = 1\nvalue = [1, 0]"] ;
474 -> 476 ;
477 [label="Appt_Made_Month <= 1.5\ngini = 0.444\nsamples = 108\nvalue = [72, 36]"] ;
447 -> 477 ;
478 [label="count_app <= 0.5\ngini = 0.444\nsamples = 9\nvalue = [3, 6]"] ;
477 -> 478 ;
479 [label="PopDensity <= 359.85\ngini = 0.375\nsamples = 4\nvalue = [3, 1]"] ;
478 -> 479 ;
480 [label="gini = 0.0\nsamples = 1\nvalue = [0, 1]"] ;
479 -> 480 ;
481 [label="gini = 0.0\nsamples = 3\nvalue = [3, 0]"] ;
479 -> 481 ;
482 [label="gini = 0.0\nsamples = 5\nvalue = [0, 5]"] ;
478 -> 482 ;
483 [label="Appt_Made_Min <= 49.5\ngini = 0.422\nsamples = 99\nvalue = [69, 30]"] ;
477 -> 483 ;
484 [label="Distance <= 0.008\ngini = 0.452\nsamples = 87\nvalue = [57, 30]"] ;
483 -> 484 ;
485 [label="distance <= 23.356\ngini = 0.494\nsamples = 54\nvalue = [30, 24]"] ;
484 -> 485 ;
486 [label="Appt_Made_Day <= 28.5\ngini = 0.48\nsamples = 50\nvalue = [30, 20]"] ;
485 -> 486 ;
487 [label="Appt_Made_Day <= 24.5\ngini = 0.462\nsamples = 47\nvalue = [30, 17]"] ;
486 -> 487 ;
488 [label="Appt_Made_Year <= 2016.5\ngini = 0.489\nsamples = 40\nvalue = [23, 17]"] ;
487 -> 488 ;
489 [label="Made_Lead_Days_Calendar <= 14.5\ngini = 0.497\nsamples = 24\nvalue = [11, 13]"] ;
488 -> 489 ;
490 [label="Appt_Time_Min <= 25.0\ngini = 0.48\nsamples = 15\nvalue = [9, 6]"] ;
489 -> 490 ;
491 [label="Distance <= 0.001\ngini = 0.245\nsamples = 7\nvalue = [6, 1]"] ;
490 -> 491 ;
492 [label="gini = 0.0\nsamples = 1\nvalue = [0, 1]"] ;
491 -> 492 ;
493 [label="gini = 0.0\nsamples = 6\nvalue = [6, 0]"] ;
491 -> 493 ;
494 [label="PopDensity <= 904.2\ngini = 0.469\nsamples = 8\nvalue = [3, 5]"] ;
490 -> 494 ;
495 [label="Appt_Time_Hour <= 8.5\ngini = 0.278\nsamples = 6\nvalue = [1, 5]"] ;
494 -> 495 ;
496 [label="gini = 0.0\nsamples = 1\nvalue = [1, 0]"] ;
495 -> 496 ;
497 [label="gini = 0.0\nsamples = 5\nvalue = [0, 5]"] ;
495 -> 497 ;
498 [label="gini = 0.0\nsamples = 2\nvalue = [2, 0]"] ;
494 -> 498 ;
499 [label="Appt_Made_Min <= 5.5\ngini = 0.346\nsamples = 9\nvalue = [2, 7]"] ;
489 -> 499 ;
500 [label="gini = 0.0\nsamples = 1\nvalue = [1, 0]"] ;
499 -> 500 ;
501 [label="Distance <= 0.005\ngini = 0.219\nsamples = 8\nvalue = [1, 7]"] ;
499 -> 501 ;
502 [label="gini = 0.0\nsamples = 7\nvalue = [0, 7]"] ;
501 -> 502 ;
503 [label="gini = 0.0\nsamples = 1\nvalue = [1, 0]"] ;
501 -> 503 ;
504 [label="Distance <= 0.005\ngini = 0.375\nsamples = 16\nvalue = [12, 4]"] ;
488 -> 504 ;
505 [label="Appt_Made_Hour <= 9.5\ngini = 0.245\nsamples = 14\nvalue = [12, 2]"] ;
504 -> 505 ;
506 [label="Made_Lead_Days_Work <= 8.5\ngini = 0.444\nsamples = 3\nvalue = [1, 2]"] ;
505 -> 506 ;
507 [label="gini = 0.0\nsamples = 1\nvalue = [1, 0]"] ;
506 -> 507 ;
508 [label="gini = 0.0\nsamples = 2\nvalue = [0, 2]"] ;
506 -> 508 ;
509 [label="gini = 0.0\nsamples = 11\nvalue = [11, 0]"] ;
505 -> 509 ;
510 [label="gini = 0.0\nsamples = 2\nvalue = [0, 2]"] ;
504 -> 510 ;
511 [label="gini = 0.0\nsamples = 7\nvalue = [7, 0]"] ;
487 -> 511 ;
512 [label="gini = 0.0\nsamples = 3\nvalue = [0, 3]"] ;
486 -> 512 ;
513 [label="gini = 0.0\nsamples = 4\nvalue = [0, 4]"] ;
485 -> 513 ;
514 [label="PopDensity <= 1483.75\ngini = 0.298\nsamples = 33\nvalue = [27, 6]"] ;
484 -> 514 ;
515 [label="Appt_Made_Day <= 29.5\ngini = 0.225\nsamples = 31\nvalue = [27, 4]"] ;
514 -> 515 ;
516 [label="Distance <= 0.017\ngini = 0.18\nsamples = 30\nvalue = [27, 3]"] ;
515 -> 516 ;
517 [label="Appt_Made_Day <= 4.0\ngini = 0.077\nsamples = 25\nvalue = [24, 1]"] ;
516 -> 517 ;
518 [label="diff_pay_count <= 0.5\ngini = 0.375\nsamples = 4\nvalue = [3, 1]"] ;
517 -> 518 ;
519 [label="gini = 0.0\nsamples = 1\nvalue = [0, 1]"] ;
518 -> 519 ;
520 [label="gini = 0.0\nsamples = 3\nvalue = [3, 0]"] ;
518 -> 520 ;
521 [label="gini = 0.0\nsamples = 21\nvalue = [21, 0]"] ;
517 -> 521 ;
522 [label="Distance <= 0.02\ngini = 0.48\nsamples = 5\nvalue = [3, 2]"] ;
516 -> 522 ;
523 [label="gini = 0.0\nsamples = 2\nvalue = [0, 2]"] ;
522 -> 523 ;
524 [label="gini = 0.0\nsamples = 3\nvalue = [3, 0]"] ;
522 -> 524 ;
525 [label="gini = 0.0\nsamples = 1\nvalue = [0, 1]"] ;
515 -> 525 ;
526 [label="gini = 0.0\nsamples = 2\nvalue = [0, 2]"] ;
514 -> 526 ;
527 [label="gini = 0.0\nsamples = 12\nvalue = [12, 0]"] ;
483 -> 527 ;
528 [label="distance <= 2.674\ngini = 0.215\nsamples = 49\nvalue = [43, 6]"] ;
260 -> 528 ;
529 [label="gini = 0.0\nsamples = 2\nvalue = [0, 2]"] ;
528 -> 529 ;
530 [label="Unnamed: 0 <= 39638.0\ngini = 0.156\nsamples = 47\nvalue = [43, 4]"] ;
528 -> 530 ;
531 [label="Made_Lead_Days_Work <= 10.5\ngini = 0.444\nsamples = 6\nvalue = [4, 2]"] ;
530 -> 531 ;
532 [label="gini = 0.0\nsamples = 2\nvalue = [0, 2]"] ;
531 -> 532 ;
533 [label="gini = 0.0\nsamples = 4\nvalue = [4, 0]"] ;
531 -> 533 ;
534 [label="Distance <= 0.002\ngini = 0.093\nsamples = 41\nvalue = [39, 2]"] ;
530 -> 534 ;
535 [label="Dept_ID <= 7.0\ngini = 0.444\nsamples = 6\nvalue = [4, 2]"] ;
534 -> 535 ;
536 [label="gini = 0.0\nsamples = 2\nvalue = [0, 2]"] ;
535 -> 536 ;
537 [label="gini = 0.0\nsamples = 4\nvalue = [4, 0]"] ;
535 -> 537 ;
538 [label="gini = 0.0\nsamples = 35\nvalue = [35, 0]"] ;
534 -> 538 ;
539 [label="Unnamed: 0 <= 10401.0\ngini = 0.351\nsamples = 696\nvalue = [538, 158]"] ;
259 -> 539 ;
540 [label="Appt_Time_Min <= 45.0\ngini = 0.443\nsamples = 142\nvalue = [95, 47]"] ;
539 -> 540 ;
541 [label="Unnamed: 0 <= 10289.5\ngini = 0.405\nsamples = 124\nvalue = [89, 35]"] ;
540 -> 541 ;
542 [label="Unnamed: 0 <= 6546.0\ngini = 0.377\nsamples = 119\nvalue = [89, 30]"] ;
541 -> 542 ;
543 [label="Appt_Made_Hour <= 9.5\ngini = 0.237\nsamples = 51\nvalue = [44, 7]"] ;
542 -> 543 ;
544 [label="Appt_Made_Day <= 9.0\ngini = 0.5\nsamples = 8\nvalue = [4, 4]"] ;
543 -> 544 ;
545 [label="gini = 0.0\nsamples = 3\nvalue = [3, 0]"] ;
544 -> 545 ;
546 [label="Duration <= 0.018\ngini = 0.32\nsamples = 5\nvalue = [1, 4]"] ;
544 -> 546 ;
547 [label="gini = 0.0\nsamples = 4\nvalue = [0, 4]"] ;
546 -> 547 ;
548 [label="gini = 0.0\nsamples = 1\nvalue = [1, 0]"] ;
546 -> 548 ;
549 [label="Appt_Made_Min <= 40.0\ngini = 0.13\nsamples = 43\nvalue = [40, 3]"] ;
543 -> 549 ;
550 [label="gini = 0.0\nsamples = 28\nvalue = [28, 0]"] ;
549 -> 550 ;
551 [label="Appt_Day <= 7.5\ngini = 0.32\nsamples = 15\nvalue = [12, 3]"] ;
549 -> 551 ;
552 [label="Patient_Age_Bucket_ID <= 2.5\ngini = 0.444\nsamples = 3\nvalue = [1, 2]"] ;
551 -> 552 ;
553 [label="gini = 0.0\nsamples = 1\nvalue = [1, 0]"] ;
552 -> 553 ;
554 [label="gini = 0.0\nsamples = 2\nvalue = [0, 2]"] ;
552 -> 554 ;
555 [label="Appt_Made_Min <= 42.5\ngini = 0.153\nsamples = 12\nvalue = [11, 1]"] ;
551 -> 555 ;
556 [label="Appt_Month <= 4.0\ngini = 0.5\nsamples = 2\nvalue = [1, 1]"] ;
555 -> 556 ;
557 [label="gini = 0.0\nsamples = 1\nvalue = [1, 0]"] ;
556 -> 557 ;
558 [label="gini = 0.0\nsamples = 1\nvalue = [0, 1]"] ;
556 -> 558 ;
559 [label="gini = 0.0\nsamples = 10\nvalue = [10, 0]"] ;
555 -> 559 ;
560 [label="Duration <= 0.008\ngini = 0.448\nsamples = 68\nvalue = [45, 23]"] ;
542 -> 560 ;
561 [label="Patient_Age_Bucket_ID <= 1.5\ngini = 0.18\nsamples = 20\nvalue = [18, 2]"] ;
560 -> 561 ;
562 [label="Appt_Made_Day <= 8.5\ngini = 0.444\nsamples = 3\nvalue = [1, 2]"] ;
561 -> 562 ;
563 [label="gini = 0.0\nsamples = 1\nvalue = [1, 0]"] ;
562 -> 563 ;
564 [label="gini = 0.0\nsamples = 2\nvalue = [0, 2]"] ;
562 -> 564 ;
565 [label="gini = 0.0\nsamples = 17\nvalue = [17, 0]"] ;
561 -> 565 ;
566 [label="Distance <= 0.005\ngini = 0.492\nsamples = 48\nvalue = [27, 21]"] ;
560 -> 566 ;
567 [label="distance <= 9.416\ngini = 0.415\nsamples = 17\nvalue = [5, 12]"] ;
566 -> 567 ;
568 [label="count_cancel <= 1.5\ngini = 0.32\nsamples = 5\nvalue = [4, 1]"] ;
567 -> 568 ;
569 [label="gini = 0.0\nsamples = 4\nvalue = [4, 0]"] ;
568 -> 569 ;
570 [label="gini = 0.0\nsamples = 1\nvalue = [0, 1]"] ;
568 -> 570 ;
571 [label="Appt_Made_Month <= 2.5\ngini = 0.153\nsamples = 12\nvalue = [1, 11]"] ;
567 -> 571 ;
572 [label="Appt_Made_Hour <= 14.0\ngini = 0.5\nsamples = 2\nvalue = [1, 1]"] ;
571 -> 572 ;
573 [label="gini = 0.0\nsamples = 1\nvalue = [0, 1]"] ;
572 -> 573 ;
574 [label="gini = 0.0\nsamples = 1\nvalue = [1, 0]"] ;
572 -> 574 ;
575 [label="gini = 0.0\nsamples = 10\nvalue = [0, 10]"] ;
571 -> 575 ;
576 [label="Visit_Type_ID <= 15.5\ngini = 0.412\nsamples = 31\nvalue = [22, 9]"] ;
566 -> 576 ;
577 [label="gini = 0.0\nsamples = 10\nvalue = [10, 0]"] ;
576 -> 577 ;
578 [label="Appt_Made_Day <= 18.5\ngini = 0.49\nsamples = 21\nvalue = [12, 9]"] ;
576 -> 578 ;
579 [label="Appt_Time_Hour <= 8.5\ngini = 0.32\nsamples = 10\nvalue = [8, 2]"] ;
578 -> 579 ;
580 [label="gini = 0.0\nsamples = 2\nvalue = [0, 2]"] ;
579 -> 580 ;
581 [label="gini = 0.0\nsamples = 8\nvalue = [8, 0]"] ;
579 -> 581 ;
582 [label="Appt_Made_Day <= 27.5\ngini = 0.463\nsamples = 11\nvalue = [4, 7]"] ;
578 -> 582 ;
583 [label="Appt_Made_Min <= 35.0\ngini = 0.219\nsamples = 8\nvalue = [1, 7]"] ;
582 -> 583 ;
584 [label="gini = 0.0\nsamples = 7\nvalue = [0, 7]"] ;
583 -> 584 ;
585 [label="gini = 0.0\nsamples = 1\nvalue = [1, 0]"] ;
583 -> 585 ;
586 [label="gini = 0.0\nsamples = 3\nvalue = [3, 0]"] ;
582 -> 586 ;
587 [label="gini = 0.0\nsamples = 5\nvalue = [0, 5]"] ;
541 -> 587 ;
588 [label="Appt_Made_Min <= 4.5\ngini = 0.444\nsamples = 18\nvalue = [6, 12]"] ;
540 -> 588 ;
589 [label="gini = 0.0\nsamples = 2\nvalue = [2, 0]"] ;
588 -> 589 ;
590 [label="Appt_Made_Min <= 48.5\ngini = 0.375\nsamples = 16\nvalue = [4, 12]"] ;
588 -> 590 ;
591 [label="Appt_Made_Month <= 10.0\ngini = 0.153\nsamples = 12\nvalue = [1, 11]"] ;
590 -> 591 ;
592 [label="gini = 0.0\nsamples = 10\nvalue = [0, 10]"] ;
591 -> 592 ;
593 [label="Appt_Made_Day <= 20.0\ngini = 0.5\nsamples = 2\nvalue = [1, 1]"] ;
591 -> 593 ;
594 [label="gini = 0.0\nsamples = 1\nvalue = [0, 1]"] ;
593 -> 594 ;
595 [label="gini = 0.0\nsamples = 1\nvalue = [1, 0]"] ;
593 -> 595 ;
596 [label="Provider_ID <= 66.0\ngini = 0.375\nsamples = 4\nvalue = [3, 1]"] ;
590 -> 596 ;
597 [label="gini = 0.0\nsamples = 3\nvalue = [3, 0]"] ;
596 -> 597 ;
598 [label="gini = 0.0\nsamples = 1\nvalue = [0, 1]"] ;
596 -> 598 ;
599 [label="Distance <= 0.009\ngini = 0.32\nsamples = 554\nvalue = [443, 111]"] ;
539 -> 599 ;
600 [label="Duration <= 0.012\ngini = 0.294\nsamples = 453\nvalue = [372, 81]"] ;
599 -> 600 ;
601 [label="Appt_Made_Min <= 43.5\ngini = 0.327\nsamples = 374\nvalue = [297, 77]"] ;
600 -> 601 ;
602 [label="distance <= 20.986\ngini = 0.373\nsamples = 258\nvalue = [194, 64]"] ;
601 -> 602 ;
603 [label="Appt_Made_Hour <= 12.5\ngini = 0.344\nsamples = 231\nvalue = [180, 51]"] ;
602 -> 603 ;
604 [label="Appt_Time_Hour <= 14.5\ngini = 0.259\nsamples = 118\nvalue = [100, 18]"] ;
603 -> 604 ;
605 [label="PopDensity <= 3658.8\ngini = 0.232\nsamples = 112\nvalue = [97, 15]"] ;
604 -> 605 ;
606 [label="distance <= 2.07\ngini = 0.22\nsamples = 111\nvalue = [97, 14]"] ;
605 -> 606 ;
607 [label="gini = 0.0\nsamples = 1\nvalue = [0, 1]"] ;
606 -> 607 ;
608 [label="Appt_Made_Min <= 39.0\ngini = 0.208\nsamples = 110\nvalue = [97, 13]"] ;
606 -> 608 ;
609 [label="Appt_Time_Min <= 25.0\ngini = 0.154\nsamples = 95\nvalue = [87, 8]"] ;
608 -> 609 ;
610 [label="PopDensity <= 2702.5\ngini = 0.044\nsamples = 44\nvalue = [43, 1]"] ;
609 -> 610 ;
611 [label="gini = 0.0\nsamples = 35\nvalue = [35, 0]"] ;
610 -> 611 ;
612 [label="Patient_Age_Bucket_ID <= 1.5\ngini = 0.198\nsamples = 9\nvalue = [8, 1]"] ;
610 -> 612 ;
613 [label="diff_pay_count <= 0.5\ngini = 0.5\nsamples = 2\nvalue = [1, 1]"] ;
612 -> 613 ;
614 [label="gini = 0.0\nsamples = 1\nvalue = [1, 0]"] ;
613 -> 614 ;
615 [label="gini = 0.0\nsamples = 1\nvalue = [0, 1]"] ;
613 -> 615 ;
616 [label="gini = 0.0\nsamples = 7\nvalue = [7, 0]"] ;
612 -> 616 ;
617 [label="Appt_Made_Min <= 16.5\ngini = 0.237\nsamples = 51\nvalue = [44, 7]"] ;
609 -> 617 ;
618 [label="Appt_Made_Min <= 14.5\ngini = 0.397\nsamples = 22\nvalue = [16, 6]"] ;
617 -> 618 ;
619 [label="Unnamed: 0 <= 25299.0\ngini = 0.266\nsamples = 19\nvalue = [16, 3]"] ;
618 -> 619 ;
620 [label="Appt_Month <= 4.0\ngini = 0.444\nsamples = 3\nvalue = [1, 2]"] ;
619 -> 620 ;
621 [label="gini = 0.0\nsamples = 1\nvalue = [1, 0]"] ;
620 -> 621 ;
622 [label="gini = 0.0\nsamples = 2\nvalue = [0, 2]"] ;
620 -> 622 ;
623 [label="Provider_ID <= 83.0\ngini = 0.117\nsamples = 16\nvalue = [15, 1]"] ;
619 -> 623 ;
624 [label="gini = 0.0\nsamples = 13\nvalue = [13, 0]"] ;
623 -> 624 ;
625 [label="Made_Lead_Days_Calendar <= 16.5\ngini = 0.444\nsamples = 3\nvalue = [2, 1]"] ;
623 -> 625 ;
626 [label="gini = 0.0\nsamples = 1\nvalue = [0, 1]"] ;
625 -> 626 ;
627 [label="gini = 0.0\nsamples = 2\nvalue = [2, 0]"] ;
625 -> 627 ;
628 [label="gini = 0.0\nsamples = 3\nvalue = [0, 3]"] ;
618 -> 628 ;
629 [label="Appt_Made_Day <= 30.0\ngini = 0.067\nsamples = 29\nvalue = [28, 1]"] ;
617 -> 629 ;
630 [label="gini = 0.0\nsamples = 27\nvalue = [27, 0]"] ;
629 -> 630 ;
631 [label="distance <= 9.795\ngini = 0.5\nsamples = 2\nvalue = [1, 1]"] ;
629 -> 631 ;
632 [label="gini = 0.0\nsamples = 1\nvalue = [1, 0]"] ;
631 -> 632 ;
633 [label="gini = 0.0\nsamples = 1\nvalue = [0, 1]"] ;
631 -> 633 ;
634 [label="Appt_Time_Min <= 35.0\ngini = 0.444\nsamples = 15\nvalue = [10, 5]"] ;
608 -> 634 ;
635 [label="Duration <= 0.005\ngini = 0.278\nsamples = 12\nvalue = [10, 2]"] ;
634 -> 635 ;
636 [label="Appt_Month <= 1.5\ngini = 0.444\nsamples = 3\nvalue = [1, 2]"] ;
635 -> 636 ;
637 [label="gini = 0.0\nsamples = 1\nvalue = [1, 0]"] ;
636 -> 637 ;
638 [label="gini = 0.0\nsamples = 2\nvalue = [0, 2]"] ;
636 -> 638 ;
639 [label="gini = 0.0\nsamples = 9\nvalue = [9, 0]"] ;
635 -> 639 ;
640 [label="gini = 0.0\nsamples = 3\nvalue = [0, 3]"] ;
634 -> 640 ;
641 [label="gini = 0.0\nsamples = 1\nvalue = [0, 1]"] ;
605 -> 641 ;
642 [label="Appt_Made_Day <= 10.5\ngini = 0.5\nsamples = 6\nvalue = [3, 3]"] ;
604 -> 642 ;
643 [label="gini = 0.0\nsamples = 3\nvalue = [3, 0]"] ;
642 -> 643 ;
644 [label="gini = 0.0\nsamples = 3\nvalue = [0, 3]"] ;
642 -> 644 ;
645 [label="Dept_ID <= 16.5\ngini = 0.414\nsamples = 113\nvalue = [80, 33]"] ;
603 -> 645 ;
646 [label="Appt_Logistics_Type_ID <= 3.0\ngini = 0.254\nsamples = 47\nvalue = [40, 7]"] ;
645 -> 646 ;
647 [label="Appt_Time_Hour <= 9.5\ngini = 0.227\nsamples = 46\nvalue = [40, 6]"] ;
646 -> 647 ;
648 [label="Distance <= 0.004\ngini = 0.408\nsamples = 14\nvalue = [10, 4]"] ;
647 -> 648 ;
649 [label="distance <= 9.501\ngini = 0.5\nsamples = 8\nvalue = [4, 4]"] ;
648 -> 649 ;
650 [label="gini = 0.0\nsamples = 3\nvalue = [3, 0]"] ;
649 -> 650 ;
651 [label="Duration <= 0.008\ngini = 0.32\nsamples = 5\nvalue = [1, 4]"] ;
649 -> 651 ;
652 [label="gini = 0.0\nsamples = 4\nvalue = [0, 4]"] ;
651 -> 652 ;
653 [label="gini = 0.0\nsamples = 1\nvalue = [1, 0]"] ;
651 -> 653 ;
654 [label="gini = 0.0\nsamples = 6\nvalue = [6, 0]"] ;
648 -> 654 ;
655 [label="Appt_Time_Min <= 45.0\ngini = 0.117\nsamples = 32\nvalue = [30, 2]"] ;
647 -> 655 ;
656 [label="diff_pay_count <= 2.5\ngini = 0.062\nsamples = 31\nvalue = [30, 1]"] ;
655 -> 656 ;
657 [label="gini = 0.0\nsamples = 27\nvalue = [27, 0]"] ;
656 -> 657 ;
658 [label="Appt_Made_Day <= 7.5\ngini = 0.375\nsamples = 4\nvalue = [3, 1]"] ;
656 -> 658 ;
659 [label="gini = 0.0\nsamples = 1\nvalue = [0, 1]"] ;
658 -> 659 ;
660 [label="gini = 0.0\nsamples = 3\nvalue = [3, 0]"] ;
658 -> 660 ;
661 [label="gini = 0.0\nsamples = 1\nvalue = [0, 1]"] ;
655 -> 661 ;
662 [label="gini = 0.0\nsamples = 1\nvalue = [0, 1]"] ;
646 -> 662 ;
663 [label="Appt_Month <= 3.5\ngini = 0.478\nsamples = 66\nvalue = [40, 26]"] ;
645 -> 663 ;
664 [label="Distance <= 0.005\ngini = 0.33\nsamples = 24\nvalue = [19, 5]"] ;
663 -> 664 ;
665 [label="Patient_Age_Bucket_ID <= 0.5\ngini = 0.111\nsamples = 17\nvalue = [16, 1]"] ;
664 -> 665 ;
666 [label="gini = 0.0\nsamples = 1\nvalue = [0, 1]"] ;
665 -> 666 ;
667 [label="gini = 0.0\nsamples = 16\nvalue = [16, 0]"] ;
665 -> 667 ;
668 [label="Distance <= 0.005\ngini = 0.49\nsamples = 7\nvalue = [3, 4]"] ;
664 -> 668 ;
669 [label="gini = 0.0\nsamples = 3\nvalue = [0, 3]"] ;
668 -> 669 ;
670 [label="Made_Lead_Days_Calendar <= 7.5\ngini = 0.375\nsamples = 4\nvalue = [3, 1]"] ;
668 -> 670 ;
671 [label="gini = 0.0\nsamples = 1\nvalue = [0, 1]"] ;
670 -> 671 ;
672 [label="gini = 0.0\nsamples = 3\nvalue = [3, 0]"] ;
670 -> 672 ;
673 [label="Appt_Made_Hour <= 13.5\ngini = 0.5\nsamples = 42\nvalue = [21, 21]"] ;
663 -> 673 ;
674 [label="gini = 0.0\nsamples = 6\nvalue = [0, 6]"] ;
673 -> 674 ;
675 [label="distance <= 19.211\ngini = 0.486\nsamples = 36\nvalue = [21, 15]"] ;
673 -> 675 ;
676 [label="Appt_Made_Hour <= 14.5\ngini = 0.498\nsamples = 32\nvalue = [17, 15]"] ;
675 -> 676 ;
677 [label="Appt_Day <= 20.5\ngini = 0.355\nsamples = 13\nvalue = [10, 3]"] ;
676 -> 677 ;
678 [label="gini = 0.0\nsamples = 7\nvalue = [7, 0]"] ;
677 -> 678 ;
679 [label="Appt_Time_Min <= 5.0\ngini = 0.5\nsamples = 6\nvalue = [3, 3]"] ;
677 -> 679 ;
680 [label="gini = 0.0\nsamples = 2\nvalue = [2, 0]"] ;
679 -> 680 ;
681 [label="Appt_Logistics_Type_ID <= 1.0\ngini = 0.375\nsamples = 4\nvalue = [1, 3]"] ;
679 -> 681 ;
682 [label="gini = 0.0\nsamples = 3\nvalue = [0, 3]"] ;
681 -> 682 ;
683 [label="gini = 0.0\nsamples = 1\nvalue = [1, 0]"] ;
681 -> 683 ;
684 [label="Duration <= 0.005\ngini = 0.465\nsamples = 19\nvalue = [7, 12]"] ;
676 -> 684 ;
685 [label="Unnamed: 0 <= 130672.0\ngini = 0.32\nsamples = 5\nvalue = [4, 1]"] ;
684 -> 685 ;
686 [label="gini = 0.0\nsamples = 4\nvalue = [4, 0]"] ;
685 -> 686 ;
687 [label="gini = 0.0\nsamples = 1\nvalue = [0, 1]"] ;
685 -> 687 ;
688 [label="Appt_Time_Hour <= 12.0\ngini = 0.337\nsamples = 14\nvalue = [3, 11]"] ;
684 -> 688 ;
689 [label="Provider_ID <= 82.5\ngini = 0.48\nsamples = 5\nvalue = [3, 2]"] ;
688 -> 689 ;
690 [label="gini = 0.0\nsamples = 3\nvalue = [3, 0]"] ;
689 -> 690 ;
691 [label="gini = 0.0\nsamples = 2\nvalue = [0, 2]"] ;
689 -> 691 ;
692 [label="gini = 0.0\nsamples = 9\nvalue = [0, 9]"] ;
688 -> 692 ;
693 [label="gini = 0.0\nsamples = 4\nvalue = [4, 0]"] ;
675 -> 693 ;
694 [label="Appt_Time_Min <= 5.0\ngini = 0.499\nsamples = 27\nvalue = [14, 13]"] ;
602 -> 694 ;
695 [label="gini = 0.0\nsamples = 6\nvalue = [6, 0]"] ;
694 -> 695 ;
696 [label="Distance <= 0.008\ngini = 0.472\nsamples = 21\nvalue = [8, 13]"] ;
694 -> 696 ;
697 [label="Unnamed: 0 <= 91224.5\ngini = 0.36\nsamples = 17\nvalue = [4, 13]"] ;
696 -> 697 ;
698 [label="Patient_Age_Bucket_ID <= 2.0\ngini = 0.153\nsamples = 12\nvalue = [1, 11]"] ;
697 -> 698 ;
699 [label="distance <= 22.435\ngini = 0.5\nsamples = 2\nvalue = [1, 1]"] ;
698 -> 699 ;
700 [label="gini = 0.0\nsamples = 1\nvalue = [0, 1]"] ;
699 -> 700 ;
701 [label="gini = 0.0\nsamples = 1\nvalue = [1, 0]"] ;
699 -> 701 ;
702 [label="gini = 0.0\nsamples = 10\nvalue = [0, 10]"] ;
698 -> 702 ;
703 [label="diff_pay_count <= 0.5\ngini = 0.48\nsamples = 5\nvalue = [3, 2]"] ;
697 -> 703 ;
704 [label="gini = 0.0\nsamples = 3\nvalue = [3, 0]"] ;
703 -> 704 ;
705 [label="gini = 0.0\nsamples = 2\nvalue = [0, 2]"] ;
703 -> 705 ;
706 [label="gini = 0.0\nsamples = 4\nvalue = [4, 0]"] ;
696 -> 706 ;
707 [label="Unnamed: 0 <= 128410.5\ngini = 0.199\nsamples = 116\nvalue = [103, 13]"] ;
601 -> 707 ;
708 [label="Appt_Made_Day <= 18.5\ngini = 0.158\nsamples = 104\nvalue = [95, 9]"] ;
707 -> 708 ;
709 [label="PopDensity <= 2665.035\ngini = 0.058\nsamples = 67\nvalue = [65, 2]"] ;
708 -> 709 ;
710 [label="gini = 0.0\nsamples = 50\nvalue = [50, 0]"] ;
709 -> 710 ;
711 [label="Made_Lead_Days_Calendar <= 4.0\ngini = 0.208\nsamples = 17\nvalue = [15, 2]"] ;
709 -> 711 ;
712 [label="gini = 0.0\nsamples = 1\nvalue = [0, 1]"] ;
711 -> 712 ;
713 [label="Appt_Made_Min <= 44.5\ngini = 0.117\nsamples = 16\nvalue = [15, 1]"] ;
711 -> 713 ;
714 [label="gini = 0.0\nsamples = 1\nvalue = [0, 1]"] ;
713 -> 714 ;
715 [label="gini = 0.0\nsamples = 15\nvalue = [15, 0]"] ;
713 -> 715 ;
716 [label="Provider_ID <= 43.0\ngini = 0.307\nsamples = 37\nvalue = [30, 7]"] ;
708 -> 716 ;
717 [label="Appt_Made_Month <= 9.5\ngini = 0.48\nsamples = 15\nvalue = [9, 6]"] ;
716 -> 717 ;
718 [label="Appt_Month <= 4.5\ngini = 0.375\nsamples = 12\nvalue = [9, 3]"] ;
717 -> 718 ;
719 [label="Appt_Time_Hour <= 12.0\ngini = 0.48\nsamples = 5\nvalue = [2, 3]"] ;
718 -> 719 ;
720 [label="gini = 0.0\nsamples = 3\nvalue = [0, 3]"] ;
719 -> 720 ;
721 [label="gini = 0.0\nsamples = 2\nvalue = [2, 0]"] ;
719 -> 721 ;
722 [label="gini = 0.0\nsamples = 7\nvalue = [7, 0]"] ;
718 -> 722 ;
723 [label="gini = 0.0\nsamples = 3\nvalue = [0, 3]"] ;
717 -> 723 ;
724 [label="Made_Lead_Days_Calendar <= 24.0\ngini = 0.087\nsamples = 22\nvalue = [21, 1]"] ;
716 -> 724 ;
725 [label="gini = 0.0\nsamples = 20\nvalue = [20, 0]"] ;
724 -> 725 ;
726 [label="Appt_Day <= 19.5\ngini = 0.5\nsamples = 2\nvalue = [1, 1]"] ;
724 -> 726 ;
727 [label="gini = 0.0\nsamples = 1\nvalue = [1, 0]"] ;
726 -> 727 ;
728 [label="gini = 0.0\nsamples = 1\nvalue = [0, 1]"] ;
726 -> 728 ;
729 [label="Appt_Time_Hour <= 10.5\ngini = 0.444\nsamples = 12\nvalue = [8, 4]"] ;
707 -> 729 ;
730 [label="gini = 0.0\nsamples = 7\nvalue = [7, 0]"] ;
729 -> 730 ;
731 [label="Appt_Made_Hour <= 13.5\ngini = 0.32\nsamples = 5\nvalue = [1, 4]"] ;
729 -> 731 ;
732 [label="gini = 0.0\nsamples = 4\nvalue = [0, 4]"] ;
731 -> 732 ;
733 [label="gini = 0.0\nsamples = 1\nvalue = [1, 0]"] ;
731 -> 733 ;
734 [label="Unnamed: 0 <= 132316.5\ngini = 0.096\nsamples = 79\nvalue = [75, 4]"] ;
600 -> 734 ;
735 [label="Appt_Day <= 26.0\ngini = 0.074\nsamples = 78\nvalue = [75, 3]"] ;
734 -> 735 ;
736 [label="PopDensity <= 1875.725\ngini = 0.029\nsamples = 68\nvalue = [67, 1]"] ;
735 -> 736 ;
737 [label="Appt_Day <= 6.0\ngini = 0.5\nsamples = 2\nvalue = [1, 1]"] ;
736 -> 737 ;
738 [label="gini = 0.0\nsamples = 1\nvalue = [0, 1]"] ;
737 -> 738 ;
739 [label="gini = 0.0\nsamples = 1\nvalue = [1, 0]"] ;
737 -> 739 ;
740 [label="gini = 0.0\nsamples = 66\nvalue = [66, 0]"] ;
736 -> 740 ;
741 [label="Appt_Time_Hour <= 8.5\ngini = 0.32\nsamples = 10\nvalue = [8, 2]"] ;
735 -> 741 ;
742 [label="gini = 0.0\nsamples = 1\nvalue = [0, 1]"] ;
741 -> 742 ;
743 [label="Duration <= 0.014\ngini = 0.198\nsamples = 9\nvalue = [8, 1]"] ;
741 -> 743 ;
744 [label="gini = 0.0\nsamples = 8\nvalue = [8, 0]"] ;
743 -> 744 ;
745 [label="gini = 0.0\nsamples = 1\nvalue = [0, 1]"] ;
743 -> 745 ;
746 [label="gini = 0.0\nsamples = 1\nvalue = [0, 1]"] ;
734 -> 746 ;
747 [label="Duration <= 0.017\ngini = 0.418\nsamples = 101\nvalue = [71, 30]"] ;
599 -> 747 ;
748 [label="Unnamed: 0 <= 25562.5\ngini = 0.5\nsamples = 35\nvalue = [18, 17]"] ;
747 -> 748 ;
749 [label="gini = 0.0\nsamples = 9\nvalue = [0, 9]"] ;
748 -> 749 ;
750 [label="Appt_Time_Min <= 25.0\ngini = 0.426\nsamples = 26\nvalue = [18, 8]"] ;
748 -> 750 ;
751 [label="Unnamed: 0 <= 129686.5\ngini = 0.219\nsamples = 16\nvalue = [14, 2]"] ;
750 -> 751 ;
752 [label="gini = 0.0\nsamples = 13\nvalue = [13, 0]"] ;
751 -> 752 ;
753 [label="Appt_Made_Month <= 9.5\ngini = 0.444\nsamples = 3\nvalue = [1, 2]"] ;
751 -> 753 ;
754 [label="gini = 0.0\nsamples = 2\nvalue = [0, 2]"] ;
753 -> 754 ;
755 [label="gini = 0.0\nsamples = 1\nvalue = [1, 0]"] ;
753 -> 755 ;
756 [label="Distance <= 0.01\ngini = 0.48\nsamples = 10\nvalue = [4, 6]"] ;
750 -> 756 ;
757 [label="gini = 0.0\nsamples = 4\nvalue = [4, 0]"] ;
756 -> 757 ;
758 [label="gini = 0.0\nsamples = 6\nvalue = [0, 6]"] ;
756 -> 758 ;
759 [label="Appt_Made_Min <= 52.5\ngini = 0.316\nsamples = 66\nvalue = [53, 13]"] ;
747 -> 759 ;
760 [label="Distance <= 0.08\ngini = 0.226\nsamples = 54\nvalue = [47, 7]"] ;
759 -> 760 ;
761 [label="count_cancel <= 3.5\ngini = 0.177\nsamples = 51\nvalue = [46, 5]"] ;
760 -> 761 ;
762 [label="PopDensity <= 2357.575\ngini = 0.147\nsamples = 50\nvalue = [46, 4]"] ;
761 -> 762 ;
763 [label="Appt_Time_Min <= 5.0\ngini = 0.42\nsamples = 10\nvalue = [7, 3]"] ;
762 -> 763 ;
764 [label="Patient_Age_Bucket_ID <= 1.5\ngini = 0.375\nsamples = 4\nvalue = [1, 3]"] ;
763 -> 764 ;
765 [label="gini = 0.0\nsamples = 1\nvalue = [1, 0]"] ;
764 -> 765 ;
766 [label="gini = 0.0\nsamples = 3\nvalue = [0, 3]"] ;
764 -> 766 ;
767 [label="gini = 0.0\nsamples = 6\nvalue = [6, 0]"] ;
763 -> 767 ;
768 [label="Distance <= 0.042\ngini = 0.049\nsamples = 40\nvalue = [39, 1]"] ;
762 -> 768 ;
769 [label="gini = 0.0\nsamples = 35\nvalue = [35, 0]"] ;
768 -> 769 ;
770 [label="Duration <= 0.05\ngini = 0.32\nsamples = 5\nvalue = [4, 1]"] ;
768 -> 770 ;
771 [label="gini = 0.0\nsamples = 1\nvalue = [0, 1]"] ;
770 -> 771 ;
772 [label="gini = 0.0\nsamples = 4\nvalue = [4, 0]"] ;
770 -> 772 ;
773 [label="gini = 0.0\nsamples = 1\nvalue = [0, 1]"] ;
761 -> 773 ;
774 [label="Appt_Made_Hour <= 13.5\ngini = 0.444\nsamples = 3\nvalue = [1, 2]"] ;
760 -> 774 ;
775 [label="gini = 0.0\nsamples = 2\nvalue = [0, 2]"] ;
774 -> 775 ;
776 [label="gini = 0.0\nsamples = 1\nvalue = [1, 0]"] ;
774 -> 776 ;
777 [label="Appt_Time_Min <= 15.0\ngini = 0.5\nsamples = 12\nvalue = [6, 6]"] ;
759 -> 777 ;
778 [label="gini = 0.0\nsamples = 4\nvalue = [0, 4]"] ;
777 -> 778 ;
779 [label="count_app <= 1.5\ngini = 0.375\nsamples = 8\nvalue = [6, 2]"] ;
777 -> 779 ;
780 [label="gini = 0.0\nsamples = 6\nvalue = [6, 0]"] ;
779 -> 780 ;
781 [label="gini = 0.0\nsamples = 2\nvalue = [0, 2]"] ;
779 -> 781 ;
782 [label="Distance <= 0.002\ngini = 0.486\nsamples = 125\nvalue = [73, 52]"] ;
92 -> 782 ;
783 [label="gini = 0.0\nsamples = 8\nvalue = [0, 8]"] ;
782 -> 783 ;
784 [label="PopDensity <= 473.9\ngini = 0.469\nsamples = 117\nvalue = [73, 44]"] ;
782 -> 784 ;
785 [label="Unnamed: 0 <= 107158.5\ngini = 0.375\nsamples = 12\nvalue = [3, 9]"] ;
784 -> 785 ;
786 [label="Appt_Made_Year <= 2016.5\ngini = 0.48\nsamples = 5\nvalue = [3, 2]"] ;
785 -> 786 ;
787 [label="gini = 0.0\nsamples = 2\nvalue = [0, 2]"] ;
786 -> 787 ;
788 [label="gini = 0.0\nsamples = 3\nvalue = [3, 0]"] ;
786 -> 788 ;
789 [label="gini = 0.0\nsamples = 7\nvalue = [0, 7]"] ;
785 -> 789 ;
790 [label="Appt_Made_Min <= 45.5\ngini = 0.444\nsamples = 105\nvalue = [70, 35]"] ;
784 -> 790 ;
791 [label="Unnamed: 0 <= 315.0\ngini = 0.39\nsamples = 83\nvalue = [61, 22]"] ;
790 -> 791 ;
792 [label="gini = 0.0\nsamples = 2\nvalue = [0, 2]"] ;
791 -> 792 ;
793 [label="Appt_Made_Hour <= 10.5\ngini = 0.372\nsamples = 81\nvalue = [61, 20]"] ;
791 -> 793 ;
794 [label="Made_Lead_Days_Work <= 160.0\ngini = 0.095\nsamples = 20\nvalue = [19, 1]"] ;
793 -> 794 ;
795 [label="gini = 0.0\nsamples = 18\nvalue = [18, 0]"] ;
794 -> 795 ;
796 [label="Distance <= 0.01\ngini = 0.5\nsamples = 2\nvalue = [1, 1]"] ;
794 -> 796 ;
797 [label="gini = 0.0\nsamples = 1\nvalue = [1, 0]"] ;
796 -> 797 ;
798 [label="gini = 0.0\nsamples = 1\nvalue = [0, 1]"] ;
796 -> 798 ;
799 [label="Made_Lead_Days_Work <= 125.5\ngini = 0.429\nsamples = 61\nvalue = [42, 19]"] ;
793 -> 799 ;
800 [label="Duration <= 0.005\ngini = 0.343\nsamples = 41\nvalue = [32, 9]"] ;
799 -> 800 ;
801 [label="gini = 0.0\nsamples = 2\nvalue = [0, 2]"] ;
800 -> 801 ;
802 [label="Dept_ID <= 1.5\ngini = 0.295\nsamples = 39\nvalue = [32, 7]"] ;
800 -> 802 ;
803 [label="gini = 0.0\nsamples = 2\nvalue = [0, 2]"] ;
802 -> 803 ;
804 [label="Provider_ID <= 9.0\ngini = 0.234\nsamples = 37\nvalue = [32, 5]"] ;
802 -> 804 ;
805 [label="Duration <= 0.011\ngini = 0.444\nsamples = 3\nvalue = [1, 2]"] ;
804 -> 805 ;
806 [label="gini = 0.0\nsamples = 1\nvalue = [1, 0]"] ;
805 -> 806 ;
807 [label="gini = 0.0\nsamples = 2\nvalue = [0, 2]"] ;
805 -> 807 ;
808 [label="Made_Lead_Days_Calendar <= 98.5\ngini = 0.161\nsamples = 34\nvalue = [31, 3]"] ;
804 -> 808 ;
809 [label="Provider_ID <= 36.0\ngini = 0.375\nsamples = 12\nvalue = [9, 3]"] ;
808 -> 809 ;
810 [label="gini = 0.0\nsamples = 7\nvalue = [7, 0]"] ;
809 -> 810 ;
811 [label="Dept_ID <= 15.5\ngini = 0.48\nsamples = 5\nvalue = [2, 3]"] ;
809 -> 811 ;
812 [label="gini = 0.0\nsamples = 2\nvalue = [2, 0]"] ;
811 -> 812 ;
813 [label="gini = 0.0\nsamples = 3\nvalue = [0, 3]"] ;
811 -> 813 ;
814 [label="gini = 0.0\nsamples = 22\nvalue = [22, 0]"] ;
808 -> 814 ;
815 [label="Provider_ID <= 26.5\ngini = 0.5\nsamples = 20\nvalue = [10, 10]"] ;
799 -> 815 ;
816 [label="Made_Lead_Days_Work <= 251.0\ngini = 0.278\nsamples = 6\nvalue = [1, 5]"] ;
815 -> 816 ;
817 [label="gini = 0.0\nsamples = 5\nvalue = [0, 5]"] ;
816 -> 817 ;
818 [label="gini = 0.0\nsamples = 1\nvalue = [1, 0]"] ;
816 -> 818 ;
819 [label="Patient_Age_Bucket_ID <= 1.5\ngini = 0.459\nsamples = 14\nvalue = [9, 5]"] ;
815 -> 819 ;
820 [label="gini = 0.0\nsamples = 2\nvalue = [0, 2]"] ;
819 -> 820 ;
821 [label="PopDensity <= 2665.035\ngini = 0.375\nsamples = 12\nvalue = [9, 3]"] ;
819 -> 821 ;
822 [label="distance <= 71.18\ngini = 0.198\nsamples = 9\nvalue = [8, 1]"] ;
821 -> 822 ;
823 [label="gini = 0.0\nsamples = 8\nvalue = [8, 0]"] ;
822 -> 823 ;
824 [label="gini = 0.0\nsamples = 1\nvalue = [0, 1]"] ;
822 -> 824 ;
825 [label="Visit_Type_ID <= 8.5\ngini = 0.444\nsamples = 3\nvalue = [1, 2]"] ;
821 -> 825 ;
826 [label="gini = 0.0\nsamples = 1\nvalue = [1, 0]"] ;
825 -> 826 ;
827 [label="gini = 0.0\nsamples = 2\nvalue = [0, 2]"] ;
825 -> 827 ;
828 [label="count_app <= 2.5\ngini = 0.483\nsamples = 22\nvalue = [9, 13]"] ;
790 -> 828 ;
829 [label="Appt_Month <= 7.5\ngini = 0.401\nsamples = 18\nvalue = [5, 13]"] ;
828 -> 829 ;
830 [label="gini = 0.0\nsamples = 10\nvalue = [0, 10]"] ;
829 -> 830 ;
831 [label="Appt_Day <= 10.0\ngini = 0.469\nsamples = 8\nvalue = [5, 3]"] ;
829 -> 831 ;
832 [label="gini = 0.0\nsamples = 4\nvalue = [4, 0]"] ;
831 -> 832 ;
833 [label="Appt_Made_Day <= 13.5\ngini = 0.375\nsamples = 4\nvalue = [1, 3]"] ;
831 -> 833 ;
834 [label="gini = 0.0\nsamples = 1\nvalue = [1, 0]"] ;
833 -> 834 ;
835 [label="gini = 0.0\nsamples = 3\nvalue = [0, 3]"] ;
833 -> 835 ;
836 [label="gini = 0.0\nsamples = 4\nvalue = [4, 0]"] ;
828 -> 836 ;
837 [label="Made_Lead_Days_Calendar <= 88.5\ngini = 0.155\nsamples = 57204\nvalue = [52368, 4836]"] ;
1 -> 837 ;
838 [label="Payor_Type_ID <= 3.5\ngini = 0.141\nsamples = 52139\nvalue = [48150, 3989]"] ;
837 -> 838 ;
839 [label="Payor_Type_ID <= 2.5\ngini = 0.159\nsamples = 40755\nvalue = [37203, 3552]"] ;
838 -> 839 ;
840 [label="PopDensity <= 2357.575\ngini = 0.08\nsamples = 11318\nvalue = [10843, 475]"] ;
839 -> 840 ;
841 [label="Patient_Age_Bucket_ID <= 2.5\ngini = 0.097\nsamples = 6585\nvalue = [6249, 336]"] ;
840 -> 841 ;
842 [label="Visit_Type_ID <= 11.5\ngini = 0.067\nsamples = 2616\nvalue = [2525, 91]"] ;
841 -> 842 ;
843 [label="Unnamed: 0 <= 35056.0\ngini = 0.25\nsamples = 116\nvalue = [99, 17]"] ;
842 -> 843 ;
844 [label="Made_Lead_Days_Calendar <= 12.0\ngini = 0.469\nsamples = 8\nvalue = [3, 5]"] ;
843 -> 844 ;
845 [label="Made_Lead_Days_Work <= 3.5\ngini = 0.375\nsamples = 4\nvalue = [3, 1]"] ;
844 -> 845 ;
846 [label="gini = 0.0\nsamples = 1\nvalue = [0, 1]"] ;
845 -> 846 ;
847 [label="gini = 0.0\nsamples = 3\nvalue = [3, 0]"] ;
845 -> 847 ;
848 [label="gini = 0.0\nsamples = 4\nvalue = [0, 4]"] ;
844 -> 848 ;
849 [label="PopDensity <= 1564.15\ngini = 0.198\nsamples = 108\nvalue = [96, 12]"] ;
843 -> 849 ;
850 [label="Appt_Month <= 1.5\ngini = 0.035\nsamples = 56\nvalue = [55, 1]"] ;
849 -> 850 ;
851 [label="Provider_ID <= 55.0\ngini = 0.444\nsamples = 3\nvalue = [2, 1]"] ;
850 -> 851 ;
852 [label="gini = 0.0\nsamples = 2\nvalue = [2, 0]"] ;
851 -> 852 ;
853 [label="gini = 0.0\nsamples = 1\nvalue = [0, 1]"] ;
851 -> 853 ;
854 [label="gini = 0.0\nsamples = 53\nvalue = [53, 0]"] ;
850 -> 854 ;
855 [label="Distance <= 0.024\ngini = 0.334\nsamples = 52\nvalue = [41, 11]"] ;
849 -> 855 ;
856 [label="Provider_ID <= 9.5\ngini = 0.278\nsamples = 48\nvalue = [40, 8]"] ;
855 -> 856 ;
857 [label="Appt_Length <= 37.5\ngini = 0.48\nsamples = 15\nvalue = [9, 6]"] ;
856 -> 857 ;
858 [label="Appt_Made_Min <= 24.0\ngini = 0.219\nsamples = 8\nvalue = [7, 1]"] ;
857 -> 858 ;
859 [label="count_app <= 0.5\ngini = 0.5\nsamples = 2\nvalue = [1, 1]"] ;
858 -> 859 ;
860 [label="gini = 0.0\nsamples = 1\nvalue = [0, 1]"] ;
859 -> 860 ;
861 [label="gini = 0.0\nsamples = 1\nvalue = [1, 0]"] ;
859 -> 861 ;
862 [label="gini = 0.0\nsamples = 6\nvalue = [6, 0]"] ;
858 -> 862 ;
863 [label="Appt_Made_Day <= 20.0\ngini = 0.408\nsamples = 7\nvalue = [2, 5]"] ;
857 -> 863 ;
864 [label="gini = 0.0\nsamples = 5\nvalue = [0, 5]"] ;
863 -> 864 ;
865 [label="gini = 0.0\nsamples = 2\nvalue = [2, 0]"] ;
863 -> 865 ;
866 [label="distance <= 11.656\ngini = 0.114\nsamples = 33\nvalue = [31, 2]"] ;
856 -> 866 ;
867 [label="Unnamed: 0 <= 51771.5\ngini = 0.5\nsamples = 4\nvalue = [2, 2]"] ;
866 -> 867 ;
868 [label="gini = 0.0\nsamples = 2\nvalue = [2, 0]"] ;
867 -> 868 ;
869 [label="gini = 0.0\nsamples = 2\nvalue = [0, 2]"] ;
867 -> 869 ;
870 [label="gini = 0.0\nsamples = 29\nvalue = [29, 0]"] ;
866 -> 870 ;
871 [label="Appt_Time_Min <= 10.0\ngini = 0.375\nsamples = 4\nvalue = [1, 3]"] ;
855 -> 871 ;
872 [label="gini = 0.0\nsamples = 1\nvalue = [1, 0]"] ;
871 -> 872 ;
873 [label="gini = 0.0\nsamples = 3\nvalue = [0, 3]"] ;
871 -> 873 ;
874 [label="count_app <= 24.5\ngini = 0.057\nsamples = 2500\nvalue = [2426, 74]"] ;
842 -> 874 ;
875 [label="Unnamed: 0 <= 133276.0\ngini = 0.057\nsamples = 2498\nvalue = [2425, 73]"] ;
874 -> 875 ;
876 [label="Unnamed: 0 <= 106098.5\ngini = 0.055\nsamples = 2490\nvalue = [2419, 71]"] ;
875 -> 876 ;
877 [label="Unnamed: 0 <= 106039.5\ngini = 0.069\nsamples = 1685\nvalue = [1625, 60]"] ;
876 -> 877 ;
878 [label="count_cancel <= 4.5\ngini = 0.068\nsamples = 1684\nvalue = [1625, 59]"] ;
877 -> 878 ;
879 [label="Provider_ID <= 83.5\ngini = 0.067\nsamples = 1682\nvalue = [1624, 58]"] ;
878 -> 879 ;
880 [label="count_app <= 8.5\ngini = 0.066\nsamples = 1680\nvalue = [1623, 57]"] ;
879 -> 880 ;
881 [label="count_cancel <= 0.5\ngini = 0.072\nsamples = 1518\nvalue = [1461, 57]"] ;
880 -> 881 ;
882 [label="Appt_Day <= 30.5\ngini = 0.059\nsamples = 1214\nvalue = [1177, 37]"] ;
881 -> 882 ;
883 [label="PopDensity <= 405.1\ngini = 0.055\nsamples = 1192\nvalue = [1158, 34]"] ;
882 -> 883 ;
884 [label="Made_Lead_Days_Work <= 8.5\ngini = 0.124\nsamples = 135\nvalue = [126, 9]"] ;
883 -> 884 ;
885 [label="Appt_Day <= 21.0\ngini = 0.245\nsamples = 49\nvalue = [42, 7]"] ;
884 -> 885 ;
886 [label="Appt_Made_Month <= 1.5\ngini = 0.062\nsamples = 31\nvalue = [30, 1]"] ;
885 -> 886 ;
887 [label="Unnamed: 0 <= 79321.5\ngini = 0.375\nsamples = 4\nvalue = [3, 1]"] ;
886 -> 887 ;
888 [label="gini = 0.0\nsamples = 3\nvalue = [3, 0]"] ;
887 -> 888 ;
889 [label="gini = 0.0\nsamples = 1\nvalue = [0, 1]"] ;
887 -> 889 ;
890 [label="gini = 0.0\nsamples = 27\nvalue = [27, 0]"] ;
886 -> 890 ;
891 [label="Duration <= 0.005\ngini = 0.444\nsamples = 18\nvalue = [12, 6]"] ;
885 -> 891 ;
892 [label="gini = 0.0\nsamples = 2\nvalue = [0, 2]"] ;
891 -> 892 ;
893 [label="count_app <= 0.5\ngini = 0.375\nsamples = 16\nvalue = [12, 4]"] ;
891 -> 893 ;
894 [label="Distance <= 0.007\ngini = 0.494\nsamples = 9\nvalue = [5, 4]"] ;
893 -> 894 ;
895 [label="Appt_Month <= 5.5\ngini = 0.444\nsamples = 6\nvalue = [2, 4]"] ;
894 -> 895 ;
896 [label="Unnamed: 0 <= 77978.0\ngini = 0.444\nsamples = 3\nvalue = [2, 1]"] ;
895 -> 896 ;
897 [label="gini = 0.0\nsamples = 1\nvalue = [0, 1]"] ;
896 -> 897 ;
898 [label="gini = 0.0\nsamples = 2\nvalue = [2, 0]"] ;
896 -> 898 ;
899 [label="gini = 0.0\nsamples = 3\nvalue = [0, 3]"] ;
895 -> 899 ;
900 [label="gini = 0.0\nsamples = 3\nvalue = [3, 0]"] ;
894 -> 900 ;
901 [label="gini = 0.0\nsamples = 7\nvalue = [7, 0]"] ;
893 -> 901 ;
902 [label="Provider_ID <= 45.5\ngini = 0.045\nsamples = 86\nvalue = [84, 2]"] ;
884 -> 902 ;
903 [label="Appt_Time_Hour <= 13.5\ngini = 0.26\nsamples = 13\nvalue = [11, 2]"] ;
902 -> 903 ;
904 [label="Appt_Time_Min <= 5.0\ngini = 0.153\nsamples = 12\nvalue = [11, 1]"] ;
903 -> 904 ;
905 [label="distance <= 20.206\ngini = 0.5\nsamples = 2\nvalue = [1, 1]"] ;
904 -> 905 ;
906 [label="gini = 0.0\nsamples = 1\nvalue = [0, 1]"] ;
905 -> 906 ;
907 [label="gini = 0.0\nsamples = 1\nvalue = [1, 0]"] ;
905 -> 907 ;
908 [label="gini = 0.0\nsamples = 10\nvalue = [10, 0]"] ;
904 -> 908 ;
909 [label="gini = 0.0\nsamples = 1\nvalue = [0, 1]"] ;
903 -> 909 ;
910 [label="gini = 0.0\nsamples = 73\nvalue = [73, 0]"] ;
902 -> 910 ;
911 [label="Provider_ID <= 82.5\ngini = 0.046\nsamples = 1057\nvalue = [1032, 25]"] ;
883 -> 911 ;
912 [label="distance <= 111.024\ngini = 0.044\nsamples = 1055\nvalue = [1031, 24]"] ;
911 -> 912 ;
913 [label="Appt_Made_Min <= 3.5\ngini = 0.04\nsamples = 1021\nvalue = [1000, 21]"] ;
912 -> 913 ;
914 [label="Made_Lead_Days_Work <= 43.5\ngini = 0.126\nsamples = 59\nvalue = [55, 4]"] ;
913 -> 914 ;
915 [label="Appt_Day <= 1.5\ngini = 0.1\nsamples = 57\nvalue = [54, 3]"] ;
914 -> 915 ;
916 [label="Unnamed: 0 <= 49551.5\ngini = 0.5\nsamples = 2\nvalue = [1, 1]"] ;
915 -> 916 ;
917 [label="gini = 0.0\nsamples = 1\nvalue = [1, 0]"] ;
916 -> 917 ;
918 [label="gini = 0.0\nsamples = 1\nvalue = [0, 1]"] ;
916 -> 918 ;
919 [label="Appt_Made_Day <= 24.5\ngini = 0.07\nsamples = 55\nvalue = [53, 2]"] ;
915 -> 919 ;
920 [label="gini = 0.0\nsamples = 43\nvalue = [43, 0]"] ;
919 -> 920 ;
921 [label="Appt_Made_Month <= 10.5\ngini = 0.278\nsamples = 12\nvalue = [10, 2]"] ;
919 -> 921 ;
922 [label="distance <= 5.926\ngini = 0.165\nsamples = 11\nvalue = [10, 1]"] ;
921 -> 922 ;
923 [label="gini = 0.0\nsamples = 1\nvalue = [0, 1]"] ;
922 -> 923 ;
924 [label="gini = 0.0\nsamples = 10\nvalue = [10, 0]"] ;
922 -> 924 ;
925 [label="gini = 0.0\nsamples = 1\nvalue = [0, 1]"] ;
921 -> 925 ;
926 [label="Unnamed: 0 <= 72776.0\ngini = 0.5\nsamples = 2\nvalue = [1, 1]"] ;
914 -> 926 ;
927 [label="gini = 0.0\nsamples = 1\nvalue = [1, 0]"] ;
926 -> 927 ;
928 [label="gini = 0.0\nsamples = 1\nvalue = [0, 1]"] ;
926 -> 928 ;
929 [label="count_app <= 0.5\ngini = 0.035\nsamples = 962\nvalue = [945, 17]"] ;
913 -> 929 ;
930 [label="Appt_Made_Day <= 6.5\ngini = 0.059\nsamples = 397\nvalue = [385, 12]"] ;
929 -> 930 ;
931 [label="Appt_Made_Day <= 4.5\ngini = 0.144\nsamples = 64\nvalue = [59, 5]"] ;
930 -> 931 ;
932 [label="gini = 0.0\nsamples = 39\nvalue = [39, 0]"] ;
931 -> 932 ;
933 [label="Duration <= 0.006\ngini = 0.32\nsamples = 25\nvalue = [20, 5]"] ;
931 -> 933 ;
934 [label="Duration <= 0.005\ngini = 0.5\nsamples = 6\nvalue = [3, 3]"] ;
933 -> 934 ;
935 [label="gini = 0.0\nsamples = 3\nvalue = [3, 0]"] ;
934 -> 935 ;
936 [label="gini = 0.0\nsamples = 3\nvalue = [0, 3]"] ;
934 -> 936 ;
937 [label="Appt_Made_Min <= 21.5\ngini = 0.188\nsamples = 19\nvalue = [17, 2]"] ;
933 -> 937 ;
938 [label="Appt_Time_Min <= 35.0\ngini = 0.444\nsamples = 6\nvalue = [4, 2]"] ;
937 -> 938 ;
939 [label="gini = 0.0\nsamples = 2\nvalue = [0, 2]"] ;
938 -> 939 ;
940 [label="gini = 0.0\nsamples = 4\nvalue = [4, 0]"] ;
938 -> 940 ;
941 [label="gini = 0.0\nsamples = 13\nvalue = [13, 0]"] ;
937 -> 941 ;
942 [label="Appt_Made_Min <= 7.5\ngini = 0.041\nsamples = 333\nvalue = [326, 7]"] ;
930 -> 942 ;
943 [label="Appt_Day <= 5.0\ngini = 0.208\nsamples = 17\nvalue = [15, 2]"] ;
942 -> 943 ;
944 [label="gini = 0.0\nsamples = 1\nvalue = [0, 1]"] ;
943 -> 944 ;
945 [label="Made_Lead_Days_Work <= 16.5\ngini = 0.117\nsamples = 16\nvalue = [15, 1]"] ;
943 -> 945 ;
946 [label="gini = 0.0\nsamples = 14\nvalue = [14, 0]"] ;
945 -> 946 ;
947 [label="Appt_Made_Day <= 13.0\ngini = 0.5\nsamples = 2\nvalue = [1, 1]"] ;
945 -> 947 ;
948 [label="gini = 0.0\nsamples = 1\nvalue = [1, 0]"] ;
947 -> 948 ;
949 [label="gini = 0.0\nsamples = 1\nvalue = [0, 1]"] ;
947 -> 949 ;
950 [label="Unnamed: 0 <= 11666.0\ngini = 0.031\nsamples = 316\nvalue = [311, 5]"] ;
942 -> 950 ;
951 [label="distance <= 23.3\ngini = 0.32\nsamples = 5\nvalue = [4, 1]"] ;
950 -> 951 ;
952 [label="gini = 0.0\nsamples = 4\nvalue = [4, 0]"] ;
951 -> 952 ;
953 [label="gini = 0.0\nsamples = 1\nvalue = [0, 1]"] ;
951 -> 953 ;
954 [label="Appt_Made_Month <= 2.5\ngini = 0.025\nsamples = 311\nvalue = [307, 4]"] ;
950 -> 954 ;
955 [label="Distance <= 0.004\ngini = 0.083\nsamples = 69\nvalue = [66, 3]"] ;
954 -> 955 ;
956 [label="Dept_ID <= 3.0\ngini = 0.236\nsamples = 22\nvalue = [19, 3]"] ;
955 -> 956 ;
957 [label="gini = 0.0\nsamples = 1\nvalue = [0, 1]"] ;
956 -> 957 ;
958 [label="Distance <= 0.004\ngini = 0.172\nsamples = 21\nvalue = [19, 2]"] ;
956 -> 958 ;
959 [label="Unnamed: 0 <= 102046.5\ngini = 0.095\nsamples = 20\nvalue = [19, 1]"] ;
958 -> 959 ;
960 [label="gini = 0.0\nsamples = 18\nvalue = [18, 0]"] ;
959 -> 960 ;
961 [label="Appt_Month <= 2.5\ngini = 0.5\nsamples = 2\nvalue = [1, 1]"] ;
959 -> 961 ;
962 [label="gini = 0.0\nsamples = 1\nvalue = [0, 1]"] ;
961 -> 962 ;
963 [label="gini = 0.0\nsamples = 1\nvalue = [1, 0]"] ;
961 -> 963 ;
964 [label="gini = 0.0\nsamples = 1\nvalue = [0, 1]"] ;
958 -> 964 ;
965 [label="gini = 0.0\nsamples = 47\nvalue = [47, 0]"] ;
955 -> 965 ;
966 [label="Provider_ID <= 6.5\ngini = 0.008\nsamples = 242\nvalue = [241, 1]"] ;
954 -> 966 ;
967 [label="Unnamed: 0 <= 34630.0\ngini = 0.117\nsamples = 16\nvalue = [15, 1]"] ;
966 -> 967 ;
968 [label="gini = 0.0\nsamples = 14\nvalue = [14, 0]"] ;
967 -> 968 ;
969 [label="Appt_Time_Hour <= 9.5\ngini = 0.5\nsamples = 2\nvalue = [1, 1]"] ;
967 -> 969 ;
970 [label="gini = 0.0\nsamples = 1\nvalue = [1, 0]"] ;
969 -> 970 ;
971 [label="gini = 0.0\nsamples = 1\nvalue = [0, 1]"] ;
969 -> 971 ;
972 [label="gini = 0.0\nsamples = 226\nvalue = [226, 0]"] ;
966 -> 972 ;
973 [label="Appt_Length <= 42.5\ngini = 0.018\nsamples = 565\nvalue = [560, 5]"] ;
929 -> 973 ;
974 [label="Unnamed: 0 <= 104658.5\ngini = 0.011\nsamples = 531\nvalue = [528, 3]"] ;
973 -> 974 ;
975 [label="Appt_Made_Day <= 29.5\ngini = 0.008\nsamples = 520\nvalue = [518, 2]"] ;
974 -> 975 ;
976 [label="Provider_ID <= 79.0\ngini = 0.004\nsamples = 497\nvalue = [496, 1]"] ;
975 -> 976 ;
977 [label="gini = 0.0\nsamples = 454\nvalue = [454, 0]"] ;
976 -> 977 ;
978 [label="Appt_Day <= 5.5\ngini = 0.045\nsamples = 43\nvalue = [42, 1]"] ;
976 -> 978 ;
979 [label="Appt_Made_Min <= 30.0\ngini = 0.32\nsamples = 5\nvalue = [4, 1]"] ;
978 -> 979 ;
980 [label="gini = 0.0\nsamples = 4\nvalue = [4, 0]"] ;
979 -> 980 ;
981 [label="gini = 0.0\nsamples = 1\nvalue = [0, 1]"] ;
979 -> 981 ;
982 [label="gini = 0.0\nsamples = 38\nvalue = [38, 0]"] ;
978 -> 982 ;
983 [label="Dept_ID <= 5.5\ngini = 0.083\nsamples = 23\nvalue = [22, 1]"] ;
975 -> 983 ;
984 [label="Appt_Made_Day <= 30.5\ngini = 0.444\nsamples = 3\nvalue = [2, 1]"] ;
983 -> 984 ;
985 [label="gini = 0.0\nsamples = 1\nvalue = [0, 1]"] ;
984 -> 985 ;
986 [label="gini = 0.0\nsamples = 2\nvalue = [2, 0]"] ;
984 -> 986 ;
987 [label="gini = 0.0\nsamples = 20\nvalue = [20, 0]"] ;
983 -> 987 ;
988 [label="Appt_Day <= 8.0\ngini = 0.165\nsamples = 11\nvalue = [10, 1]"] ;
974 -> 988 ;
989 [label="gini = 0.0\nsamples = 1\nvalue = [0, 1]"] ;
988 -> 989 ;
990 [label="gini = 0.0\nsamples = 10\nvalue = [10, 0]"] ;
988 -> 990 ;
991 [label="Appt_Made_Day <= 2.5\ngini = 0.111\nsamples = 34\nvalue = [32, 2]"] ;
973 -> 991 ;
992 [label="gini = 0.0\nsamples = 1\nvalue = [0, 1]"] ;
991 -> 992 ;
993 [label="Appt_Made_Day <= 28.5\ngini = 0.059\nsamples = 33\nvalue = [32, 1]"] ;
991 -> 993 ;
994 [label="gini = 0.0\nsamples = 29\nvalue = [29, 0]"] ;
993 -> 994 ;
995 [label="Appt_Year <= 2016.5\ngini = 0.375\nsamples = 4\nvalue = [3, 1]"] ;
993 -> 995 ;
996 [label="gini = 0.0\nsamples = 3\nvalue = [3, 0]"] ;
995 -> 996 ;
997 [label="gini = 0.0\nsamples = 1\nvalue = [0, 1]"] ;
995 -> 997 ;
998 [label="Appt_Made_Hour <= 11.5\ngini = 0.161\nsamples = 34\nvalue = [31, 3]"] ;
912 -> 998 ;
999 [label="Appt_Made_Month <= 5.0\ngini = 0.469\nsamples = 8\nvalue = [5, 3]"] ;
998 -> 999 ;
1000 [label="gini = 0.0\nsamples = 5\nvalue = [5, 0]"] ;
999 -> 1000 ;
1001 [label="gini = 0.0\nsamples = 3\nvalue = [0, 3]"] ;
999 -> 1001 ;
1002 [label="gini = 0.0\nsamples = 26\nvalue = [26, 0]"] ;
998 -> 1002 ;
1003 [label="Duration <= 0.011\ngini = 0.5\nsamples = 2\nvalue = [1, 1]"] ;
911 -> 1003 ;
1004 [label="gini = 0.0\nsamples = 1\nvalue = [0, 1]"] ;
1003 -> 1004 ;
1005 [label="gini = 0.0\nsamples = 1\nvalue = [1, 0]"] ;
1003 -> 1005 ;
1006 [label="Distance <= 0.014\ngini = 0.236\nsamples = 22\nvalue = [19, 3]"] ;
882 -> 1006 ;
1007 [label="Unnamed: 0 <= 92633.5\ngini = 0.095\nsamples = 20\nvalue = [19, 1]"] ;
1006 -> 1007 ;
1008 [label="gini = 0.0\nsamples = 16\nvalue = [16, 0]"] ;
1007 -> 1008 ;
1009 [label="Made_Lead_Days_Calendar <= 9.0\ngini = 0.375\nsamples = 4\nvalue = [3, 1]"] ;
1007 -> 1009 ;
1010 [label="gini = 0.0\nsamples = 1\nvalue = [0, 1]"] ;
1009 -> 1010 ;
1011 [label="gini = 0.0\nsamples = 3\nvalue = [3, 0]"] ;
1009 -> 1011 ;
1012 [label="gini = 0.0\nsamples = 2\nvalue = [0, 2]"] ;
1006 -> 1012 ;
1013 [label="Dept_ID <= 20.0\ngini = 0.123\nsamples = 304\nvalue = [284, 20]"] ;
881 -> 1013 ;
1014 [label="Patient_Age_Bucket_ID <= 1.5\ngini = 0.118\nsamples = 303\nvalue = [284, 19]"] ;
1013 -> 1014 ;
1015 [label="Unnamed: 0 <= 104222.5\ngini = 0.041\nsamples = 145\nvalue = [142, 3]"] ;
1014 -> 1015 ;
1016 [label="Appt_Day <= 1.5\ngini = 0.028\nsamples = 141\nvalue = [139, 2]"] ;
1015 -> 1016 ;
1017 [label="PopDensity <= 613.0\ngini = 0.278\nsamples = 6\nvalue = [5, 1]"] ;
1016 -> 1017 ;
1018 [label="gini = 0.0\nsamples = 1\nvalue = [0, 1]"] ;
1017 -> 1018 ;
1019 [label="gini = 0.0\nsamples = 5\nvalue = [5, 0]"] ;
1017 -> 1019 ;
1020 [label="Duration <= 0.005\ngini = 0.015\nsamples = 135\nvalue = [134, 1]"] ;
1016 -> 1020 ;
1021 [label="Duration <= 0.005\ngini = 0.095\nsamples = 20\nvalue = [19, 1]"] ;
1020 -> 1021 ;
1022 [label="gini = 0.0\nsamples = 19\nvalue = [19, 0]"] ;
1021 -> 1022 ;
1023 [label="gini = 0.0\nsamples = 1\nvalue = [0, 1]"] ;
1021 -> 1023 ;
1024 [label="gini = 0.0\nsamples = 115\nvalue = [115, 0]"] ;
1020 -> 1024 ;
1025 [label="Unnamed: 0 <= 104933.5\ngini = 0.375\nsamples = 4\nvalue = [3, 1]"] ;
1015 -> 1025 ;
1026 [label="gini = 0.0\nsamples = 1\nvalue = [0, 1]"] ;
1025 -> 1026 ;
1027 [label="gini = 0.0\nsamples = 3\nvalue = [3, 0]"] ;
1025 -> 1027 ;
1028 [label="Made_Lead_Days_Work <= 9.5\ngini = 0.182\nsamples = 158\nvalue = [142, 16]"] ;
1014 -> 1028 ;
1029 [label="Unnamed: 0 <= 101162.5\ngini = 0.081\nsamples = 94\nvalue = [90, 4]"] ;
1028 -> 1029 ;
1030 [label="Provider_ID <= 79.0\ngini = 0.045\nsamples = 86\nvalue = [84, 2]"] ;
1029 -> 1030 ;
1031 [label="Appt_Made_Day <= 28.5\ngini = 0.024\nsamples = 81\nvalue = [80, 1]"] ;
1030 -> 1031 ;
1032 [label="gini = 0.0\nsamples = 75\nvalue = [75, 0]"] ;
1031 -> 1032 ;
1033 [label="Appt_Month <= 8.0\ngini = 0.278\nsamples = 6\nvalue = [5, 1]"] ;
1031 -> 1033 ;
1034 [label="gini = 0.0\nsamples = 5\nvalue = [5, 0]"] ;
1033 -> 1034 ;
1035 [label="gini = 0.0\nsamples = 1\nvalue = [0, 1]"] ;
1033 -> 1035 ;
1036 [label="Duration <= 0.005\ngini = 0.32\nsamples = 5\nvalue = [4, 1]"] ;
1030 -> 1036 ;
1037 [label="gini = 0.0\nsamples = 1\nvalue = [0, 1]"] ;
1036 -> 1037 ;
1038 [label="gini = 0.0\nsamples = 4\nvalue = [4, 0]"] ;
1036 -> 1038 ;
1039 [label="distance <= 17.352\ngini = 0.375\nsamples = 8\nvalue = [6, 2]"] ;
1029 -> 1039 ;
1040 [label="Appt_Month <= 6.0\ngini = 0.444\nsamples = 3\nvalue = [1, 2]"] ;
1039 -> 1040 ;
1041 [label="gini = 0.0\nsamples = 2\nvalue = [0, 2]"] ;
1040 -> 1041 ;
1042 [label="gini = 0.0\nsamples = 1\nvalue = [1, 0]"] ;
1040 -> 1042 ;
1043 [label="gini = 0.0\nsamples = 5\nvalue = [5, 0]"] ;
1039 -> 1043 ;
1044 [label="Unnamed: 0 <= 83668.0\ngini = 0.305\nsamples = 64\nvalue = [52, 12]"] ;
1028 -> 1044 ;
1045 [label="Appt_Made_Hour <= 14.5\ngini = 0.424\nsamples = 36\nvalue = [25, 11]"] ;
1044 -> 1045 ;
1046 [label="Appt_Time_Hour <= 13.5\ngini = 0.328\nsamples = 29\nvalue = [23, 6]"] ;
1045 -> 1046 ;
1047 [label="Appt_Made_Day <= 8.5\ngini = 0.26\nsamples = 26\nvalue = [22, 4]"] ;
1046 -> 1047 ;
1048 [label="Dept_ID <= 14.0\ngini = 0.5\nsamples = 6\nvalue = [3, 3]"] ;
1047 -> 1048 ;
1049 [label="count_cancel <= 2.5\ngini = 0.375\nsamples = 4\nvalue = [3, 1]"] ;
1048 -> 1049 ;
1050 [label="gini = 0.0\nsamples = 3\nvalue = [3, 0]"] ;
1049 -> 1050 ;
1051 [label="gini = 0.0\nsamples = 1\nvalue = [0, 1]"] ;
1049 -> 1051 ;
1052 [label="gini = 0.0\nsamples = 2\nvalue = [0, 2]"] ;
1048 -> 1052 ;
1053 [label="Appt_Day <= 22.5\ngini = 0.095\nsamples = 20\nvalue = [19, 1]"] ;
1047 -> 1053 ;
1054 [label="gini = 0.0\nsamples = 19\nvalue = [19, 0]"] ;
1053 -> 1054 ;
1055 [label="gini = 0.0\nsamples = 1\nvalue = [0, 1]"] ;
1053 -> 1055 ;
1056 [label="Unnamed: 0 <= 76022.5\ngini = 0.444\nsamples = 3\nvalue = [1, 2]"] ;
1046 -> 1056 ;
1057 [label="gini = 0.0\nsamples = 1\nvalue = [1, 0]"] ;
1056 -> 1057 ;
1058 [label="gini = 0.0\nsamples = 2\nvalue = [0, 2]"] ;
1056 -> 1058 ;
1059 [label="Appt_Day <= 9.5\ngini = 0.408\nsamples = 7\nvalue = [2, 5]"] ;
1045 -> 1059 ;
1060 [label="Provider_ID <= 78.5\ngini = 0.444\nsamples = 3\nvalue = [2, 1]"] ;
1059 -> 1060 ;
1061 [label="gini = 0.0\nsamples = 2\nvalue = [2, 0]"] ;
1060 -> 1061 ;
1062 [label="gini = 0.0\nsamples = 1\nvalue = [0, 1]"] ;
1060 -> 1062 ;
1063 [label="gini = 0.0\nsamples = 4\nvalue = [0, 4]"] ;
1059 -> 1063 ;
1064 [label="Appt_Made_Day <= 5.5\ngini = 0.069\nsamples = 28\nvalue = [27, 1]"] ;
1044 -> 1064 ;
1065 [label="Made_Lead_Days_Work <= 10.5\ngini = 0.32\nsamples = 5\nvalue = [4, 1]"] ;
1064 -> 1065 ;
1066 [label="gini = 0.0\nsamples = 1\nvalue = [0, 1]"] ;
1065 -> 1066 ;
1067 [label="gini = 0.0\nsamples = 4\nvalue = [4, 0]"] ;
1065 -> 1067 ;
1068 [label="gini = 0.0\nsamples = 23\nvalue = [23, 0]"] ;
1064 -> 1068 ;
1069 [label="gini = 0.0\nsamples = 1\nvalue = [0, 1]"] ;
1013 -> 1069 ;
1070 [label="gini = 0.0\nsamples = 162\nvalue = [162, 0]"] ;
880 -> 1070 ;
1071 [label="Appt_Time_Hour <= 11.5\ngini = 0.5\nsamples = 2\nvalue = [1, 1]"] ;
879 -> 1071 ;
1072 [label="gini = 0.0\nsamples = 1\nvalue = [0, 1]"] ;
1071 -> 1072 ;
1073 [label="gini = 0.0\nsamples = 1\nvalue = [1, 0]"] ;
1071 -> 1073 ;
1074 [label="Provider_ID <= 17.5\ngini = 0.5\nsamples = 2\nvalue = [1, 1]"] ;
878 -> 1074 ;
1075 [label="gini = 0.0\nsamples = 1\nvalue = [1, 0]"] ;
1074 -> 1075 ;
1076 [label="gini = 0.0\nsamples = 1\nvalue = [0, 1]"] ;
1074 -> 1076 ;
1077 [label="gini = 0.0\nsamples = 1\nvalue = [0, 1]"] ;
877 -> 1077 ;
1078 [label="distance <= 83.12\ngini = 0.027\nsamples = 805\nvalue = [794, 11]"] ;
876 -> 1078 ;
1079 [label="Appt_Length <= 50.0\ngini = 0.02\nsamples = 787\nvalue = [779, 8]"] ;
1078 -> 1079 ;
1080 [label="Unnamed: 0 <= 130243.5\ngini = 0.018\nsamples = 782\nvalue = [775, 7]"] ;
1079 -> 1080 ;
1081 [label="Provider_ID <= 85.0\ngini = 0.009\nsamples = 702\nvalue = [699, 3]"] ;
1080 -> 1081 ;
1082 [label="Appt_Year <= 2015.5\ngini = 0.006\nsamples = 688\nvalue = [686, 2]"] ;
1081 -> 1082 ;
1083 [label="Appt_Time_Hour <= 12.5\ngini = 0.03\nsamples = 133\nvalue = [131, 2]"] ;
1082 -> 1083 ;
1084 [label="gini = 0.0\nsamples = 107\nvalue = [107, 0]"] ;
1083 -> 1084 ;
1085 [label="Duration <= 0.018\ngini = 0.142\nsamples = 26\nvalue = [24, 2]"] ;
1083 -> 1085 ;
1086 [label="Appt_Made_Min <= 5.5\ngini = 0.077\nsamples = 25\nvalue = [24, 1]"] ;
1085 -> 1086 ;
1087 [label="gini = 0.0\nsamples = 1\nvalue = [0, 1]"] ;
1086 -> 1087 ;
1088 [label="gini = 0.0\nsamples = 24\nvalue = [24, 0]"] ;
1086 -> 1088 ;
1089 [label="gini = 0.0\nsamples = 1\nvalue = [0, 1]"] ;
1085 -> 1089 ;
1090 [label="gini = 0.0\nsamples = 555\nvalue = [555, 0]"] ;
1082 -> 1090 ;
1091 [label="Made_Lead_Days_Work <= 31.0\ngini = 0.133\nsamples = 14\nvalue = [13, 1]"] ;
1081 -> 1091 ;
1092 [label="gini = 0.0\nsamples = 13\nvalue = [13, 0]"] ;
1091 -> 1092 ;
1093 [label="gini = 0.0\nsamples = 1\nvalue = [0, 1]"] ;
1091 -> 1093 ;
1094 [label="Unnamed: 0 <= 130253.5\ngini = 0.095\nsamples = 80\nvalue = [76, 4]"] ;
1080 -> 1094 ;
1095 [label="gini = 0.0\nsamples = 1\nvalue = [0, 1]"] ;
1094 -> 1095 ;
1096 [label="diff_pay_count <= 1.5\ngini = 0.073\nsamples = 79\nvalue = [76, 3]"] ;
1094 -> 1096 ;
1097 [label="Appt_Day <= 1.5\ngini = 0.051\nsamples = 77\nvalue = [75, 2]"] ;
1096 -> 1097 ;
1098 [label="Dept_ID <= 26.5\ngini = 0.444\nsamples = 3\nvalue = [2, 1]"] ;
1097 -> 1098 ;
1099 [label="gini = 0.0\nsamples = 1\nvalue = [0, 1]"] ;
1098 -> 1099 ;
1100 [label="gini = 0.0\nsamples = 2\nvalue = [2, 0]"] ;
1098 -> 1100 ;
1101 [label="Appt_Day <= 26.5\ngini = 0.027\nsamples = 74\nvalue = [73, 1]"] ;
1097 -> 1101 ;
1102 [label="gini = 0.0\nsamples = 68\nvalue = [68, 0]"] ;
1101 -> 1102 ;
1103 [label="Duration <= 0.014\ngini = 0.278\nsamples = 6\nvalue = [5, 1]"] ;
1101 -> 1103 ;
1104 [label="gini = 0.0\nsamples = 5\nvalue = [5, 0]"] ;
1103 -> 1104 ;
1105 [label="gini = 0.0\nsamples = 1\nvalue = [0, 1]"] ;
1103 -> 1105 ;
1106 [label="Appt_Month <= 8.5\ngini = 0.5\nsamples = 2\nvalue = [1, 1]"] ;
1096 -> 1106 ;
1107 [label="gini = 0.0\nsamples = 1\nvalue = [0, 1]"] ;
1106 -> 1107 ;
1108 [label="gini = 0.0\nsamples = 1\nvalue = [1, 0]"] ;
1106 -> 1108 ;
1109 [label="Appt_Made_Min <= 15.5\ngini = 0.32\nsamples = 5\nvalue = [4, 1]"] ;
1079 -> 1109 ;
1110 [label="gini = 0.0\nsamples = 1\nvalue = [0, 1]"] ;
1109 -> 1110 ;
1111 [label="gini = 0.0\nsamples = 4\nvalue = [4, 0]"] ;
1109 -> 1111 ;
1112 [label="Appt_Day <= 12.5\ngini = 0.278\nsamples = 18\nvalue = [15, 3]"] ;
1078 -> 1112 ;
1113 [label="count_app <= 2.0\ngini = 0.5\nsamples = 6\nvalue = [3, 3]"] ;
1112 -> 1113 ;
1114 [label="gini = 0.0\nsamples = 3\nvalue = [0, 3]"] ;
1113 -> 1114 ;
1115 [label="gini = 0.0\nsamples = 3\nvalue = [3, 0]"] ;
1113 -> 1115 ;
1116 [label="gini = 0.0\nsamples = 12\nvalue = [12, 0]"] ;
1112 -> 1116 ;
1117 [label="Appt_Month <= 8.5\ngini = 0.375\nsamples = 8\nvalue = [6, 2]"] ;
875 -> 1117 ;
1118 [label="gini = 0.0\nsamples = 2\nvalue = [0, 2]"] ;
1117 -> 1118 ;
1119 [label="gini = 0.0\nsamples = 6\nvalue = [6, 0]"] ;
1117 -> 1119 ;
1120 [label="Appt_Made_Min <= 36.5\ngini = 0.5\nsamples = 2\nvalue = [1, 1]"] ;
874 -> 1120 ;
1121 [label="gini = 0.0\nsamples = 1\nvalue = [1, 0]"] ;
1120 -> 1121 ;
1122 [label="gini = 0.0\nsamples = 1\nvalue = [0, 1]"] ;
1120 -> 1122 ;
1123 [label="Made_Lead_Days_Work <= 19.5\ngini = 0.116\nsamples = 3969\nvalue = [3724, 245]"] ;
841 -> 1123 ;
1124 [label="Made_Lead_Days_Calendar <= 1.5\ngini = 0.098\nsamples = 3109\nvalue = [2948, 161]"] ;
1123 -> 1124 ;
1125 [label="Unnamed: 0 <= 133034.0\ngini = 0.017\nsamples = 360\nvalue = [357, 3]"] ;
1124 -> 1125 ;
1126 [label="Appt_Made_Min <= 56.5\ngini = 0.011\nsamples = 357\nvalue = [355, 2]"] ;
1125 -> 1126 ;
1127 [label="Provider_ID <= 83.5\ngini = 0.006\nsamples = 338\nvalue = [337, 1]"] ;
1126 -> 1127 ;
1128 [label="gini = 0.0\nsamples = 318\nvalue = [318, 0]"] ;
1127 -> 1128 ;
1129 [label="count_cancel <= 0.5\ngini = 0.095\nsamples = 20\nvalue = [19, 1]"] ;
1127 -> 1129 ;
1130 [label="gini = 0.0\nsamples = 17\nvalue = [17, 0]"] ;
1129 -> 1130 ;
1131 [label="count_app <= 2.0\ngini = 0.444\nsamples = 3\nvalue = [2, 1]"] ;
1129 -> 1131 ;
1132 [label="gini = 0.0\nsamples = 1\nvalue = [0, 1]"] ;
1131 -> 1132 ;
1133 [label="gini = 0.0\nsamples = 2\nvalue = [2, 0]"] ;
1131 -> 1133 ;
1134 [label="Appt_Made_Hour <= 13.5\ngini = 0.1\nsamples = 19\nvalue = [18, 1]"] ;
1126 -> 1134 ;
1135 [label="gini = 0.0\nsamples = 15\nvalue = [15, 0]"] ;
1134 -> 1135 ;
1136 [label="Appt_Day <= 10.5\ngini = 0.375\nsamples = 4\nvalue = [3, 1]"] ;
1134 -> 1136 ;
1137 [label="gini = 0.0\nsamples = 1\nvalue = [0, 1]"] ;
1136 -> 1137 ;
1138 [label="gini = 0.0\nsamples = 3\nvalue = [3, 0]"] ;
1136 -> 1138 ;
1139 [label="Appt_Logistics_Type_ID <= 3.5\ngini = 0.444\nsamples = 3\nvalue = [2, 1]"] ;
1125 -> 1139 ;
1140 [label="gini = 0.0\nsamples = 2\nvalue = [2, 0]"] ;
1139 -> 1140 ;
1141 [label="gini = 0.0\nsamples = 1\nvalue = [0, 1]"] ;
1139 -> 1141 ;
1142 [label="Appt_Year <= 2016.5\ngini = 0.108\nsamples = 2749\nvalue = [2591, 158]"] ;
1124 -> 1142 ;
1143 [label="Appt_Day <= 23.5\ngini = 0.091\nsamples = 1776\nvalue = [1691, 85]"] ;
1142 -> 1143 ;
1144 [label="Appt_Made_Day <= 29.5\ngini = 0.078\nsamples = 1335\nvalue = [1281, 54]"] ;
1143 -> 1144 ;
1145 [label="Unnamed: 0 <= 102803.5\ngini = 0.072\nsamples = 1257\nvalue = [1210, 47]"] ;
1144 -> 1145 ;
1146 [label="Provider_ID <= 81.5\ngini = 0.086\nsamples = 914\nvalue = [873, 41]"] ;
1145 -> 1146 ;
1147 [label="Unnamed: 0 <= 102785.0\ngini = 0.084\nsamples = 913\nvalue = [873, 40]"] ;
1146 -> 1147 ;
1148 [label="Appt_Time_Hour <= 13.5\ngini = 0.082\nsamples = 912\nvalue = [873, 39]"] ;
1147 -> 1148 ;
1149 [label="count_app <= 7.5\ngini = 0.093\nsamples = 739\nvalue = [703, 36]"] ;
1148 -> 1149 ;
1150 [label="PopDensity <= 1135.0\ngini = 0.091\nsamples = 735\nvalue = [700, 35]"] ;
1149 -> 1150 ;
1151 [label="count_cancel <= 2.5\ngini = 0.058\nsamples = 337\nvalue = [327, 10]"] ;
1150 -> 1151 ;
1152 [label="count_cancel <= 1.5\ngini = 0.052\nsamples = 335\nvalue = [326, 9]"] ;
1151 -> 1152 ;
1153 [label="Made_Lead_Days_Calendar <= 27.5\ngini = 0.043\nsamples = 321\nvalue = [314, 7]"] ;
1152 -> 1153 ;
1154 [label="Appt_Time_Hour <= 10.5\ngini = 0.037\nsamples = 316\nvalue = [310, 6]"] ;
1153 -> 1154 ;
1155 [label="Appt_Made_Day <= 3.5\ngini = 0.01\nsamples = 197\nvalue = [196, 1]"] ;
1154 -> 1155 ;
1156 [label="Unnamed: 0 <= 100994.0\ngini = 0.087\nsamples = 22\nvalue = [21, 1]"] ;
1155 -> 1156 ;
1157 [label="gini = 0.0\nsamples = 17\nvalue = [17, 0]"] ;
1156 -> 1157 ;
1158 [label="Unnamed: 0 <= 101185.5\ngini = 0.32\nsamples = 5\nvalue = [4, 1]"] ;
1156 -> 1158 ;
1159 [label="gini = 0.0\nsamples = 1\nvalue = [0, 1]"] ;
1158 -> 1159 ;
1160 [label="gini = 0.0\nsamples = 4\nvalue = [4, 0]"] ;
1158 -> 1160 ;
1161 [label="gini = 0.0\nsamples = 175\nvalue = [175, 0]"] ;
1155 -> 1161 ;
1162 [label="Unnamed: 0 <= 101824.5\ngini = 0.081\nsamples = 119\nvalue = [114, 5]"] ;
1154 -> 1162 ;
1163 [label="Provider_ID <= 78.5\ngini = 0.066\nsamples = 117\nvalue = [113, 4]"] ;
1162 -> 1163 ;
1164 [label="Appt_Time_Min <= 5.0\ngini = 0.051\nsamples = 114\nvalue = [111, 3]"] ;
1163 -> 1164 ;
1165 [label="Provider_ID <= 7.5\ngini = 0.147\nsamples = 25\nvalue = [23, 2]"] ;
1164 -> 1165 ;
1166 [label="Appt_Made_Month <= 3.0\ngini = 0.5\nsamples = 2\nvalue = [1, 1]"] ;
1165 -> 1166 ;
1167 [label="gini = 0.0\nsamples = 1\nvalue = [1, 0]"] ;
1166 -> 1167 ;
1168 [label="gini = 0.0\nsamples = 1\nvalue = [0, 1]"] ;
1166 -> 1168 ;
1169 [label="Visit_Type_ID <= 19.5\ngini = 0.083\nsamples = 23\nvalue = [22, 1]"] ;
1165 -> 1169 ;
1170 [label="gini = 0.0\nsamples = 17\nvalue = [17, 0]"] ;
1169 -> 1170 ;
1171 [label="Dept_ID <= 15.5\ngini = 0.278\nsamples = 6\nvalue = [5, 1]"] ;
1169 -> 1171 ;
1172 [label="gini = 0.0\nsamples = 4\nvalue = [4, 0]"] ;
1171 -> 1172 ;
1173 [label="Made_Lead_Days_Work <= 5.5\ngini = 0.5\nsamples = 2\nvalue = [1, 1]"] ;
1171 -> 1173 ;
1174 [label="gini = 0.0\nsamples = 1\nvalue = [0, 1]"] ;
1173 -> 1174 ;
1175 [label="gini = 0.0\nsamples = 1\nvalue = [1, 0]"] ;
1173 -> 1175 ;
1176 [label="Dept_ID <= 5.5\ngini = 0.022\nsamples = 89\nvalue = [88, 1]"] ;
1164 -> 1176 ;
1177 [label="Made_Lead_Days_Calendar <= 19.5\ngini = 0.18\nsamples = 10\nvalue = [9, 1]"] ;
1176 -> 1177 ;
1178 [label="gini = 0.0\nsamples = 9\nvalue = [9, 0]"] ;
1177 -> 1178 ;
1179 [label="gini = 0.0\nsamples = 1\nvalue = [0, 1]"] ;
1177 -> 1179 ;
1180 [label="gini = 0.0\nsamples = 79\nvalue = [79, 0]"] ;
1176 -> 1180 ;
1181 [label="Made_Lead_Days_Calendar <= 15.0\ngini = 0.444\nsamples = 3\nvalue = [2, 1]"] ;
1163 -> 1181 ;
1182 [label="gini = 0.0\nsamples = 2\nvalue = [2, 0]"] ;
1181 -> 1182 ;
1183 [label="gini = 0.0\nsamples = 1\nvalue = [0, 1]"] ;
1181 -> 1183 ;
1184 [label="Made_Lead_Days_Calendar <= 16.0\ngini = 0.5\nsamples = 2\nvalue = [1, 1]"] ;
1162 -> 1184 ;
1185 [label="gini = 0.0\nsamples = 1\nvalue = [0, 1]"] ;
1184 -> 1185 ;
1186 [label="gini = 0.0\nsamples = 1\nvalue = [1, 0]"] ;
1184 -> 1186 ;
1187 [label="Appt_Made_Day <= 15.5\ngini = 0.32\nsamples = 5\nvalue = [4, 1]"] ;
1153 -> 1187 ;
1188 [label="gini = 0.0\nsamples = 4\nvalue = [4, 0]"] ;
1187 -> 1188 ;
1189 [label="gini = 0.0\nsamples = 1\nvalue = [0, 1]"] ;
1187 -> 1189 ;
1190 [label="Made_Lead_Days_Calendar <= 17.5\ngini = 0.245\nsamples = 14\nvalue = [12, 2]"] ;
1152 -> 1190 ;
1191 [label="gini = 0.0\nsamples = 11\nvalue = [11, 0]"] ;
1190 -> 1191 ;
1192 [label="count_app <= 4.5\ngini = 0.444\nsamples = 3\nvalue = [1, 2]"] ;
1190 -> 1192 ;
1193 [label="gini = 0.0\nsamples = 2\nvalue = [0, 2]"] ;
1192 -> 1193 ;
1194 [label="gini = 0.0\nsamples = 1\nvalue = [1, 0]"] ;
1192 -> 1194 ;
1195 [label="Appt_Made_Day <= 18.5\ngini = 0.5\nsamples = 2\nvalue = [1, 1]"] ;
1151 -> 1195 ;
1196 [label="gini = 0.0\nsamples = 1\nvalue = [0, 1]"] ;
1195 -> 1196 ;
1197 [label="gini = 0.0\nsamples = 1\nvalue = [1, 0]"] ;
1195 -> 1197 ;
1198 [label="Appt_Time_Hour <= 8.5\ngini = 0.118\nsamples = 398\nvalue = [373, 25]"] ;
1150 -> 1198 ;
1199 [label="Appt_Logistics_Type_ID <= 1.5\ngini = 0.022\nsamples = 91\nvalue = [90, 1]"] ;
1198 -> 1199 ;
1200 [label="gini = 0.0\nsamples = 80\nvalue = [80, 0]"] ;
1199 -> 1200 ;
1201 [label="Appt_Made_Day <= 25.0\ngini = 0.165\nsamples = 11\nvalue = [10, 1]"] ;
1199 -> 1201 ;
1202 [label="gini = 0.0\nsamples = 9\nvalue = [9, 0]"] ;
1201 -> 1202 ;
1203 [label="Unnamed: 0 <= 57847.5\ngini = 0.5\nsamples = 2\nvalue = [1, 1]"] ;
1201 -> 1203 ;
1204 [label="gini = 0.0\nsamples = 1\nvalue = [1, 0]"] ;
1203 -> 1204 ;
1205 [label="gini = 0.0\nsamples = 1\nvalue = [0, 1]"] ;
1203 -> 1205 ;
1206 [label="Distance <= 0.005\ngini = 0.144\nsamples = 307\nvalue = [283, 24]"] ;
1198 -> 1206 ;
1207 [label="Duration <= 0.011\ngini = 0.245\nsamples = 91\nvalue = [78, 13]"] ;
1206 -> 1207 ;
1208 [label="Unnamed: 0 <= 92253.0\ngini = 0.217\nsamples = 89\nvalue = [78, 11]"] ;
1207 -> 1208 ;
