digraph Tree {
node [shape=box] ;
0 [label="count_miss <= 0.5\ngini = 0.297\nsamples = 6587\nvalue = [5390, 1197]"] ;
1 [label="payor_type_0.0 <= 0.5\ngini = 0.259\nsamples = 5247\nvalue = [4444, 803]"] ;
0 -> 1 [labeldistance=2.5, labelangle=45, headlabel="True"] ;
2 [label="Made_Lead_Days_Calendar <= 178.5\ngini = 0.25\nsamples = 5151\nvalue = [4396, 755]"] ;
1 -> 2 ;
3 [label="appt_log_type_0 <= 0.5\ngini = 0.229\nsamples = 4638\nvalue = [4027, 611]"] ;
2 -> 3 ;
4 [label="gini = 0.189\nsamples = 3363\nvalue = [3007, 356]"] ;
3 -> 4 ;
5 [label="gini = 0.32\nsamples = 1275\nvalue = [1020, 255]"] ;
3 -> 5 ;
6 [label="duration_google <= 791.5\ngini = 0.404\nsamples = 513\nvalue = [369, 144]"] ;
2 -> 6 ;
7 [label="gini = 0.494\nsamples = 54\nvalue = [24, 30]"] ;
6 -> 7 ;
8 [label="gini = 0.373\nsamples = 459\nvalue = [345, 114]"] ;
6 -> 8 ;
9 [label="distance_bird <= 77.825\ngini = 0.5\nsamples = 96\nvalue = [48, 48]"] ;
1 -> 9 ;
10 [label="Made_Lead_Days_Calendar <= 4.5\ngini = 0.485\nsamples = 75\nvalue = [31, 44]"] ;
9 -> 10 ;
11 [label="gini = 0.432\nsamples = 19\nvalue = [13, 6]"] ;
10 -> 11 ;
12 [label="gini = 0.436\nsamples = 56\nvalue = [18, 38]"] ;
10 -> 12 ;
13 [label="Appt_Day <= 10.5\ngini = 0.308\nsamples = 21\nvalue = [17, 4]"] ;
9 -> 13 ;
14 [label="gini = 0.48\nsamples = 10\nvalue = [6, 4]"] ;
13 -> 14 ;
15 [label="gini = 0.0\nsamples = 11\nvalue = [11, 0]"] ;
13 -> 15 ;
16 [label="Made_Lead_Days_Calendar <= 18.5\ngini = 0.415\nsamples = 1340\nvalue = [946, 394]"] ;
0 -> 16 [labeldistance=2.5, labelangle=-45, headlabel="False"] ;
17 [label="Made_Lead_Days_Calendar <= 1.5\ngini = 0.354\nsamples = 866\nvalue = [667, 199]"] ;
16 -> 17 ;
18 [label="Appt_Month <= 11.5\ngini = 0.172\nsamples = 105\nvalue = [95, 10]"] ;
17 -> 18 ;
19 [label="gini = 0.118\nsamples = 95\nvalue = [89, 6]"] ;
18 -> 19 ;
20 [label="gini = 0.48\nsamples = 10\nvalue = [6, 4]"] ;
18 -> 20 ;
21 [label="payor_type_3.0 <= 0.5\ngini = 0.373\nsamples = 761\nvalue = [572, 189]"] ;
17 -> 21 ;
22 [label="gini = 0.242\nsamples = 135\nvalue = [116, 19]"] ;
21 -> 22 ;
23 [label="gini = 0.396\nsamples = 626\nvalue = [456, 170]"] ;
21 -> 23 ;
24 [label="count_miss <= 1.5\ngini = 0.484\nsamples = 474\nvalue = [279, 195]"] ;
16 -> 24 ;
25 [label="count_app <= 5.5\ngini = 0.458\nsamples = 332\nvalue = [214, 118]"] ;
24 -> 25 ;
26 [label="gini = 0.485\nsamples = 244\nvalue = [143, 101]"] ;
25 -> 26 ;
27 [label="gini = 0.312\nsamples = 88\nvalue = [71, 17]"] ;
25 -> 27 ;
28 [label="Appt_Time_Hour <= 8.5\ngini = 0.496\nsamples = 142\nvalue = [65, 77]"] ;
24 -> 28 ;
29 [label="gini = 0.32\nsamples = 20\nvalue = [16, 4]"] ;
28 -> 29 ;
30 [label="gini = 0.481\nsamples = 122\nvalue = [49, 73]"] ;
28 -> 30 ;
}