digraph Tree {
node [shape=box] ;
0 [label="count_miss <= 0.5\ngini = 0.296\nsamples = 5855\nvalue = [4799, 1056]"] ;
1 [label="Made_Lead_Days_Calendar <= 179.5\ngini = 0.258\nsamples = 4671\nvalue = [3961, 710]"] ;
0 -> 1 [labeldistance=2.5, labelangle=45, headlabel="True"] ;
2 [label="visit_type_15 <= 0.5\ngini = 0.235\nsamples = 4208\nvalue = [3636, 572]"] ;
1 -> 2 ;
3 [label="payor_type_0.0 <= 0.5\ngini = 0.333\nsamples = 1301\nvalue = [1027, 274]"] ;
2 -> 3 ;
4 [label="gini = 0.314\nsamples = 1255\nvalue = [1010, 245]"] ;
3 -> 4 ;
5 [label="gini = 0.466\nsamples = 46\nvalue = [17, 29]"] ;
3 -> 5 ;
6 [label="Made_Lead_Days_Calendar <= 27.5\ngini = 0.184\nsamples = 2907\nvalue = [2609, 298]"] ;
2 -> 6 ;
7 [label="gini = 0.149\nsamples = 1955\nvalue = [1796, 159]"] ;
6 -> 7 ;
8 [label="gini = 0.249\nsamples = 952\nvalue = [813, 139]"] ;
6 -> 8 ;
9 [label="distance_bird <= 10.758\ngini = 0.418\nsamples = 463\nvalue = [325, 138]"] ;
1 -> 9 ;
10 [label="Appt_Day <= 6.5\ngini = 0.5\nsamples = 75\nvalue = [38, 37]"] ;
9 -> 10 ;
11 [label="gini = 0.18\nsamples = 10\nvalue = [1, 9]"] ;
10 -> 11 ;
12 [label="gini = 0.49\nsamples = 65\nvalue = [37, 28]"] ;
10 -> 12 ;
13 [label="count_app <= 1.5\ngini = 0.385\nsamples = 388\nvalue = [287, 101]"] ;
9 -> 13 ;
14 [label="gini = 0.444\nsamples = 183\nvalue = [122, 61]"] ;
13 -> 14 ;
15 [label="gini = 0.314\nsamples = 205\nvalue = [165, 40]"] ;
13 -> 15 ;
16 [label="Made_Lead_Days_Calendar <= 18.5\ngini = 0.414\nsamples = 1184\nvalue = [838, 346]"] ;
0 -> 16 [labeldistance=2.5, labelangle=-45, headlabel="False"] ;
17 [label="count_app <= 3.5\ngini = 0.356\nsamples = 777\nvalue = [597, 180]"] ;
16 -> 17 ;
18 [label="payor_type_3.0 <= 0.5\ngini = 0.407\nsamples = 429\nvalue = [307, 122]"] ;
17 -> 18 ;
19 [label="gini = 0.225\nsamples = 85\nvalue = [74, 11]"] ;
18 -> 19 ;
20 [label="gini = 0.437\nsamples = 344\nvalue = [233, 111]"] ;
18 -> 20 ;
21 [label="count_miss <= 1.5\ngini = 0.278\nsamples = 348\nvalue = [290, 58]"] ;
17 -> 21 ;
22 [label="gini = 0.184\nsamples = 176\nvalue = [158, 18]"] ;
21 -> 22 ;
23 [label="gini = 0.357\nsamples = 172\nvalue = [132, 40]"] ;
21 -> 23 ;
24 [label="count_miss <= 1.5\ngini = 0.483\nsamples = 407\nvalue = [241, 166]"] ;
16 -> 24 ;
25 [label="Unnamed: 0 <= 5393.5\ngini = 0.453\nsamples = 282\nvalue = [184, 98]"] ;
24 -> 25 ;
26 [label="gini = 0.495\nsamples = 73\nvalue = [33, 40]"] ;
25 -> 26 ;
27 [label="gini = 0.401\nsamples = 209\nvalue = [151, 58]"] ;
25 -> 27 ;
28 [label="Appt_Time_Hour <= 8.5\ngini = 0.496\nsamples = 125\nvalue = [57, 68]"] ;
24 -> 28 ;
29 [label="gini = 0.346\nsamples = 18\nvalue = [14, 4]"] ;
28 -> 29 ;
30 [label="gini = 0.481\nsamples = 107\nvalue = [43, 64]"] ;
28 -> 30 ;
}