digraph Tree {
node [shape=box] ;
0 [label="payor_type_0.0 <= 0.5\nentropy = 0.469\nsamples = 117193\nvalue = [105489, 11704]"] ;
1 [label="payor_type_3.0 <= 0.5\nentropy = 0.439\nsamples = 114278\nvalue = [103892, 10386]"] ;
0 -> 1 [labeldistance=2.5, labelangle=45, headlabel="True"] ;
2 [label="count_app <= 0.5\nentropy = 0.253\nsamples = 51012\nvalue = [48850, 2162]"] ;
1 -> 2 ;
3 [label="PopDensity <= 1875.725\nentropy = 0.183\nsamples = 30424\nvalue = [29582, 842]"] ;
2 -> 3 ;
4 [label="Made_Lead_Days_Calendar <= 36.5\nentropy = 0.23\nsamples = 13204\nvalue = [12710, 494]"] ;
3 -> 4 ;
5 [label="entropy = 0.213\nsamples = 12331\nvalue = [11914, 417]"] ;
4 -> 5 ;
6 [label="entropy = 0.43\nsamples = 873\nvalue = [796, 77]"] ;
4 -> 6 ;
7 [label="Made_Lead_Days_Work <= 43.5\nentropy = 0.143\nsamples = 17220\nvalue = [16872, 348]"] ;
3 -> 7 ;
8 [label="entropy = 0.136\nsamples = 16659\nvalue = [16343, 316]"] ;
7 -> 8 ;
9 [label="entropy = 0.316\nsamples = 561\nvalue = [529, 32]"] ;
7 -> 9 ;
10 [label="count_miss <= 0.5\nentropy = 0.344\nsamples = 20588\nvalue = [19268, 1320]"] ;
2 -> 10 ;
11 [label="Made_Lead_Days_Calendar <= 55.5\nentropy = 0.306\nsamples = 18583\nvalue = [17565, 1018]"] ;
10 -> 11 ;
12 [label="entropy = 0.269\nsamples = 15420\nvalue = [14712, 708]"] ;
11 -> 12 ;
13 [label="entropy = 0.463\nsamples = 3163\nvalue = [2853, 310]"] ;
11 -> 13 ;
14 [label="Made_Lead_Days_Calendar <= 2.5\nentropy = 0.611\nsamples = 2005\nvalue = [1703, 302]"] ;
10 -> 14 ;
15 [label="entropy = 0.158\nsamples = 217\nvalue = [212, 5]"] ;
14 -> 15 ;
16 [label="entropy = 0.649\nsamples = 1788\nvalue = [1491, 297]"] ;
14 -> 16 ;
17 [label="count_miss <= 0.5\nentropy = 0.557\nsamples = 63266\nvalue = [55042, 8224]"] ;
1 -> 17 ;
18 [label="Made_Lead_Days_Work <= 40.5\nentropy = 0.499\nsamples = 55231\nvalue = [49167, 6064]"] ;
17 -> 18 ;
19 [label="Made_Lead_Days_Calendar <= 3.5\nentropy = 0.464\nsamples = 50457\nvalue = [45498, 4959]"] ;
18 -> 19 ;
20 [label="entropy = 0.299\nsamples = 9151\nvalue = [8666, 485]"] ;
19 -> 20 ;
21 [label="entropy = 0.495\nsamples = 41306\nvalue = [36832, 4474]"] ;
19 -> 21 ;
22 [label="count_app <= 2.5\nentropy = 0.781\nsamples = 4774\nvalue = [3669, 1105]"] ;
18 -> 22 ;
23 [label="entropy = 0.837\nsamples = 3291\nvalue = [2413, 878]"] ;
22 -> 23 ;
24 [label="entropy = 0.617\nsamples = 1483\nvalue = [1256, 227]"] ;
22 -> 24 ;
25 [label="Made_Lead_Days_Calendar <= 1.5\nentropy = 0.84\nsamples = 8035\nvalue = [5875, 2160]"] ;
17 -> 25 ;
26 [label="provider_12 <= 0.5\nentropy = 0.465\nsamples = 517\nvalue = [466, 51]"] ;
25 -> 26 ;
27 [label="entropy = 0.427\nsamples = 481\nvalue = [439, 42]"] ;
26 -> 27 ;
28 [label="entropy = 0.811\nsamples = 36\nvalue = [27, 9]"] ;
26 -> 28 ;
29 [label="count_miss <= 1.5\nentropy = 0.856\nsamples = 7518\nvalue = [5409, 2109]"] ;
25 -> 29 ;
30 [label="entropy = 0.811\nsamples = 5415\nvalue = [4061, 1354]"] ;
29 -> 30 ;
31 [label="entropy = 0.942\nsamples = 2103\nvalue = [1348, 755]"] ;
29 -> 31 ;
32 [label="Made_Lead_Days_Calendar <= 4.5\nentropy = 0.993\nsamples = 2915\nvalue = [1597, 1318]"] ;
0 -> 32 [labeldistance=2.5, labelangle=-45, headlabel="False"] ;
33 [label="Made_Lead_Days_Calendar <= 1.5\nentropy = 0.831\nsamples = 731\nvalue = [539, 192]"] ;
32 -> 33 ;
34 [label="distance_google <= 0.001\nentropy = 0.639\nsamples = 315\nvalue = [264, 51]"] ;
33 -> 34 ;
35 [label="entropy = 0.881\nsamples = 10\nvalue = [3, 7]"] ;
34 -> 35 ;
36 [label="visit_type_23 <= 0.5\nentropy = 0.595\nsamples = 305\nvalue = [261, 44]"] ;
34 -> 36 ;
37 [label="entropy = 0.279\nsamples = 83\nvalue = [79, 4]"] ;
36 -> 37 ;
38 [label="entropy = 0.68\nsamples = 222\nvalue = [182, 40]"] ;
36 -> 38 ;
39 [label="PopDensity <= 1875.725\nentropy = 0.924\nsamples = 416\nvalue = [275, 141]"] ;
33 -> 39 ;
40 [label="visit_type_15 <= 0.5\nentropy = 0.98\nsamples = 194\nvalue = [113, 81]"] ;
39 -> 40 ;
41 [label="entropy = 0.996\nsamples = 160\nvalue = [86, 74]"] ;
40 -> 41 ;
42 [label="entropy = 0.734\nsamples = 34\nvalue = [27, 7]"] ;
40 -> 42 ;
43 [label="distance_bird <= 34.706\nentropy = 0.842\nsamples = 222\nvalue = [162, 60]"] ;
39 -> 43 ;
44 [label="entropy = 0.777\nsamples = 205\nvalue = [158, 47]"] ;
43 -> 44 ;
45 [label="entropy = 0.787\nsamples = 17\nvalue = [4, 13]"] ;
43 -> 45 ;
46 [label="appt_log_type_0 <= 0.5\nentropy = 0.999\nsamples = 2184\nvalue = [1058, 1126]"] ;
32 -> 46 ;
47 [label="Made_Lead_Days_Calendar <= 69.5\nentropy = 0.947\nsamples = 741\nvalue = [470, 271]"] ;
46 -> 47 ;
48 [label="count_miss <= 0.5\nentropy = 0.908\nsamples = 612\nvalue = [414, 198]"] ;
47 -> 48 ;
49 [label="entropy = 0.832\nsamples = 455\nvalue = [335, 120]"] ;
48 -> 49 ;
50 [label="entropy = 1.0\nsamples = 157\nvalue = [79, 78]"] ;
48 -> 50 ;
51 [label="Appt_Made_Hour <= 10.5\nentropy = 0.987\nsamples = 129\nvalue = [56, 73]"] ;
47 -> 51 ;
52 [label="entropy = 0.894\nsamples = 29\nvalue = [20, 9]"] ;
51 -> 52 ;
53 [label="entropy = 0.943\nsamples = 100\nvalue = [36, 64]"] ;
51 -> 53 ;
54 [label="Made_Lead_Days_Calendar <= 10.5\nentropy = 0.975\nsamples = 1443\nvalue = [588, 855]"] ;
46 -> 54 ;
55 [label="Appt_Year <= 2015.5\nentropy = 1.0\nsamples = 562\nvalue = [279, 283]"] ;
54 -> 55 ;
56 [label="entropy = 0.954\nsamples = 155\nvalue = [97, 58]"] ;
55 -> 56 ;
57 [label="entropy = 0.992\nsamples = 407\nvalue = [182, 225]"] ;
55 -> 57 ;
58 [label="age_bucket_1 <= 0.5\nentropy = 0.935\nsamples = 881\nvalue = [309, 572]"] ;
54 -> 58 ;
59 [label="entropy = 0.902\nsamples = 723\nvalue = [230, 493]"] ;
58 -> 59 ;
60 [label="entropy = 1.0\nsamples = 158\nvalue = [79, 79]"] ;
58 -> 60 ;
}